nep4_charge2 2 H O 
cutoff 4 4 80 80
n_max 4 4
basis_size 8 8
l_max 4 2 0
ANN 30 0
 -6.9939166e-01
 -2.8234553e-01
 -8.6098678e-02
 -1.3273796e+00
  6.7651820e-01
  7.5958139e-01
  9.6415317e-01
  1.8208888e-01
 -1.2702523e-02
  5.7335907e-01
  1.1486615e+00
  5.7915086e-01
  1.8475924e+00
  1.2472016e+00
 -7.3635346e-01
  1.4595469e+00
  1.7350046e-01
 -1.7327330e-01
 -7.6988876e-02
  1.6489942e+00
  5.2755731e-01
  5.4165214e-01
 -1.0393202e-01
  3.1661838e-01
 -4.5013830e-01
 -9.1417730e-01
  4.3436557e-01
  1.1209591e-01
 -5.6660268e-02
 -1.1964225e+00
  1.2565150e+00
 -5.4579371e-01
 -3.6829233e-01
  1.7003599e-01
  1.0228679e-01
 -1.0286719e+00
  9.7483039e-01
 -1.0002098e+00
  5.6860650e-01
 -2.2739239e-01
  5.0267482e-01
 -5.4106075e-01
  6.3230735e-01
 -1.9470427e-02
  8.4185220e-02
 -4.6207267e-03
 -4.7625488e-01
  1.2511927e+00
  2.9007033e-01
 -3.3232544e-02
 -7.6516855e-01
  1.2541370e+00
 -5.0126123e-01
 -1.5219203e-01
 -9.4698081e-03
  2.4245031e-01
  4.1177344e-01
 -6.8904620e-01
 -1.7698628e-01
  7.1418417e-01
  3.6130393e-01
 -1.0594052e+00
 -4.0466091e-01
 -7.2213024e-01
 -4.4505656e-01
 -2.0962368e-01
  9.2415762e-01
  5.8057904e-01
 -5.3223491e-01
 -6.7044038e-01
 -1.8587160e-01
  7.3821306e-01
  1.2921416e+00
 -3.1431922e-01
  9.3195212e-01
 -4.7724739e-01
  1.6094965e+00
  2.9234731e-01
 -2.7447140e-01
  2.1568678e-01
  2.4584534e-02
  7.3572999e-01
 -1.6111356e-01
 -8.6252367e-01
 -1.1446795e+00
 -2.2707814e-01
  3.2772224e-02
  4.4096448e-02
  1.2752957e+00
  3.4150863e-01
 -5.0379175e-01
 -1.7909775e-02
 -8.8464928e-01
 -7.7435780e-01
 -4.5655891e-01
  1.3751414e-01
 -1.6118167e-01
 -3.8948718e-01
  1.0062872e+00
 -7.3771280e-01
 -2.4332857e-01
 -6.1169916e-01
 -2.8143266e-01
 -2.4413788e-01
 -3.9972043e-01
  8.8331908e-01
 -9.0344721e-01
  7.1968830e-01
 -4.9015662e-01
  1.7264426e+00
 -5.5580539e-01
  5.6494707e-01
 -3.1456929e-01
  8.5898834e-01
  3.6398891e-01
 -3.0088708e-01
 -7.2747946e-01
 -7.0511955e-01
  1.9610587e-01
 -5.5719590e-01
  1.8265449e-01
 -8.2193685e-01
 -1.2428825e-01
 -3.9109877e-01
 -1.5792308e+00
 -3.9705372e-01
 -4.1890770e-01
 -6.1460759e-02
 -5.9598500e-01
 -2.4241214e-01
 -7.8932118e-01
 -1.2750826e+00
  5.2915835e-01
 -4.7374066e-02
  5.3412753e-01
 -1.3846526e-01
 -6.4322788e-01
 -1.0809230e+00
 -3.5481822e-01
  2.5465348e-01
 -1.0441853e+00
 -7.7654827e-01
 -3.1609139e-01
 -1.6873592e-01
  8.8824534e-01
  2.5524834e-01
  5.9893471e-01
  7.3893869e-01
 -1.6474149e+00
 -1.0629115e-01
  9.5035267e-01
  2.1813072e-01
  7.4032491e-01
  5.6014127e-01
 -6.5990299e-01
  1.1377012e-01
 -5.1118946e-01
  1.5348172e+00
 -4.1873723e-01
  6.7090881e-01
  9.1709328e-01
  1.4531428e+00
  3.1837827e-01
 -4.6913683e-01
 -5.0575930e-01
 -1.2749068e+00
 -6.8332988e-01
  3.9925861e-01
  3.5725427e-01
 -7.8491354e-01
 -2.4174193e-01
 -6.8886840e-01
  2.9483458e-01
  2.5147794e-02
  1.8433861e-01
  8.9698456e-02
  4.2001835e-01
  9.5796990e-01
  4.7924265e-01
 -8.1295085e-01
 -8.4370631e-01
  8.9544499e-01
  4.1814235e-01
  1.1440809e+00
  1.4677553e-02
  7.3427272e-01
 -1.3906478e+00
 -6.0498267e-01
  4.5478314e-01
  8.8113052e-01
  1.2828170e-01
  2.1971773e-01
  1.4061681e+00
  2.3239142e-01
  3.6705405e-01
 -5.4048270e-01
 -6.4239061e-01
 -1.1978454e-01
 -2.9786316e-01
 -2.3076135e-01
  5.1271343e-01
 -7.0072645e-01
 -1.5968484e+00
  1.0479031e+00
  3.7311763e-01
  9.2052829e-01
 -1.8576704e-01
 -1.8329288e-01
 -7.4551117e-01
 -5.4326379e-01
 -3.4086812e-01
 -9.0075082e-01
  1.2554996e+00
 -1.3037759e+00
  3.2300246e-01
  1.2349604e+00
 -2.3820864e-01
 -1.1267346e+00
 -5.3499210e-01
  6.0412133e-01
 -9.2599541e-01
 -7.8765303e-01
  2.1750820e-01
  5.2494826e-03
  1.0283874e+00
  1.0830157e+00
  1.3058825e+00
  3.6276507e-01
 -1.1401545e+00
 -3.1827379e-02
  3.7486103e-01
 -7.1147598e-02
  1.1070997e+00
  4.1318636e-02
 -4.9250540e-01
 -1.1475912e+00
  2.7031043e-01
 -1.5273387e+00
  1.1493403e+00
  9.0964124e-02
 -4.0730190e-01
  9.8061860e-01
 -2.2621925e-01
 -3.7751442e-01
  1.3057767e+00
 -6.8593580e-01
 -5.9681648e-01
  4.9102810e-01
  5.7368103e-02
  1.2511861e+00
 -2.5493413e-01
 -6.2877977e-01
  1.1026143e+00
  2.0150721e-01
 -2.8996816e-01
  8.3570099e-01
  1.8186188e-01
 -1.0771255e-01
 -5.4915094e-01
  5.1209319e-01
 -7.1983802e-01
  3.3405412e-02
 -3.6367717e-01
 -5.1942265e-01
  1.1097685e+00
 -3.0934939e-01
  7.7353352e-01
 -2.4224684e-01
  2.9707287e-02
  5.7307541e-01
  9.8422015e-01
 -9.0393460e-01
 -2.7663065e-02
 -7.7542639e-01
 -6.5468460e-01
 -7.8784353e-01
 -1.0800941e+00
 -3.3806777e-01
  1.2246491e+00
 -6.1922282e-01
  1.1769824e-02
  4.8960251e-01
  5.9652865e-01
  3.9070897e-02
  1.8647103e-01
 -1.0821018e+00
 -2.0003632e-01
  1.2800754e+00
 -2.5696003e-01
 -3.7404150e-02
 -3.9551964e-01
  6.4860350e-01
  5.9160984e-01
  6.7389125e-01
 -3.3769786e-01
 -9.7481304e-01
  3.2725707e-01
  9.3117982e-01
 -4.7392577e-01
 -1.9728814e-01
 -3.6523589e-01
  1.3157216e-02
  3.2094198e-01
  1.9070989e-01
  6.2260950e-01
  5.0847393e-01
  1.1205947e+00
 -3.2296956e-01
 -3.1413412e-01
  1.6867159e-01
 -6.3032120e-01
 -3.4343782e-01
  5.9795998e-02
 -6.5463334e-01
  1.1452998e-01
  3.4948447e-01
 -4.9687022e-01
 -9.9537835e-02
 -3.9274454e-01
 -4.9107766e-01
 -2.3722980e-02
 -4.8655164e-03
  1.2891936e+00
  3.7195414e-01
 -5.5918209e-02
 -9.9597603e-02
 -1.3366681e+00
 -2.0204170e-01
  1.6618345e+00
  1.2393168e-03
 -1.5693927e+00
  1.6871094e+00
  4.5512497e-01
  5.5134767e-01
  5.4594582e-01
  1.0339962e-01
  5.4422218e-01
  5.4996026e-01
  3.8207448e-01
  1.0160564e+00
  3.7524831e-02
 -1.1593238e-01
 -3.2242712e-01
 -2.1420880e-01
 -2.6225400e-01
  3.6337521e-02
 -2.0696218e-01
  5.1423073e-01
 -1.8357683e-02
  8.0028367e-01
 -1.0248860e+00
  9.8251897e-01
  9.0270594e-02
 -2.0210353e-01
  3.1798771e-01
  7.4246502e-01
 -1.9478774e-01
  4.0315101e-01
 -1.4711329e+00
  4.0165344e-01
  8.0234784e-01
 -1.3539825e-01
 -8.1766427e-01
  7.0287097e-01
  1.2310709e+00
  7.7541673e-01
 -3.0390066e-01
  2.3846072e-01
  1.3302256e+00
 -4.4386372e-01
 -8.3355367e-01
  5.4597342e-01
  5.3319473e-02
 -1.0852269e+00
  8.2270838e-02
 -1.5145496e-01
 -6.2142897e-01
  3.0533841e-01
  1.5164598e+00
 -4.2647514e-01
  1.1466787e+00
  6.5901089e-01
 -6.9800955e-01
  5.7815629e-01
 -1.2320431e+00
  4.2942807e-01
 -8.4545481e-01
 -6.7946929e-01
  2.4427494e-01
  9.3669301e-01
 -1.2369143e+00
 -4.9260831e-01
  1.4549284e+00
  8.4448099e-02
 -1.9579683e-01
  2.4936859e-01
  1.6053377e-01
  1.0594248e+00
  7.4439901e-01
 -2.5662342e-01
 -8.0244493e-01
 -1.2609828e-01
 -3.3072883e-01
  4.3452293e-01
 -2.7656454e-01
 -7.2952694e-01
 -1.1711098e+00
  2.6518521e-01
  1.1933744e+00
 -7.8968716e-01
 -6.5057623e-01
  6.0072529e-01
  1.9938640e-01
 -9.4810027e-01
  3.3740592e-01
 -3.7925953e-01
  2.9276863e-03
 -1.5806127e+00
 -8.4489173e-01
  4.1115320e-01
 -1.8168390e-02
 -2.9926881e-01
 -2.0505422e-01
  5.7952291e-01
  5.0373435e-01
  7.7265638e-01
  4.1662890e-01
 -1.2195109e+00
  6.3262004e-01
  4.2288521e-01
  8.1177115e-01
  4.1952130e-01
  3.7528440e-01
  9.2588848e-01
 -3.9354557e-01
  2.2760610e-01
  6.6433273e-02
  3.8409168e-01
 -7.5180012e-01
 -4.9134365e-01
  7.6753211e-01
  1.0221962e+00
  2.7092907e-01
 -1.7908867e-01
  3.0514342e-01
 -6.6843188e-01
 -1.1482195e+00
 -3.5465279e-01
  5.1804759e-02
 -7.7473217e-01
  1.0047719e+00
 -8.4642649e-02
  8.1352019e-01
 -9.1687310e-01
 -1.0027303e+00
 -3.4575653e-01
 -2.2309683e-01
 -3.7901810e-01
 -4.2073706e-01
 -5.1503885e-01
 -3.4485027e-02
 -8.0097485e-01
  5.6090075e-01
 -7.6470602e-01
 -2.5208572e-02
  5.1274920e-01
  4.8141319e-01
  9.8024446e-01
  1.3299062e+00
  3.6110115e-01
 -1.0384139e+00
  7.7131897e-01
  4.0170562e-01
 -3.1199434e-01
 -2.6664749e-01
  2.0521593e-01
  5.9072042e-01
 -7.0591584e-02
 -3.8750422e-01
  1.0903727e-01
 -6.5633160e-01
 -5.2486616e-01
 -1.6161881e-01
  2.0484045e+00
 -2.2005625e-01
 -5.5245066e-01
  2.3968300e-02
 -7.8985405e-01
  1.2756917e+00
 -9.3702704e-01
  8.8757165e-02
  1.0155804e+00
 -4.0756017e-01
 -4.1078287e-01
 -2.5402126e-01
 -6.2967396e-01
  3.1365493e-01
  2.0034067e-01
  8.3988351e-01
 -7.4264354e-01
 -1.6280077e-01
 -1.7576896e-02
 -7.8764135e-01
  7.8604549e-02
 -6.5377456e-01
 -3.5534498e-01
  2.0467633e-01
 -9.6346492e-01
  3.6360046e-01
 -6.6565514e-01
 -3.6197033e-02
 -1.2770175e-02
  2.4887051e-01
 -2.4866158e-01
 -1.3141857e+00
  4.7612172e-01
 -6.3137072e-01
  6.9842950e-02
 -1.3680241e-01
 -8.3423322e-01
  8.4319574e-01
  5.9493643e-01
  6.8003488e-01
  2.0564792e-01
  4.9950135e-01
 -7.6577938e-01
 -6.4811826e-01
  3.2570970e-01
  6.6730285e-01
 -3.1821606e-01
 -7.8381538e-01
 -5.9198427e-01
 -3.8160747e-01
  5.4561734e-01
 -4.5342892e-01
 -9.2068613e-02
  3.3875811e-01
 -5.8850348e-01
 -4.1357952e-01
 -1.0175029e+00
 -9.6236932e-01
  1.7183087e+00
 -7.5499779e-01
 -3.0427784e-01
 -9.5606738e-01
  7.9020500e-01
  7.8480607e-01
 -1.1135179e+00
 -1.8798219e-01
 -8.4602487e-01
 -5.0256354e-01
  1.5208788e-01
 -2.7238039e-02
  2.1553002e-01
  8.4889090e-01
  7.9203105e-01
  4.7082493e-01
 -1.3299105e+00
  5.4168969e-01
 -6.7275119e-01
 -2.5190791e-01
 -8.5177851e-01
 -4.2076099e-01
 -1.2231362e+00
 -7.0116204e-01
 -1.7562237e-01
  4.3274668e-01
 -8.2006186e-01
  7.3336476e-01
 -4.9367275e-02
 -8.4316200e-01
 -4.9434263e-01
  1.5535002e+00
 -3.2098716e-01
  4.3216953e-01
  3.1180537e-01
  1.2181971e+00
  5.3479248e-01
  3.7881038e-01
 -3.1015825e-01
 -2.1045254e-01
  7.8245848e-01
  1.5191711e-02
  9.1515875e-01
 -8.8382578e-01
  3.2834325e-02
  3.4443861e-01
  5.6041741e-01
 -6.2919426e-01
  1.9625744e-01
  1.0227666e-03
 -9.0875633e-02
  3.4105510e-01
 -8.0190696e-02
 -8.8411331e-01
  1.1099080e+00
 -1.3930754e-01
  1.1777592e+00
 -1.8733883e-01
 -1.5392222e-01
 -6.9085650e-02
 -1.0624791e+00
 -1.2369900e+00
  7.8663945e-02
  1.3008585e+00
  8.5713130e-01
 -1.3116988e+00
  1.0281961e+00
 -1.1141886e+00
  1.8045293e-01
  3.1815794e-01
  1.0615878e-01
 -1.3488342e+00
 -1.3573478e-01
  6.3866150e-01
  1.0809460e+00
 -2.6954725e-01
  7.5800979e-01
 -8.0345464e-01
 -3.9885673e-01
 -6.6124195e-01
  4.5921206e-01
  4.4074774e-01
 -2.5088197e-01
  8.1277050e-02
 -1.1797888e+00
 -3.7157017e-01
 -4.5218539e-01
 -1.2149955e+00
 -6.8713254e-01
  4.1029882e-01
 -3.0660433e-01
 -4.4461489e-01
  6.9281346e-01
 -1.0049839e-01
  4.0004921e-01
 -8.9113098e-01
  5.5418581e-01
 -6.9805264e-01
  6.9985157e-01
 -5.2556920e-01
  1.2047017e+00
  3.4016931e-01
  3.0686343e-01
  3.1440869e-01
 -4.3479827e-01
 -8.8207167e-01
  1.3792610e+00
  2.0191193e-01
 -3.2994783e-01
  2.9608351e-01
  1.6272277e-01
 -1.0114387e+00
 -5.9046572e-01
  2.1940644e-01
 -3.1520864e-01
 -1.1975774e+00
  6.0492512e-02
 -4.7045302e-01
  7.9939556e-01
  4.9345514e-01
 -2.5044030e-01
 -7.2179884e-01
  1.6293910e-01
  2.4734318e-01
  1.3265951e+00
  9.8083347e-01
 -6.2716877e-01
  9.5879042e-01
  3.2478818e-01
 -1.9674867e-01
 -1.5850677e-01
 -8.8798994e-01
 -1.4806812e-01
  2.4510068e-01
 -8.0846959e-01
 -1.3176702e+00
  2.9754257e-01
  9.4333935e-01
 -8.2784766e-01
  5.6552374e-01
  5.2732963e-02
 -4.5370775e-01
 -6.9950098e-01
 -7.1542436e-01
  5.2901256e-01
  5.7708871e-01
 -1.4924715e-01
 -5.7280600e-01
 -2.6062167e-01
  5.9063506e-01
  2.3399866e-01
  5.0318766e-01
  3.7833300e-01
  1.3439583e+00
  3.0935198e-01
 -4.4610345e-01
  9.5466346e-01
  1.1273541e-01
 -3.0790588e-01
  6.5798295e-01
 -1.4967133e-01
  1.2874695e+00
 -1.1089764e+00
  9.5772944e-02
 -4.6285775e-01
  8.7153649e-01
 -6.1861479e-01
 -8.2075787e-01
 -7.5398117e-02
 -6.1001632e-02
  3.6055785e-01
 -3.4488622e-02
 -2.5331734e-02
 -4.3257746e-01
  5.0380701e-01
  3.0030498e-01
  4.9307099e-01
  3.0739024e-01
  3.6105886e-01
  9.2757326e-01
  2.2415312e-02
 -6.2437636e-01
  3.0995417e-02
  2.1788305e-01
 -8.4910083e-01
  4.5940176e-01
 -3.1147036e-01
 -9.1602200e-01
 -7.0570551e-02
  6.7732787e-01
  9.1474354e-01
 -2.9928431e-01
 -6.8912983e-01
 -4.3520343e-01
  5.5159813e-01
  2.5623721e-01
 -3.7704092e-01
  4.8686099e-01
  1.0971967e-01
  9.1671929e-02
  6.2303209e-01
  4.2907560e-01
  1.3508945e+00
 -1.7209548e+00
  5.4504150e-01
 -8.8302815e-01
 -1.0531965e-01
  7.3570061e-01
 -1.2209395e+00
  1.1807917e+00
 -1.0516306e+00
 -1.0154525e+00
 -2.3229195e-01
  3.8661987e-01
 -1.5625001e-01
  7.8125179e-01
  5.5538684e-01
  1.0170691e+00
 -9.0047485e-01
  1.1577654e+00
  2.1152349e-01
 -8.1035513e-01
 -3.6353260e-01
  1.6016033e+00
 -8.2476854e-01
 -7.5885648e-01
  1.1002874e+00
  1.7326064e-01
 -8.4487152e-01
 -7.0576823e-01
 -8.3077842e-01
 -4.5825768e-01
 -2.8655708e-01
  2.1351969e-01
  1.0021595e-01
 -1.7761788e-01
 -8.8521457e-01
 -9.9086333e-03
  1.4690571e+00
 -8.2311785e-01
  2.7639422e-01
 -9.1868329e-01
  1.0542301e+00
  3.0950430e-01
  3.2216817e-01
 -1.4417889e+00
 -3.3661631e-01
 -7.1990561e-01
  1.1105056e+00
 -7.7189469e-01
  7.1129447e-01
 -3.6700776e-01
 -5.0943798e-01
 -8.8722563e-01
 -3.8068286e-01
 -8.8658774e-01
 -3.9461237e-01
  4.9205378e-01
 -9.7043522e-02
  7.7035624e-01
 -6.0174197e-02
  3.6974448e-01
  6.9381380e-01
 -2.2292602e-01
  1.4493617e+00
  3.6907589e-01
 -3.1821263e-01
  5.9226084e-01
  1.7800875e-02
 -8.7219417e-01
  9.5419979e-01
 -1.0663679e+00
  7.1260637e-01
 -4.1432282e-01
 -1.4057534e+00
  7.0422900e-01
 -2.1174076e-01
 -9.9531525e-01
  4.8532987e-01
  6.3170242e-01
 -1.1738405e-01
 -2.0224462e-01
  6.5299386e-01
  3.1879407e-01
  2.2344941e-01
  3.2029650e-01
 -8.9126766e-01
  4.1204032e-01
 -1.8782437e-01
  1.6444424e+00
 -2.6082608e-01
 -5.4005247e-01
 -6.0535008e-01
 -6.6508263e-01
 -5.1357120e-01
  1.0890896e+00
  4.6587512e-01
 -8.3612752e-01
 -3.0486932e-02
  5.9136885e-01
  5.4413861e-01
 -2.8138101e-01
  6.8114316e-01
 -1.4731522e-01
 -5.8269948e-01
  1.5653045e+00
  1.1266844e+00
  3.3205986e-02
 -8.0048651e-02
 -4.5707330e-01
  3.7777781e-01
  1.0506344e+00
 -6.3818237e-03
  7.2038537e-01
  6.6575450e-01
 -7.3652364e-02
  2.0715177e-01
  7.5622660e-01
  2.9967621e-02
 -4.7341222e-01
 -1.3112314e-01
  7.6707566e-01
  3.8916081e-02
 -5.3468359e-01
  6.4386618e-01
 -2.1877125e-02
 -7.5172460e-01
 -3.8699967e-01
  6.0558897e-01
  1.0500746e+00
 -8.1970501e-01
 -8.8495368e-01
  5.6089050e-01
 -1.0684913e+00
  1.7332451e-01
 -4.3347687e-01
 -7.7765471e-01
  1.3973148e+00
 -8.8571626e-01
 -1.0012068e+00
  1.7289352e-01
 -8.0652666e-01
 -1.2658560e+00
  6.5640754e-01
 -2.6129657e-02
 -5.1963985e-01
  7.7657717e-01
 -6.4627641e-01
  3.9836475e-01
 -8.6062616e-01
  3.6962914e-01
  4.6207830e-01
  4.6897051e-01
  2.0503692e-01
 -7.5687337e-01
  1.1487460e+00
  1.8216784e-01
 -2.3342070e-01
  2.2914815e-01
 -1.6020130e-01
  7.5554293e-01
  9.3364805e-01
  3.0806011e-01
  6.0281688e-01
 -7.3976427e-01
 -3.5208985e-01
  3.2254112e-01
 -5.6314808e-01
 -6.4878464e-01
  2.9346812e-01
  5.0459814e-01
  8.4738858e-02
 -7.7118695e-01
  7.3506641e-01
 -6.6600925e-01
 -8.4168929e-01
 -5.9346306e-01
 -5.6866628e-01
  2.8616524e-01
 -6.5531931e-03
 -2.3774236e-01
 -1.0652056e-01
  5.3786796e-01
  4.6559110e-01
  1.9733651e-01
 -2.2487018e-01
  3.5885420e-01
  4.2094967e-01
 -5.7468545e-01
  1.1882101e+00
  1.4337143e-02
 -8.1199890e-01
 -4.6019596e-01
 -4.3783039e-01
 -3.7963670e-02
 -3.2464065e-02
  3.7306559e-01
 -2.3660721e-01
  6.2497890e-01
 -3.8013726e-01
  7.1697807e-01
  8.7745494e-01
  2.2794396e-01
  9.7089374e-01
  1.2606872e+00
 -5.2954543e-01
  3.8785640e-02
 -7.4799711e-01
  1.0843972e+00
 -1.1154442e-01
  2.1192044e-01
  9.2728937e-01
  5.1370424e-01
  1.5930673e-02
 -5.6102383e-01
 -8.7320167e-01
  6.8287063e-01
  1.2687783e+00
  8.1708375e-03
  1.7680080e-01
  2.6503029e-01
  3.6559012e-02
 -4.3870628e-01
  1.4552993e-01
  5.5743206e-01
 -2.7045521e-01
 -1.6598740e-01
 -2.6932514e-01
  3.4677038e-01
 -1.4506009e-01
 -1.0835767e-01
 -8.2996525e-02
 -2.7400813e-01
  1.6766770e-02
 -4.6772152e-01
  2.7592394e-01
 -2.9379416e-01
  2.2038034e-01
 -4.1107300e-01
 -1.4797562e-01
  9.3707487e-02
 -2.7665447e-02
 -2.6323396e-01
 -9.8707965e-03
 -3.0298707e-01
 -1.8434139e-01
 -4.3991244e-01
 -2.2256364e-01
  1.1526559e-01
 -1.1380672e+00
  9.0859395e-01
  6.5170574e-01
 -9.1679943e-01
  8.8269186e-01
  1.1067601e+00
 -1.9384531e-02
 -1.5109773e-01
 -2.7204685e-02
  9.7073835e-01
 -9.1085654e-01
  5.0109220e-01
  2.0706148e+00
 -1.1758758e+00
 -6.0867995e-01
  9.3156797e-01
 -3.3047742e-01
 -3.2055250e-01
  5.4445416e-01
 -3.5729215e-02
  1.5081954e+00
  3.6838210e-01
  7.8229301e-02
  2.6818091e-01
 -5.3268701e-01
  6.6872305e-01
 -4.8238087e-01
  1.0794846e+00
 -5.1905680e-01
  5.6463265e-01
 -1.3941380e-02
  5.5225253e-01
  1.0767672e+00
  1.9241379e-01
 -5.8343190e-01
  6.4228916e-01
  3.7472823e-01
  9.5744616e-01
  4.3435991e-01
 -2.1360607e-01
 -2.9397267e-01
 -9.6127987e-01
 -4.3365565e-01
 -3.6988217e-01
 -1.0760682e+00
  6.8778592e-01
  6.1448282e-01
 -8.1221449e-01
 -2.0935534e-01
  3.8470960e-01
 -7.0225734e-01
 -2.3739153e-01
  4.9531016e-01
 -7.5590229e-01
 -1.0968909e-01
  1.0515349e-02
 -8.6856478e-01
  8.5788620e-01
  1.7067477e-01
  4.0322207e-02
 -6.5852559e-01
  1.0749815e+00
 -1.8046422e-01
  1.5616426e-01
  8.1998333e-02
 -4.8190355e-01
  2.8796071e-01
 -1.3406941e+00
  4.6352372e-02
  1.2310910e+00
 -1.1389628e-01
  4.2477034e-02
  4.4976303e-01
 -4.7117215e-01
  5.6910473e-01
 -1.6798744e-01
  5.4315019e-01
  8.7129459e-02
 -1.2763474e+00
 -3.5637504e-01
  6.2856174e-01
 -7.1323282e-01
 -1.1318322e-01
  2.9556057e-01
  5.1109445e-01
  1.2122852e-01
 -1.6230245e+00
 -3.4562969e-01
 -1.3017619e+00
  1.0292130e+00
  6.5036190e-01
  5.5054569e-01
 -4.3914884e-01
  7.4274307e-01
 -1.1665715e+00
  1.0947416e+00
  5.3062707e-01
  7.4042743e-01
 -9.6907878e-01
 -6.2431407e-01
  7.4800324e-01
 -5.3634548e-01
  8.0709213e-01
  1.3886455e-01
  3.0764905e-01
  1.4378627e-01
 -2.0489351e-01
  9.1936427e-01
  1.1586101e+00
  3.3345300e-01
 -1.0093500e-01
  1.1543900e+00
 -6.5203017e-01
  3.1799680e-01
  5.3471750e-01
 -1.4819715e+00
  9.9510962e-01
  6.7584622e-01
 -1.6037419e-01
  4.0259323e-01
 -4.3033782e-01
  3.9850292e-01
 -2.3129059e-01
  5.5772752e-02
  1.2534240e+00
 -1.5205395e-01
  3.3824436e-02
  3.9326495e-01
  2.5684020e-02
 -1.2136185e+00
 -2.8368634e-01
  3.8317692e-01
  6.1038202e-01
 -5.2768624e-01
 -6.3269544e-01
 -4.9132437e-01
  1.3727616e-01
  9.5917892e-01
 -5.9036225e-01
 -1.2599262e+00
 -6.2101346e-01
  1.5830150e-01
  1.0792197e-01
  4.2778793e-01
  1.0370752e+00
 -4.0070435e-01
 -7.2361904e-01
  5.2086341e-01
 -2.3579806e-01
  1.1600125e+00
 -3.0522823e-01
 -6.4062178e-01
 -1.0621512e+00
 -1.4656483e+00
 -1.7060190e-01
 -9.9869740e-01
  9.2944103e-01
 -6.0654655e-02
 -6.6944218e-01
 -6.3996685e-01
 -3.7642527e-01
  1.1611856e-01
 -2.0607321e-01
  1.5394899e-01
  7.2327030e-01
 -1.0267855e+00
  1.3908248e+00
  5.5003279e-01
 -5.2598166e-01
  2.0923062e-01
  8.1335330e-01
  2.1355893e-01
  5.9033406e-01
  8.3154249e-01
 -4.8440635e-01
 -1.0933781e+00
  5.5497032e-01
 -2.1280529e-01
 -5.6495148e-01
 -9.8213069e-03
  2.1510109e-01
 -4.0255558e-01
  1.1897976e+00
  1.5449102e-02
 -3.4192652e-01
 -1.1545938e+00
 -7.3839736e-01
  2.4163398e-01
 -1.3694340e+00
 -5.2693319e-01
 -2.6420322e-01
  3.5018221e-01
  5.4964602e-01
 -9.4589680e-01
  4.3728244e-01
  7.2313660e-01
 -2.7302638e-01
 -9.1363645e-01
  1.2302551e+00
  4.9404633e-01
  1.7021863e-01
  9.1817701e-01
  3.1157076e-01
  2.1879593e-02
 -2.5349140e-01
  1.0577893e-01
 -1.5912471e+00
 -7.9479563e-01
 -6.1201507e-01
  8.5960126e-01
 -9.4670713e-01
  7.1987432e-01
 -1.8136837e-01
 -1.0412562e+00
  5.2411668e-02
 -1.0018085e+00
  1.2555310e+00
  1.3525572e+00
  5.7742339e-01
 -1.1842493e-01
 -7.1770513e-01
 -8.9108139e-01
 -6.7177045e-01
 -6.1854184e-01
 -6.2875539e-01
 -4.2408547e-01
 -6.4268893e-01
  3.6120495e-01
 -1.4146498e+00
 -5.4493552e-01
 -1.0153371e+00
  3.0740941e-01
 -5.2757418e-01
 -2.8931674e-01
 -1.9526108e-01
  8.6014950e-01
 -1.1564792e-02
  3.0453384e-01
  4.4897810e-01
  8.5284626e-01
 -1.1162828e+00
  9.0210313e-01
 -9.7480828e-01
  1.1037310e+00
 -8.5600799e-01
  2.8849903e-01
  1.3653582e+00
 -3.7252733e-01
 -8.3165884e-01
  6.9885677e-01
  1.3542863e+00
  4.4279000e-01
  6.8720661e-02
 -5.7146335e-03
  1.0893750e+00
  6.7350090e-01
 -9.5687616e-01
 -5.0607234e-01
  8.2555449e-01
 -5.7135564e-01
  3.9688393e-01
  2.0358555e-02
  5.4454201e-01
 -7.5005502e-01
 -1.4895575e-01
 -9.4247627e-01
 -1.2707952e+00
  5.4245460e-01
  8.2017666e-01
 -2.3203656e-01
  1.4851122e+00
 -6.7841035e-01
 -3.8139883e-01
 -3.7969559e-01
  2.0913482e-01
 -2.7539945e-01
 -4.9978587e-01
 -1.0450904e+00
 -7.6387608e-01
 -7.7469087e-01
  7.2764164e-01
  1.3564124e+00
 -2.7690673e-01
  7.3517555e-01
 -3.7947854e-01
  1.8469253e-01
 -6.7018872e-01
 -3.9393356e-01
  1.0142177e+00
 -8.1681061e-01
  2.3238680e-01
  2.0784971e-01
 -7.6488101e-01
  3.1297109e-01
 -7.8453112e-01
  8.2169211e-01
  9.7604267e-02
  4.9358302e-01
  6.9365066e-01
  5.3524500e-01
  9.1945446e-01
 -1.4854404e-01
 -1.1900588e+00
 -2.2903548e-01
 -7.6591527e-01
 -7.2875780e-01
 -5.2155703e-01
  3.3523020e-01
  1.6372511e+00
  6.5837510e-02
  4.3857247e-01
 -2.4614808e-01
 -1.1605009e+00
  3.6622593e-01
 -5.2763903e-01
  4.2560056e-01
 -7.0528424e-01
 -5.6248236e-01
  1.6805047e-01
 -2.5695801e-01
 -5.8766782e-01
  1.2884574e+00
 -7.3431605e-01
  1.1894445e-01
  4.0711391e-01
  1.5443769e-01
 -3.4652081e-01
  5.1358294e-01
  5.6765407e-01
 -3.5945046e-01
 -1.0829237e+00
 -3.0336654e-01
  1.3640338e+00
  1.1062809e+00
  1.1951117e-02
 -2.2927518e-01
  2.9973105e-01
  9.1063392e-01
  1.0937712e+00
 -7.6439194e-02
  9.6727170e-02
 -1.0756807e+00
 -4.9107412e-01
 -7.9996562e-01
  4.3147460e-01
  4.6100903e-01
 -2.3604760e-01
 -4.7146022e-01
 -1.1322534e+00
  1.1922991e+00
  4.0874475e-01
 -8.5275608e-01
 -8.2830322e-01
  2.4760430e-01
 -4.5064747e-01
 -3.2105336e-01
  5.8094329e-01
  6.5167224e-01
 -1.7421570e-01
 -3.4722811e-01
 -4.7714558e-01
 -2.8712654e-01
  5.5278862e-01
  5.0519943e-01
 -1.0685699e-01
  1.0706259e+00
 -1.0063975e-01
  1.0774449e+00
 -1.4454322e-01
  3.0467242e-01
 -2.2443083e-01
  2.7403623e-01
 -6.9545144e-01
 -6.9201815e-01
 -2.1380843e-01
 -4.1016895e-01
 -9.6402302e-02
 -6.8345666e-02
 -2.3693605e-01
  6.4600848e-02
  1.0498993e+00
 -6.6028374e-01
 -1.5538315e+00
  2.3744246e-01
  5.0107721e-02
 -3.2097059e-01
 -5.2871537e-01
  5.2768666e-01
 -5.2027440e-01
  1.0468166e+00
 -2.6899484e-01
 -2.8013833e-02
  3.3689371e-01
  2.8907454e-01
  6.8517113e-01
 -1.8125914e-01
  5.9255179e-02
 -6.8140751e-01
 -8.2033253e-01
  1.4405301e-01
  1.0360562e+00
  5.0405169e-01
  8.8670063e-01
  7.4686903e-01
 -4.2107347e-01
 -3.4578532e-01
  7.7460682e-01
  9.8885918e-01
 -7.1943933e-01
  1.1082031e+00
 -1.3439977e+00
  8.0313757e-03
 -1.0937067e-01
  1.3924370e-02
  1.5992001e+00
 -1.3013219e+00
  3.0142486e-01
  1.2636818e+00
 -9.2639279e-01
  4.5812777e-01
 -2.9044968e-01
  5.4548633e-01
  4.4004744e-01
 -8.0379957e-01
  1.6733897e-01
 -2.0428193e-01
  1.6480114e+00
 -5.6594249e-02
 -4.7015873e-01
  8.0021286e-01
 -4.4687250e-01
  6.8084425e-01
  1.2533408e-01
  1.1313336e+00
  3.0107483e-01
 -1.6250570e-01
 -4.7972739e-01
 -9.8700833e-01
 -3.3074887e-03
 -6.6632885e-01
 -1.7965454e-01
  6.2238652e-01
 -3.6101520e-02
  6.8928108e-02
  8.7507862e-01
  6.5793747e-01
  2.8293607e-01
 -1.2504956e+00
 -3.8045666e-01
  4.7092006e-01
 -1.3183318e-01
  4.1075426e-01
  1.2171607e+00
  1.7644320e-01
  4.8830625e-01
  9.6685022e-01
  1.5905790e-01
  5.0557387e-01
  7.8888267e-01
  9.3452167e-03
 -8.5178000e-01
 -1.3332610e-01
  3.8548192e-01
 -1.1599103e+00
  8.8209647e-01
  9.6288913e-01
  8.2538724e-03
  1.4745827e+00
  3.5727274e-01
  1.0605199e+00
  4.8401463e-01
 -6.6445804e-01
  3.4518752e-01
 -6.0242593e-01
 -2.1069059e-01
  8.0743170e-01
 -6.6016948e-01
  2.3112927e-01
 -4.8399404e-01
 -2.2785191e-01
  6.5411258e-01
 -1.3090752e+00
 -5.5912292e-01
  2.0989749e-01
  1.5805246e+00
  1.9358926e+00
 -2.3653185e-01
 -4.5615128e-01
  6.8852764e-01
 -1.1452932e+00
  5.3200239e-01
  4.2008850e-01
  4.8857841e-01
 -1.8209098e-01
  1.1437546e+00
 -3.6710378e-02
  1.3131067e+00
 -3.2571414e-01
 -1.1607540e+00
 -4.4930407e-01
  7.3997632e-02
 -2.9259750e-01
 -7.7336624e-02
 -5.1007740e-02
 -4.0180388e-01
  1.1460903e-01
 -2.5995067e-01
 -1.1262921e-01
 -1.5270336e+00
 -4.2353433e-01
 -2.9630452e-01
  6.3261849e-01
  8.6849284e-01
  1.0971922e+00
  4.5229472e-02
 -7.2833419e-01
  3.7210813e-01
 -2.0705616e-01
 -4.0938817e-02
  1.3886504e-01
 -1.4015487e+00
  6.2266070e-01
 -3.2641876e-01
  2.0526575e-01
 -3.1142321e-01
 -8.4690470e-01
 -5.5841005e-01
  9.8263711e-01
 -8.1953305e-01
 -1.9445191e-01
 -8.4191829e-01
  3.0402076e-01
  8.1692773e-01
  1.9016229e+00
  2.6503441e-01
 -7.5054967e-01
  1.9564813e-01
  8.1674345e-03
 -3.5468426e-01
 -1.1303151e-01
 -3.4012295e-02
 -2.0613861e-01
  7.6028407e-01
  7.8443128e-01
  6.2746398e-02
 -4.3905016e-02
 -7.3603147e-01
 -1.2575918e-01
  6.6175944e-01
  8.8415670e-01
  8.7192810e-01
  4.0246600e-01
  4.4580022e-01
  7.7918762e-01
 -2.7404866e-01
 -1.9667448e-01
  8.1080365e-01
 -6.1751264e-01
  1.2354715e+00
 -1.2136964e-01
  9.8986733e-01
 -6.6565371e-01
  1.0027762e-01
 -8.3236098e-02
  1.3293859e+00
  4.6756941e-01
 -1.1782776e-01
  6.9308901e-01
 -6.1626029e-01
 -1.1895859e+00
 -1.3239621e+00
 -8.4618795e-01
 -7.7938706e-02
  4.1053176e-01
 -8.6732161e-01
  2.1851426e-01
  6.7397225e-01
  2.0069169e-01
 -1.0149369e-02
  1.2277679e+00
  5.2367717e-01
  2.6551282e-01
 -5.8228403e-01
 -3.4155828e-01
 -1.9545592e-01
  9.9343199e-01
 -8.4911108e-01
  6.7024052e-01
 -3.3994070e-01
 -2.4889481e-01
  1.0956627e-01
 -2.6743293e-01
  3.3722350e-01
  1.2113481e+00
  2.8823483e-01
  3.9643951e-02
 -2.0429279e-01
  1.2534174e+00
  7.4919030e-02
  4.3586213e-02
  1.1031599e+00
 -6.0552621e-01
  1.1698391e-01
  4.2325962e-01
  1.0425386e+00
  8.6658156e-01
 -6.9494444e-01
 -2.8314829e-01
 -1.3256993e+00
 -3.2433715e-01
 -1.2261569e-01
  9.5743537e-01
  6.4534539e-01
  7.2912544e-02
  1.3844676e+00
  4.8655587e-01
  3.6430314e-01
  7.0080459e-02
  1.0434855e+00
  2.6731864e-01
 -4.3613157e-01
 -3.0852810e-01
  2.9147968e-01
 -8.4168846e-03
 -4.6222681e-01
 -7.3688859e-01
 -6.8062097e-01
 -1.2510971e+00
  9.3805301e-01
  7.1117604e-01
 -5.4767698e-01
  1.3418375e+00
 -1.6532214e-01
  3.2481739e-01
  3.6610937e-01
  5.5734372e-01
  3.3561096e-01
  5.3232744e-02
  5.9393686e-01
  7.1376467e-01
 -1.3107612e-02
 -7.2147775e-01
 -1.1191714e+00
  4.8552755e-01
 -5.0715965e-01
 -6.2799758e-01
  3.5060054e-01
  3.5776842e-01
 -1.0466211e-02
  1.8126879e+00
 -1.1903964e-01
 -8.9124197e-01
  1.4750179e+00
 -3.7627518e-01
 -5.7057464e-01
 -1.4220121e+00
 -3.4517410e-01
 -1.1446835e-01
  1.5920323e-01
  5.6140262e-01
 -1.1554080e+00
 -1.0710758e+00
  4.4630796e-01
  6.6709411e-01
  5.8587700e-01
  1.5047721e+00
  1.0915770e-01
 -4.1502446e-01
  3.0741277e-01
  2.0594525e-01
  8.7185389e-01
  1.1360356e+00
  1.8209270e-01
 -8.5464311e-01
  9.0394908e-01
 -6.5376389e-01
  5.2530181e-01
  9.5939720e-01
  6.3436264e-01
 -9.4031371e-02
  2.7666962e-01
  1.0925785e+00
 -8.7242699e-01
  9.5503098e-01
  2.6445809e-01
  9.8679125e-01
  1.0524274e+00
 -7.0095706e-01
  8.4426582e-01
 -1.2418734e+00
 -4.8574153e-02
 -9.0213245e-01
  1.1266456e+00
  1.2704083e+00
  6.5583646e-01
 -7.5821990e-01
  5.0934196e-01
 -9.5475733e-01
  7.6656330e-01
 -9.0852839e-01
 -1.2212662e-01
  3.2599983e-01
 -4.9887797e-01
  6.3382393e-01
  3.7702218e-01
  6.4545184e-01
 -1.3590409e+00
 -3.1018662e-01
 -1.1286306e+00
 -1.1653029e+00
  1.1658214e+00
  5.6081784e-01
 -2.3157240e-01
 -2.3758256e-01
  3.1513360e-01
  9.3713874e-01
 -7.5428307e-01
 -9.7323304e-01
  1.1276311e+00
 -1.1543274e+00
  8.4800273e-01
  9.4808578e-01
  1.8876158e-01
  9.6299082e-01
  6.6205496e-01
 -3.6064419e-01
  2.3436816e-02
 -5.7350540e-01
  8.8263817e-02
  4.6297729e-01
 -8.5459131e-01
  4.6191755e-01
 -9.3602210e-01
 -1.3894531e-01
  5.2175485e-02
  1.0844202e+00
 -5.0756830e-01
 -5.6841308e-01
  1.3140614e+00
 -4.1283548e-01
 -3.0364972e-01
 -4.0322739e-01
 -4.8772025e-01
 -4.0165922e-01
 -7.1515638e-01
  8.2087165e-01
 -4.1524786e-01
  5.9546775e-01
 -7.8248012e-01
  1.0798846e+00
 -1.4359678e-01
 -1.7984641e-01
 -1.6590068e-01
 -8.7283038e-02
 -1.2697065e+00
 -3.3466825e-01
 -1.3281682e+00
 -3.0628911e-01
  3.1649461e-01
 -1.0344816e+00
 -2.1759191e-01
  7.0772094e-01
 -8.3687568e-01
  3.1333494e-01
  3.3383957e-01
  1.2935357e-01
  8.8637078e-01
 -7.4698400e-01
  7.4426532e-01
 -2.7199084e-01
 -4.6755180e-01
  5.9754926e-01
 -1.1789329e+00
 -8.4946978e-01
 -4.8107845e-01
  1.0306247e+00
 -8.1026667e-01
 -5.7110548e-01
  6.5659142e-01
  5.5647922e-01
  9.2017569e-02
  4.6494099e-01
 -7.9171950e-01
  8.9951187e-01
  3.5624766e-01
  6.6045654e-01
 -1.2864302e+00
 -8.7099212e-01
  1.5872549e-01
 -1.5068344e+00
  2.3000710e-01
 -4.8723939e-01
 -1.0868867e-01
  2.6729247e-01
 -7.0755702e-01
 -8.9346990e-02
 -4.1471767e-01
 -5.8173078e-01
  1.1910001e+00
 -4.6926361e-02
  6.2475294e-01
 -6.6320890e-01
  6.3219780e-01
  1.6759181e-01
  4.3251002e-01
 -1.0510976e+00
  4.7794634e-01
  3.3145422e-01
  1.3063991e-02
  3.6869526e-01
 -5.2809238e-01
 -2.9223499e-01
 -5.8456874e-01
  4.1472298e-01
 -1.0355406e+00
 -4.9833527e-01
  2.7454230e-01
 -1.5332063e+00
  7.6630181e-01
  9.3001612e-02
 -5.8753192e-01
 -1.2759535e-01
  1.1580383e+00
  7.9337972e-01
  8.9983970e-01
  2.8814980e-01
 -3.6496383e-01
  5.7255340e-01
  5.3134382e-01
  1.9818625e-01
  6.6937499e-02
  1.2224482e+00
 -5.2034789e-01
  3.1293541e-01
 -1.5515669e-01
  9.1983271e-01
  8.2517940e-01
 -8.8172221e-01
 -7.7162069e-01
 -4.4287589e-01
 -1.7561559e-01
  1.7044512e+00
 -1.8886051e+00
 -4.9673474e-01
  6.1576402e-01
  5.1090378e-01
  9.3014427e-02
  1.3375205e-01
 -1.5375488e-01
 -1.3504603e+00
 -1.1354878e+00
 -3.3120343e-01
 -2.4854469e-01
 -3.0025390e-01
  4.0212264e-03
 -1.0683531e+00
  2.5640407e-01
  9.9854153e-03
  5.1199454e-01
  4.3503201e-01
 -5.9942955e-01
 -4.4711789e-01
 -7.5631684e-01
 -3.6753622e-01
 -1.7894763e-01
  5.6134485e-02
  3.2265666e-01
 -6.2313121e-02
  5.4349821e-02
  5.0184286e-01
  1.5964997e-01
  7.6991439e-01
 -4.7347325e-01
  1.1168430e+00
 -6.1384732e-01
  1.1244433e+00
 -7.2975630e-01
 -1.4182029e+00
  5.4012293e-01
  4.9312449e-01
 -1.1944957e+00
 -4.9617013e-01
  4.1256458e-01
  4.4294766e-01
 -2.6755277e-02
 -1.2285113e+00
  2.4267258e-01
 -3.3807886e-01
  6.7857176e-01
  2.3468460e-01
 -1.6528337e+00
  1.6564213e+00
 -5.3192258e-01
  6.9739908e-01
 -2.5920004e-01
  1.1965075e+00
 -1.3061424e+00
  1.5925783e+00
  1.2068875e+00
  1.7834449e-01
 -8.8988948e-01
 -1.1167017e-01
 -3.0727360e-01
  2.0315368e-01
  4.4413379e-01
  7.2697788e-01
  5.1409841e-01
  4.6564007e-01
 -1.2084501e+00
 -4.9129137e-01
  3.4542593e-01
  2.1089761e-01
 -1.1388645e+00
 -6.7279643e-01
 -1.9904509e-01
  1.1962391e+00
  4.6525696e-01
 -5.1902831e-02
  9.5626943e-02
  4.4474974e-01
 -3.1877221e-03
 -5.7700622e-01
  2.5616634e-01
  1.1908202e+00
 -8.6469494e-02
  7.0241177e-01
  1.6598297e-02
 -8.3697337e-01
  2.4530137e-01
  8.7614489e-01
  1.0558676e-01
 -5.9787381e-01
 -7.9709506e-01
  9.0212381e-01
 -4.3293801e-01
 -2.8029507e-01
  2.5014541e-01
 -1.0349680e+00
 -8.3352023e-01
  9.5664006e-01
  4.8279881e-01
  9.8675191e-01
  6.7564952e-01
 -5.4901654e-01
 -8.7796736e-01
  1.0979789e+00
 -7.9380184e-01
 -6.2373102e-01
  1.3393714e+00
  6.3996947e-01
  7.6331699e-01
 -5.3400922e-01
  1.1028392e+00
 -8.8935830e-02
  6.4213866e-01
 -2.5925195e+00
  7.7022082e-01
  9.2662460e-01
 -5.7413983e-01
 -2.5772113e-01
  6.7579424e-01
 -4.5985511e-01
  3.4336618e-01
  2.1490417e-01
  1.5872471e-01
 -1.8504618e-01
  5.0548798e-01
  4.1142827e-01
  1.2469573e-01
  2.0497884e-01
 -2.1650083e-01
 -2.0335329e-01
  9.0567395e-02
  2.6080638e-01
 -3.7609048e-02
  4.9026000e-01
  4.9718961e-02
 -1.7709024e-01
  9.3766153e-02
 -8.0801487e-02
 -4.7740090e-01
 -6.2701184e-01
  6.9900468e-02
 -4.6736058e-02
 -1.2370939e-01
 -3.5547223e-02
 -2.4982201e-01
 -8.4649652e-01
  3.0370593e-01
  2.9979795e-01
  1.2656246e+00
 -3.8261056e-02
 -4.4873316e-02
 -5.8712167e-01
  1.0851748e+00
  4.7810468e-01
  3.8541675e-01
 -3.8703156e-03
  4.4847560e-01
 -2.8356528e-02
 -4.3234501e-02
  3.5035285e-01
 -2.2158213e-01
 -6.1682069e-01
 -7.8981006e-01
  1.1580672e+00
 -5.0265038e-01
  6.1271054e-01
  5.5081666e-01
 -1.6064925e-02
 -7.3216218e-01
 -4.1129690e-01
 -7.2686118e-01
 -2.3950720e-01
  6.2544227e-02
 -3.7220901e-01
 -8.7390229e-02
 -7.9441421e-02
 -4.5398271e-01
  2.3161373e-01
  5.8062744e-01
  3.4539378e-01
  9.1644055e-01
  4.0568143e-01
 -1.3729312e-02
 -7.1109122e-01
 -6.0038102e-01
 -2.9370606e-01
 -2.7618816e-01
 -1.0678926e+00
  1.2246656e+00
  1.3285381e+00
 -6.5443248e-01
  8.0378962e-01
  3.1430331e-01
  3.4311444e-01
 -2.5297940e-01
  4.2256087e-01
 -2.2921923e-01
  4.4681156e-01
 -2.1132505e-01
  1.5502888e-01
 -1.5445593e-01
  1.0342314e-01
 -1.0727847e+00
  5.8059102e-01
  8.0711973e-01
 -9.2322774e-02
 -2.4276902e-01
  1.0178787e-01
 -2.9381948e-02
  1.2517416e-01
 -3.2294717e-01
 -1.4224330e+00
 -9.7394705e-02
 -4.5630136e-01
  2.9041177e-01
  1.6540951e-01
 -6.4193135e-01
  1.4892389e+00
 -2.0432661e-01
 -8.0116892e-01
 -8.4631085e-01
  1.4062576e+00
  4.3981704e-01
  4.2433867e-01
 -1.7352124e-01
 -3.7278706e-01
 -6.1986303e-01
  2.1153535e-01
 -1.0998860e-01
 -6.8879351e-02
  7.3145956e-01
  5.3556710e-01
 -6.2548870e-01
  3.1688508e-01
 -5.9600174e-02
  1.5013301e-01
  2.2579722e-01
 -1.3895854e-01
 -3.0568740e-01
 -3.4772646e-01
  5.2048111e-01
  3.0440161e-01
 -3.4965420e-01
  6.7698514e-01
 -1.1115854e+00
  4.1153181e-01
  2.1599697e-01
  1.6346240e+00
  1.0017121e+00
 -2.0659859e-01
  2.9319014e-02
  1.7493238e+00
 -1.9424729e-01
 -1.4244794e+00
  6.3029760e-01
  6.1093073e-02
 -5.8416438e-01
  8.6916357e-01
  7.6238960e-01
 -4.7184721e-01
 -1.9386579e-01
  6.7377770e-01
 -5.9817958e-01
 -2.1266022e-01
 -3.2538596e-01
 -6.8106286e-02
 -7.3736084e-01
  2.1950437e-02
 -3.7509534e-01
 -4.2556468e-01
 -4.3131843e-01
  4.9687260e-01
  5.1411146e-01
 -2.7910668e-01
  1.2203658e-01
 -6.7116910e-01
 -9.5212162e-01
  2.3826145e-01
  1.1612757e+00
  1.5445314e-01
 -3.0676019e-01
 -1.1651514e+00
  3.8943911e-01
 -3.8854381e-01
  4.5385060e-01
  1.9638577e+00
  1.0148319e+00
  5.9330171e-01
 -3.5258546e-01
  1.5319525e+00
  3.8805601e-01
 -8.1827694e-01
  6.2679458e-01
 -1.3125238e-01
 -8.1400567e-01
 -2.3790284e-01
  5.8417463e-01
 -3.5513577e-01
 -1.2604288e+00
 -6.4893383e-01
 -6.6975945e-01
 -2.7472401e-01
  6.3734553e-03
 -3.6636195e-01
  1.2224426e+00
  1.2889157e-01
  1.6974776e+00
  4.2576391e-01
  1.1802456e-02
  9.8203021e-01
  1.1502994e+00
 -8.7121499e-01
 -5.7075415e-02
  7.5603831e-01
  1.9052243e-01
 -4.5239875e-01
 -7.8725368e-02
  1.0972855e+00
 -2.7725056e-01
  5.8003509e-01
 -7.8379899e-01
 -1.1475728e+00
  5.7515568e-01
  8.0838960e-01
 -1.5886334e+00
  3.5473207e-01
 -1.9711553e-01
  2.9441148e-01
 -9.6165903e-02
 -8.1917357e-01
 -5.8790934e-01
  1.1105477e-01
  9.9177748e-01
  4.2466727e-01
  1.3064808e+00
  6.6243273e-01
 -1.4745705e+00
  3.3678878e-02
  2.4766390e-01
 -1.8982573e-01
 -6.6435254e-01
 -1.3198043e-01
 -2.8699386e-01
  1.2340163e-02
  1.8529248e+00
 -3.0251092e-01
 -4.4820640e-02
  1.2313215e-01
  4.7763762e-01
 -3.4840864e-01
  2.1692415e-01
  1.8220377e-01
 -2.4128675e+00
 -1.5727030e+00
 -1.2031366e+00
 -2.8989589e-01
 -2.5516286e+00
  5.4333693e-01
  2.7906027e-01
 -8.7304550e-01
 -3.9077166e-01
  1.2851948e+00
 -3.4928033e-01
  2.6394913e-01
  1.4150451e+00
  2.1934015e-01
 -7.5308597e-01
 -5.9446836e-01
 -1.7128315e+00
  9.7572011e-01
  3.6134571e-02
 -2.2100331e-02
 -8.7976128e-01
  9.3546844e-01
 -5.8116794e-01
  9.1571432e-01
  4.8489094e-01
  6.1402345e-01
 -3.9462027e-01
 -8.1303114e-01
  6.2008202e-01
  1.4387475e+00
  5.9068882e-01
  9.9061769e-01
 -8.2372898e-01
  2.4660023e-01
  5.0759530e-01
 -1.0947291e+00
 -1.3433428e+00
 -1.8462461e-01
  9.6973860e-01
 -3.5371673e-01
  6.5912223e-01
 -2.5812334e-01
  1.1196400e-01
  2.6226589e-01
 -1.2404317e-01
 -3.3844626e-01
 -8.3314568e-01
  1.0873544e+00
  2.2880611e-01
 -3.9803180e-01
 -4.0897197e-01
  1.7434007e+00
  3.6388665e-01
 -9.1391903e-01
  5.8590949e-01
 -4.3789768e-01
  7.1541655e-01
 -8.0061758e-01
 -5.6430805e-01
  1.1002001e+00
 -5.3293091e-01
 -5.9376061e-01
  7.4493662e-02
 -8.9552224e-01
  7.9531813e-01
 -9.7396398e-01
  5.3882742e-01
  2.1392417e-01
  2.9023233e-01
 -4.6496484e-01
  1.0168976e+00
  1.0648756e-01
 -4.7541741e-01
  2.1496639e-01
 -5.1482016e-01
  1.5944608e+00
 -1.2256500e+00
  3.8191124e-03
  3.5766214e-01
  3.1195101e-01
  7.1842569e-01
 -9.6123505e-01
 -1.0131533e+00
 -6.0021269e-01
  6.8272758e-01
  1.0352519e+00
 -6.8364483e-01
  1.3270979e+00
 -4.6142051e-01
  6.9314361e-01
 -3.3529291e-01
  8.1524050e-01
  5.3970659e-01
  1.4674960e-01
 -6.3534282e-02
  1.1311340e+00
 -5.7443017e-01
  4.7019300e-01
  3.4379253e-01
 -4.4511750e-01
  5.4456097e-01
  3.5268057e-02
 -5.9141481e-01
  3.8347274e-01
 -6.2165630e-01
 -1.4586030e+00
  8.8806009e-01
  1.2027816e-01
 -3.1668818e-01
  1.0810810e-01
  3.3130950e-01
  2.1255212e-01
 -6.7592931e-01
  1.4067565e+00
 -4.2570102e-01
  1.6314151e+00
  8.2042694e-02
 -7.7826470e-01
 -1.1308659e+00
  6.4368999e-01
  6.5415591e-01
 -7.9073650e-01
  8.5901067e-02
  3.4795499e-01
 -1.8516219e-01
  6.8681234e-01
 -5.6989497e-01
 -1.9421522e-02
 -6.9575047e-01
  4.4040326e-02
 -3.7793985e-01
  4.2578170e-01
 -9.4858932e-01
 -4.4515479e-01
 -9.1517997e-01
 -2.1705422e-01
 -6.1873829e-01
 -1.7705308e-01
  2.1407683e-01
  4.3722007e-01
 -2.4587628e-01
 -1.6867287e-02
  5.6937081e-01
 -3.5965762e-01
  1.1477703e+00
  8.8388067e-01
  1.3197055e+00
  1.1103096e-01
 -4.3267137e-01
 -6.0711443e-01
  1.5575679e-01
 -1.5424529e-01
  1.4190332e+00
  5.0517386e-01
  2.2532593e-01
  6.6649377e-01
  5.2677280e-01
  7.4949676e-01
  1.7932653e-02
  1.7932653e-02
  1.7932653e-02
  1.7932653e-02
  1.7932653e-02
  2.9224221e-02
  2.9224221e-02
  2.9224221e-02
  2.9224221e-02
  2.9224221e-02
  1.1970963e-02
  1.1970963e-02
  1.1970963e-02
  1.1970963e-02
  1.1970963e-02
  6.4633326e-03
  6.4633326e-03
  6.4633326e-03
  6.4633326e-03
  6.4633326e-03
  4.4841925e-03
  4.4841925e-03
  4.4841925e-03
  4.4841925e-03
  4.4841925e-03
  4.2974390e-03
  4.2974390e-03
  4.2974390e-03
  4.2974390e-03
  4.2974390e-03
