nep4_charge2 2 H O 
cutoff 4 4 80 80
n_max 4 4
basis_size 8 8
l_max 4 2 0
ANN 30 0
  1.2626140e-03
 -2.7811117e-04
  9.7957777e-04
  1.6094869e-03
  6.1742810e-04
 -9.2534040e-04
  8.7022671e-04
 -1.0875198e-04
  6.7875975e-05
 -1.1811177e-05
 -3.8245427e-03
 -3.1615570e-04
 -1.7274957e-03
 -6.3593505e-04
  2.6908123e-01
 -1.4190997e-04
  1.0376505e-02
  2.8059247e-03
  6.7598931e-04
  1.2830565e-03
  1.3811613e-04
  4.3744505e-03
 -6.2307232e-04
 -7.5629225e-04
  1.4587052e-04
 -5.2261562e-04
 -5.2041450e-04
  2.0875353e-03
  1.2533301e-03
 -1.6946048e-03
 -1.0714772e-03
 -2.6242330e-03
 -5.2650832e-03
 -2.4165038e-03
  9.9062850e-04
 -4.3277754e-04
 -3.3791040e-03
 -2.9515852e-03
  2.9395639e-03
  2.3148463e-03
  9.2145323e-04
  5.2685314e-03
 -1.3360764e-03
 -2.0516913e-04
 -1.0598274e-04
 -3.6295521e-04
 -8.0935576e-04
  1.8947887e-04
 -3.3173435e-03
  2.4422075e-04
 -1.5546824e-03
 -1.0672311e-03
  3.4445763e-04
  4.8996595e-04
 -2.0060057e-03
 -4.7525638e-03
  1.8347490e-03
  9.8891032e-04
  7.7150544e-06
  4.2158741e-04
 -1.2449844e-02
 -3.1142175e-04
  1.7156376e-02
 -7.0677657e-04
  9.9912437e-04
  4.1065153e-04
 -9.1488115e-02
 -9.6299127e-03
 -7.1132032e-04
 -3.8522626e-03
  1.3924004e-01
  1.0517190e-01
  1.5024093e-03
  3.8735585e-03
  6.5742497e-04
  1.6141360e-03
  3.8450861e-01
  4.5791944e-03
  1.3014282e-03
 -1.5791827e-04
 -1.8221872e-04
  7.2751829e-04
  2.1068200e-04
  2.8247200e-04
 -4.1424678e-04
  5.0985621e-04
  3.3361200e-02
  1.5350492e-03
 -3.2188608e-03
  2.6510567e-03
 -2.0573127e-01
 -1.0133410e-01
  5.1854247e-01
  1.1953112e-01
  1.9082063e+00
  5.2873090e-02
 -4.5309007e-01
  7.7286378e-02
  8.9443707e-01
 -3.0635720e-02
 -7.5997808e-04
 -3.4204948e-01
 -3.1338578e-01
 -3.9998782e-04
 -4.9051273e-01
 -2.0309440e-03
 -2.9220453e-01
 -3.9495402e-03
  6.4843424e-02
 -4.4304797e-01
  2.0698470e-04
 -4.2789856e-01
  6.5883793e-02
  2.5759193e-01
 -6.9632453e-01
 -2.3148103e-04
 -3.9187232e-01
  4.0052491e-03
 -5.6120008e-04
  2.6688937e-03
  7.0596236e-01
 -1.9555392e-03
 -2.9084754e-01
  7.6317455e-04
  9.4657042e-04
 -1.3029836e-03
 -1.3140826e-01
  4.7936422e-01
 -8.8069327e-02
 -2.7004769e-04
 -4.7866497e-03
 -2.9826763e-01
 -2.6973146e-01
 -1.4715923e-01
  8.5619067e-05
 -4.4638147e-03
  2.7663955e-01
  3.1396341e-01
 -3.3458546e-05
 -2.0657602e-01
 -4.9588445e-04
  1.0480729e-01
 -1.4081391e-03
 -1.1287618e-03
 -2.5835828e-04
 -2.1254143e-03
 -5.6470376e-02
  3.3879966e-01
 -4.0241933e-04
 -2.4190869e-03
  1.5465784e-03
  3.1297159e-04
 -3.0306266e-03
  2.9007720e-03
  2.9348896e-04
 -1.2881607e-03
  6.2091311e-04
  3.0775936e-03
  1.2932478e-03
  3.6160219e-03
  1.4365312e-03
  6.7201618e-05
 -6.7250524e-04
 -4.7235281e-04
 -1.3077998e-03
  3.1789534e-03
  1.0171810e-03
 -8.2831219e-04
 -3.3634454e-03
 -1.7678651e-03
 -2.7983202e-04
 -2.2772244e-04
  2.3321666e-04
 -7.0962087e-05
  2.1451412e-04
 -6.9607304e-05
  1.0237320e-03
  7.4446766e-04
  6.4266502e-04
 -1.3098416e-03
 -7.8186476e-01
 -3.0847627e-01
 -9.9146050e-01
  1.2816694e+00
  5.1195687e-01
 -9.1397220e-01
 -4.9741751e-01
  8.1350672e-04
  2.8223612e+00
  7.1817714e-01
 -5.7488263e-01
 -1.4620221e+00
 -6.2544125e-01
  2.3682327e+00
  3.3211222e-01
 -7.9754281e-01
 -1.4877630e+00
 -1.3839298e+00
  3.4414175e+00
 -2.5119925e-01
 -5.3266422e-03
 -6.8216938e-01
 -5.6447494e-01
  2.6127212e+00
 -9.5912807e-02
  1.0539986e-03
 -2.5406709e-01
 -1.5533222e-03
  7.3017484e-01
 -1.8867676e-03
 -5.7827868e-04
 -1.1405561e-04
  4.8422097e-04
 -1.8485453e-03
 -8.2521483e-02
  1.8202235e-03
 -6.2098010e-03
  6.5501954e-04
  2.4381044e-04
  6.8202236e-04
  8.4999623e-04
 -7.3044278e-02
  2.3400960e-03
 -4.2754067e-03
  3.5324385e-03
  1.0273564e-03
 -4.1364608e-03
  5.8401357e-03
 -9.2771137e-04
  1.6153164e-03
  9.8869219e-05
 -1.3368934e-03
  9.3564270e-03
  2.6587700e-03
  1.4094930e-03
 -1.8336261e-03
  5.1399565e-04
 -1.7068343e-04
 -1.4650642e-03
  1.9689720e-05
  9.6620322e-04
 -2.7118572e-03
 -1.7139025e-02
 -6.8910988e-03
  7.2281121e-04
 -3.4015568e-04
 -5.1320705e-04
  3.3729295e-03
 -1.7359366e-03
 -8.8066404e-04
 -7.0245395e-04
  5.0054048e-04
 -1.2206415e-03
 -9.9440361e-04
 -1.6566928e-03
 -2.5860004e-03
  5.9753815e-03
  2.6524561e-03
 -8.4474508e-05
 -1.7643686e-03
  3.5311599e-04
  2.4146214e-03
  1.7219600e-03
 -1.7504089e-03
 -6.3263625e-03
  1.1297861e-03
 -6.9931173e-03
  1.5008093e-04
 -4.7551276e-04
  3.0434872e-03
 -3.7280403e-04
 -3.0491661e-04
  2.7158633e-03
  7.7821547e-04
  7.3695410e-04
  1.0057249e-03
 -6.2527478e-04
 -3.1980856e-03
 -1.7850390e-03
  8.3532452e-04
  7.4029958e-04
  3.6821507e-03
  5.7065947e-04
  6.1347603e-04
  4.2171432e-03
 -2.6764169e-03
 -7.1177969e-04
 -4.2735087e-03
 -6.0342759e-04
  6.1713043e-04
 -2.4860427e-03
 -1.1198060e-03
 -5.0385401e-04
  1.6044299e-03
 -1.9022226e-03
  1.6300352e-03
 -4.4025564e-05
 -5.2652415e-04
 -2.5617401e-05
 -5.3271896e-04
 -9.5375152e-03
  6.0479750e-04
 -6.2198902e-05
 -8.4217306e-04
 -5.2932263e-03
 -9.3856384e-04
  5.4720411e-04
 -1.3236471e-02
 -1.2925412e-03
  3.8378118e-04
  1.8065306e-03
  9.5792692e-03
  9.9714997e-04
  1.0770948e-03
  1.6216420e-04
 -4.4704578e-04
 -2.5853927e-03
  1.8306888e-03
  3.6476189e-04
 -9.1844937e-04
  2.2272482e-04
 -4.1587432e-03
  3.7530655e-04
 -1.7772127e-03
  2.7034344e-04
 -3.0290752e-04
 -1.8256417e-03
 -3.6490932e-03
 -2.0215972e-03
 -1.0888209e-03
 -2.0233404e-02
  2.8358290e-01
  1.7271478e-02
  1.6949558e+00
 -9.8924524e-01
 -1.8067702e-03
 -3.9292073e-01
  2.9503275e-02
 -1.3043770e-02
 -8.3199956e-02
  4.2801740e-04
  1.5029984e+00
  7.0126551e-01
  6.7615241e-04
 -1.3890752e-01
  1.8084873e-01
 -4.2472434e-01
 -7.3647639e-04
 -1.9929369e-03
 -3.1448427e-01
 -1.3093592e-03
 -1.5887202e-01
  5.3134209e-01
  3.0066852e-02
 -9.1916949e-01
 -6.3089756e-03
  1.1900718e-03
 -3.3924758e-01
 -1.1926399e-03
  8.5556065e-04
 -8.1156719e-01
 -3.0486953e+00
  1.0565715e-01
 -5.4885197e-01
 -8.8702720e-01
 -3.0652451e-04
 -3.8024660e-02
 -6.2969886e-04
  1.7008248e-03
 -1.0205012e-01
  3.2397255e-01
  2.8788018e-01
 -1.0338918e-02
  1.9393219e-03
 -3.5006565e-04
  1.2628964e-01
 -1.0759371e-01
 -7.6236343e-01
  1.0427176e-03
 -7.2558234e-03
  1.7920501e-03
 -4.8426151e-01
 -1.3894945e-01
  5.4952547e-02
 -4.9831243e-03
 -4.3163035e-04
  1.1875772e-01
 -8.4878057e-03
 -6.1403104e-04
  3.0868589e-03
 -2.6820760e-04
 -8.3461695e-04
  1.6141995e-03
  2.5340952e-03
  2.3326308e-04
  9.6201336e-05
 -1.9437770e-03
  1.2425228e-03
 -4.1105694e-04
  2.3208801e-03
  2.9300785e-04
 -3.2038984e-03
 -1.0753435e-02
  2.0057263e-03
  7.7985827e-04
  7.3931704e-04
  4.2504561e-03
  2.5987765e-04
  2.3464793e-03
 -1.3926513e-03
  2.3623335e-03
  4.2536319e-03
 -1.3328916e-04
 -8.5087749e-04
  4.2635794e-03
  4.2568610e-04
 -3.3011427e-03
  4.4215083e-04
 -5.1277247e-04
 -6.9895684e-04
  5.6032920e-01
 -2.4917254e-03
 -7.2566710e-02
 -5.5374630e-02
  6.0918772e-01
  4.7854707e-03
  4.6624242e-05
  2.9642409e-01
  2.1603824e-05
 -1.0365203e-02
  2.4542041e-02
  1.4709141e+00
 -4.4880548e-01
 -6.2731916e-01
 -7.1893156e-02
 -7.0473389e-04
  8.1383765e-01
  3.5356253e-01
 -7.2264904e-04
 -4.0577886e-01
  9.9320829e-02
  6.9202381e-01
 -8.5140683e-04
  1.0550570e-03
 -3.8082796e-01
 -8.5984968e-05
  1.1354355e-03
  2.4422243e-01
 -2.6515982e-04
 -5.9226743e-04
  2.6057763e-03
  1.6435003e-03
 -4.0290956e-03
  1.3695625e-03
 -1.6850597e-03
 -1.2154174e-02
 -7.3967618e-04
  3.0850244e-03
 -2.6395791e-03
  1.9147219e-03
 -5.4292625e-04
 -1.4464537e-03
  7.1906915e-04
 -1.5963729e-03
 -3.2924965e-04
  4.2978433e-04
 -3.9487082e-04
 -4.2267513e-04
 -8.3534489e-04
  2.2763947e-03
  3.5437234e-03
  8.8508450e-04
  5.0006772e-04
  1.5441879e-03
  1.6357205e-03
  1.7174918e-03
  1.3512112e-04
 -1.1857991e-03
 -7.2501844e-04
 -1.6022222e-03
 -7.0841084e-03
 -4.0008870e-04
 -4.2280674e-04
  2.2212679e-03
  8.4154215e-04
  1.2640123e-03
  2.4287724e-03
 -1.1656643e-03
 -8.9629780e-04
  4.3093851e-03
 -1.6987480e-03
  3.2593071e-04
 -5.6141340e-03
  7.1497448e-04
  6.4088513e-06
 -2.0076519e-01
  1.8725283e-03
 -3.2838664e-04
 -2.1621836e-03
  1.9717198e-03
  1.2088824e-03
 -7.4977282e-04
 -1.7710798e-04
  2.5161952e-03
  2.2119263e-03
  7.9644517e-05
  1.9080765e-04
 -7.2084198e-04
  9.4633881e-04
  8.5690588e-04
  2.3677782e-03
 -4.5105728e-04
  3.4218223e-03
 -1.3479730e-03
  1.5114580e-03
  2.0228843e-03
 -4.4907820e-03
 -8.9920964e-04
  2.7442363e-03
 -1.8504320e-03
 -1.7710218e-03
  4.7735203e-02
  2.4218496e-03
 -3.8335940e-03
  3.2153720e-04
 -9.0324297e-04
 -1.5796765e-03
  8.4555469e-04
 -3.1830047e-03
 -1.0268765e-03
 -3.8157456e-04
  1.1528737e-03
 -2.0009773e-03
  2.2650359e-03
  5.0619006e-04
  1.9167380e-03
 -3.1315265e-03
 -1.1013912e-03
  5.2437376e-06
  1.8844131e-03
 -7.3073789e-02
 -2.6161585e-04
  3.0446425e-01
  2.8508524e-03
  1.2786622e-01
 -3.2825809e-04
 -2.4658999e-01
 -2.0969009e-02
 -4.8018754e-03
 -2.2355833e-03
  4.4486117e-02
  4.7110081e-02
  2.2069679e-03
  1.6921879e-04
 -2.8766422e-03
  4.9963570e-04
 -9.1437949e-04
 -1.0632116e-03
 -4.7464762e-03
  2.7623165e-03
  1.2174167e-03
 -7.5586990e-02
 -7.0101907e-04
  1.2327967e-01
 -3.0395346e-05
  5.0918391e-04
  4.8917895e-03
 -2.6593421e-02
 -1.5262247e-05
  2.6945642e-03
 -3.1913358e-01
  6.2605256e-01
  2.3013578e-01
  1.8877332e-01
  3.3993256e-01
  2.2499815e-01
 -3.5427260e-01
 -1.3094766e-01
  7.6089674e-01
 -7.3340523e-01
  3.2770833e-01
 -1.4562839e+00
  8.6508960e-01
  9.2309847e-02
 -2.0980039e+00
 -1.7405440e-01
 -5.8071440e-01
 -3.6784302e-04
  4.4542138e-02
 -1.7870611e+00
  3.0909431e-01
  2.1918157e-01
 -2.7628115e-01
  2.4070922e-01
 -3.8337836e-01
 -1.0713991e-02
 -2.7645451e-01
 -4.8932907e-01
 -1.4714804e-03
  9.9658901e-03
  8.3391380e-04
  5.6799179e-01
 -5.1817292e-01
 -7.4960107e-01
  6.9238257e-01
 -1.2831670e+00
 -1.7033827e-01
  3.5389455e-03
  9.5289123e-01
  1.3463603e-01
 -4.9192294e-01
  1.2876031e-02
 -9.9339942e-04
  2.3597193e+00
  1.7810914e-01
 -1.3222279e-01
 -8.5780066e-01
 -5.1530288e-03
  6.3134736e-01
  7.3017534e-03
 -1.0124124e-03
  2.3140943e-01
 -3.4973085e-01
 -5.7094943e-02
  1.2549230e-01
  1.0026830e-03
  6.3275623e-01
  9.6338743e-04
 -1.9078924e-03
  5.5238423e-03
 -1.9322590e-04
  1.1884938e-04
 -9.8963978e-04
  1.0735923e-03
 -1.7307614e-03
  3.9920854e-04
 -1.4945157e-03
 -1.1712067e-03
  9.8211411e-04
 -5.5773027e-04
  1.2122178e-05
  6.0317060e-04
  4.1743936e-03
  1.3558225e-03
  2.5461249e-03
  4.9288140e-04
 -1.9084384e-03
 -1.8906018e-03
 -1.2164323e-03
 -1.8149070e-04
 -2.9639199e-03
 -3.1986047e-04
  6.7913728e-03
 -3.3664473e-04
 -2.7945631e-03
 -1.4637251e-03
 -1.3978225e-04
  1.4933593e-03
 -3.3474542e-05
  2.2982219e-03
  3.1175776e-03
  9.9407308e-02
 -9.5737609e-04
 -7.8721973e-04
 -3.0521140e-01
  5.4090755e-04
  4.0167272e-02
  5.0122682e-03
  1.0752418e-02
 -6.3655426e-04
 -1.4184974e-01
 -3.3212014e-02
  1.5661409e-03
  3.6682477e-04
  1.8104444e-01
 -1.4192781e-02
 -1.5270527e-02
  3.0142331e-04
  6.5029860e-03
  3.8273707e-03
 -1.3742876e-01
  3.1254890e-03
 -6.4933102e-04
 -1.7532880e-03
  9.6502401e-02
  1.0462842e-03
 -1.0448643e-03
  1.0852514e-04
 -1.8663878e-03
  7.5345812e-04
  8.9868758e-05
 -7.2553933e-01
  5.8170357e-03
  1.1708915e-03
 -2.5901979e-01
 -1.7615325e-04
 -2.2310420e-04
  1.0871053e-04
 -1.4368668e-03
 -4.1846032e-03
  5.0741173e-03
  3.0565482e-01
 -1.3667991e-03
 -1.3558217e-03
 -8.8039046e-04
  2.2894901e-03
 -2.0481534e-03
  3.0419827e-03
  8.5845584e-04
 -1.2951300e-02
  3.0516966e-03
 -5.5347104e-04
  8.3994579e-05
  7.9400738e-04
 -1.6305387e-03
  1.0187281e-04
  2.2706692e-05
 -8.1770308e-04
 -2.8267465e-04
  2.0943796e-03
 -9.9650776e-01
  1.0039039e+00
  2.2635317e-01
 -3.8578779e-02
  1.2073833e+00
  2.0521848e-01
  1.4548786e+00
 -9.6903837e-01
 -3.8430321e-01
 -1.9926588e-01
  1.0245320e+00
  6.2711316e-01
 -3.5067733e-02
  8.0775686e-02
 -1.9918635e-01
  6.0864371e-01
  4.5499858e-01
 -1.5669033e-01
 -3.0727729e-01
 -5.0459200e-01
  7.5526154e-01
 -2.8610967e-02
  4.7864616e-01
  3.6734466e-02
 -3.0436493e-02
  7.1190746e-04
 -8.1165051e-01
 -8.3073640e-01
  3.5187388e-03
  1.5754486e-03
  2.2895351e-01
 -8.6586475e-03
 -2.2498852e-02
 -9.3031779e-02
  2.3088990e-01
 -7.7512633e-04
 -3.1675924e-02
  3.9415900e-04
 -8.5753977e-01
 -9.2731230e-02
  2.0158091e-01
  8.0979729e-01
 -4.0549847e-01
 -2.1303102e-01
 -2.8573856e-01
  2.6656120e-04
  8.4880674e-01
  2.8575367e-01
 -4.6452567e-02
 -2.3322912e-01
  3.0022404e-01
 -4.0677452e-04
  4.1285707e-03
  5.9620775e-02
 -2.8351445e-03
 -1.8901828e-04
  1.5757696e-01
  9.9564511e-03
 -1.8169329e-03
  2.3513648e-03
 -9.7489165e-04
  7.3004754e-05
  6.6398387e-04
  2.1468080e-03
 -7.2270086e-05
  6.6811283e-04
  4.4960299e-04
  1.0297261e-03
 -2.2041295e-03
  9.6908094e-05
  2.6245771e-03
  3.9899349e-03
  7.1989174e-04
 -4.0324144e-03
 -4.8099921e-04
  1.1142134e-03
 -4.9455598e-04
 -2.0997855e-03
  2.7475846e-03
  2.8531530e-03
 -1.7651708e-03
 -1.5513409e-03
  2.7332638e-04
 -2.4271278e-04
 -4.8475043e-04
  6.3695991e-04
  2.8772038e-04
 -6.9087823e-03
  4.7109919e-03
  2.6756211e-03
 -2.6757603e-03
 -3.2465714e-03
  2.1742883e-03
 -1.4072053e-04
 -3.5344185e-03
  5.8320950e-04
 -1.2655817e-03
  4.6322857e-06
 -4.6345470e-03
 -2.7624269e-03
 -9.3441590e-04
  2.3393369e-04
  1.8776791e-03
 -4.7434797e-04
 -1.7841592e-04
 -8.9765107e-04
  3.9652851e-04
 -1.8999826e-03
 -8.9084191e-05
 -6.6598848e-04
 -2.5764332e-04
 -7.0755207e-03
 -1.4006891e-03
 -8.7963551e-04
  3.8538666e-03
 -1.0608285e-04
  2.2203051e-03
 -4.2220080e-04
  3.1295995e-04
  1.4979922e-03
 -8.9351060e-03
  6.3018659e-03
 -7.6542282e-04
  2.2887839e-03
 -5.3281873e-04
  1.3839737e-04
  4.0121214e-03
 -1.4142459e-03
 -4.0840474e-03
  2.5266758e-03
  1.4670569e-03
  4.8148120e-03
  8.2654795e-03
  4.6662572e-03
  1.4350264e-03
 -9.1039110e-04
 -3.6455020e-03
 -4.9666930e-03
  1.8827736e-04
  3.0402376e-04
 -5.7935431e-05
  9.4112626e-04
  1.4323896e-03
 -4.0631476e-03
  2.8975513e-03
 -2.3635887e-03
 -1.0144983e-03
 -1.1564719e-02
  7.5553497e-04
  2.1065893e-03
 -6.8459380e-04
  2.3373514e-03
  3.2412175e-03
 -7.6777878e-04
 -3.4598138e-02
 -1.2917343e-05
  1.1328217e-03
 -2.0977021e-03
 -3.9915185e-04
  6.2941606e-03
  1.7540745e-04
  1.0819234e-03
 -3.1799946e-03
  4.8303935e-03
  7.1305706e-04
  6.9438637e-04
 -1.4995999e-03
  5.1474990e-04
  1.9512656e-03
 -3.8836030e-03
 -1.0886078e-03
  1.3641245e-03
  2.3854498e-04
  5.6740991e-04
 -5.1233787e-03
  2.6912468e-03
 -2.0978745e-04
  9.2664902e-04
 -6.3120935e-04
 -7.5864524e-04
 -8.3995414e-01
  1.9390110e-04
 -7.7454817e-01
 -1.2643849e+00
  7.4102539e-01
 -9.6832341e-01
  8.7475222e-01
 -9.0607977e-01
 -1.5531080e+00
  6.9008571e-01
 -1.7484160e-01
  1.1316055e+00
 -1.7100937e+00
  1.0718790e+00
  9.7658998e-01
 -4.4726002e-01
 -8.2067150e-01
 -1.2759018e+00
  7.2003525e-01
 -8.0114079e-01
  3.7591746e-01
 -1.2518772e+00
  2.2958875e-02
  3.7433511e-01
  1.5100073e+00
 -1.3196127e+00
 -1.2448264e+00
 -1.7545418e+00
 -1.6142776e+00
  1.1149752e+00
  3.6256078e-03
  4.1007595e-03
 -4.3259507e-01
 -4.5927912e-01
  2.5453600e-01
  3.7866959e-04
  1.4482663e+00
 -1.3949019e-03
 -5.8953324e-04
 -1.4867918e-03
 -4.8000779e-04
 -5.3247845e-01
 -1.2688619e+00
 -3.4944366e-03
 -8.4005259e-02
  8.2907313e-03
 -4.4004701e-04
  1.3127568e-01
 -3.8704944e-01
 -1.0018399e+00
  6.7161506e-01
 -3.7297097e-04
  3.5182026e-01
 -1.6778450e-01
 -2.4386768e+00
 -1.3998160e+00
 -7.2936754e-04
 -1.5582953e-03
 -5.4783572e-04
 -1.2106050e-03
  7.8305744e-02
  4.9779468e-05
 -9.8377176e-02
  2.9456425e-01
  2.8728136e-01
  1.0835259e-01
  4.2120419e-02
  9.5669977e-02
  5.7538766e-01
 -5.1843915e-02
 -6.1298881e-02
 -1.0418600e-01
 -2.6784542e-01
  2.0841229e-01
  3.4577227e-01
  2.9416908e-02
 -6.9589019e-02
  1.6858372e-01
 -1.3472199e-01
 -1.6502133e-02
  3.1438649e-02
 -1.8311383e-01
 -1.4388900e-02
  2.5696950e-02
 -6.8082786e-01
  7.2416133e-01
 -1.2683389e-01
 -4.3997347e-01
 -6.0945237e-01
 -1.6243351e-01
 -2.5039856e+00
  3.0077013e-01
 -4.6728843e-01
  1.4096476e+00
 -5.1759684e-01
 -2.3999996e-03
  1.7995051e+00
  8.5424232e-01
  1.7751778e-02
 -1.9558387e+00
  7.1148074e-01
  1.4325327e-01
  9.2772558e-02
  1.6258653e+00
  1.0296606e+00
 -7.0044748e-04
  7.9908133e-01
  6.1205959e-01
  5.4214692e-01
 -1.6985252e+00
 -2.2561130e-01
  7.4935418e-01
  9.9734104e-01
 -2.7305695e-01
 -1.6894785e+00
  5.7836929e-03
  7.4685559e-05
 -1.2858997e-03
  2.5393688e-03
  5.7133949e-01
  3.1869038e-04
 -6.6585569e-03
 -7.1196765e-01
  2.8839638e+00
  3.2590118e-01
 -2.2617646e-01
 -7.6630455e-01
  4.2607975e-01
  3.8942561e-04
  8.2502639e-01
 -1.5979484e-01
  5.6654174e-02
  4.3598879e-02
 -5.1873550e-03
 -9.5779984e-04
  7.1103964e-04
 -2.0316193e-02
  5.4879838e-01
  3.6739174e-03
 -7.1832877e-01
 -1.3551329e-01
 -3.0531445e-01
 -3.2181930e-04
 -1.1003956e-03
 -4.6890494e-01
  1.6915399e-04
 -9.9203864e-04
 -6.8958657e-04
  1.6784756e-03
 -1.9826803e-03
 -1.2932066e+00
  7.6702088e-01
  1.9614230e+00
 -8.8818514e-01
 -2.2750795e-03
 -6.1404216e-04
  1.0630944e+00
  1.9678310e-01
  4.8090956e-01
  3.6034510e-01
 -3.8084970e-04
 -2.5520301e-01
  6.6812581e-01
 -3.1236927e-03
 -1.0592449e+00
 -1.1977599e-01
 -2.6856898e-03
  6.5368086e-01
 -3.2235705e-04
 -2.6388717e-01
 -7.5352311e-02
  2.6244578e-01
  3.5016635e-01
  3.6480627e-03
  6.3712335e-01
  5.4762717e-03
 -3.8058680e-01
 -2.7519397e-03
 -1.3452092e-03
 -1.6265336e-01
  9.7329730e-01
 -1.3508755e-01
 -1.2547426e+00
 -1.2037264e+00
 -1.5576977e+00
 -6.2601597e-05
  2.0879132e-01
  4.3606690e-01
  1.0285039e-03
  1.9437604e-01
 -4.2789587e-01
  3.0362657e-01
  2.2982146e-01
 -1.6737105e-01
 -8.7405570e-02
 -5.2940786e-01
  6.3678187e-01
  9.0346016e-02
 -1.2285871e-03
  2.9010892e-01
 -2.3623401e-01
  8.5319607e-06
  1.1185810e-01
 -1.2334155e-04
 -1.2854590e-02
  3.2243705e-03
 -1.7432394e-04
  2.6757175e-03
  1.2404923e-02
 -9.4523795e-02
  1.6188191e+00
  8.9368081e-01
 -9.6700227e-01
  2.4016686e-01
  1.0598449e-01
  4.1865554e-02
 -1.2914697e+00
 -3.9229837e-01
 -5.8753669e-01
  1.0910715e+00
  4.0237773e-02
 -2.0494770e-01
 -9.0599579e-01
  2.8450734e-03
  1.3435652e+00
  1.0124072e-01
 -1.0755488e-01
 -3.9944183e-03
 -7.0314962e-01
  1.5029217e+00
  8.9988627e-02
  8.1372453e-04
 -2.4451995e-01
 -2.2537519e-01
  4.6449099e-03
 -2.1073171e-01
  1.0286795e-01
  2.0942728e-01
 -8.7991112e-04
  1.2143609e-02
 -3.2156402e-01
  1.0295947e+00
  2.5379455e-01
 -2.7099011e+00
  3.1319919e-01
  1.9638294e-01
 -3.3892515e-01
 -3.4725723e-01
  6.2078580e-02
  3.8437179e-01
  1.4740269e-02
  1.3947639e+00
 -8.3020860e-01
  8.3632939e-02
 -1.1772497e+00
  2.0782059e-01
 -6.1422783e-01
 -1.8301219e-01
  3.7628615e-03
 -1.6555579e+00
 -2.3545854e-04
 -1.2614304e-01
  3.1346953e-01
  5.0412691e-05
 -2.2708035e+00
  1.6420040e-01
  1.5049541e-02
 -6.1790890e-01
 -6.1310953e-03
  1.2885187e+00
  3.8611132e-01
 -1.0482923e-02
  4.4343360e-03
 -3.1537470e-06
 -3.2489209e-03
 -9.7348262e-04
 -6.0859019e-01
  8.6562650e-04
 -1.8459462e-04
 -5.2817195e-04
  4.3638535e-03
  2.7856096e-03
  7.4990664e-04
 -3.8029940e-03
  9.7019097e-04
 -1.3610403e-03
 -1.8721928e-04
 -9.5834686e-05
 -8.0678606e-04
 -2.1582425e-03
  1.1792979e-03
  3.4293453e-03
 -8.7921020e-05
  1.1527542e-03
  1.5593390e-06
  1.2205492e-03
 -5.7118409e-04
 -6.4493017e-04
  1.8843253e-03
 -4.7388515e-03
  1.9444126e-01
 -5.5232573e-01
 -8.3214062e-01
  3.0353659e-01
 -1.4899224e-01
 -1.9497892e-01
  1.0645037e-01
  2.6341283e-01
  1.3136987e-03
  2.1661004e-01
 -2.6582128e-03
  4.2020699e-01
  2.0730825e-02
  3.7978154e-01
  6.3911879e-01
 -5.1736379e-01
 -1.6864295e-01
  3.5208459e-03
  4.5272261e-01
 -9.5974588e-01
 -3.5990247e-01
  7.0601505e-01
  6.3348264e-01
  4.2374950e-02
  1.4403261e+00
  6.8370434e-03
 -1.4023510e-04
 -2.5286020e-03
 -4.9291717e-05
  2.6349369e-03
 -1.0670333e+00
 -1.5811659e-01
 -2.9110458e+00
 -1.8996128e-01
 -1.5083369e+00
  6.9350526e-02
  7.5607544e-01
  9.7500259e-04
  1.5451610e-01
 -8.5057385e-02
 -4.0533622e-03
  1.0272862e+00
  6.4160052e-04
 -3.2169726e-05
  5.2183157e-01
 -3.9107867e-02
  6.8016022e-01
 -1.4310928e-01
 -5.5323594e-04
 -2.9979185e-03
  9.0022750e-02
  7.1792138e-01
 -2.1824315e-03
  1.0549227e-01
 -8.4183758e-01
  2.0163881e-03
  1.0517539e-02
  2.4617231e-04
  1.9853483e-03
  1.2886931e-02
  8.1480108e-04
  7.8386253e-01
 -1.7299233e-03
 -1.5500537e-04
 -1.0753218e-03
 -3.9722121e-04
 -1.9107285e-04
  1.3053548e-04
 -1.5149015e-03
  1.0524004e-03
 -1.2328702e-03
 -1.5478811e-03
 -4.6804495e-04
 -1.6126971e-03
 -1.6148976e-03
 -2.6858086e-03
 -5.1870226e-04
  1.4167635e-03
  2.4885330e-03
  1.2133087e-04
 -2.1136159e-03
 -2.7438290e-03
 -3.3338044e-03
  9.3535138e-03
 -1.6768770e-03
  1.0949639e-03
 -3.0999905e-03
  8.7330712e-04
 -3.5126813e-04
 -1.9902934e-03
 -6.1057095e-04
 -1.2476930e-03
  2.0175192e-03
 -1.1967433e-03
  1.2467980e-03
  2.0995839e-03
  1.3638260e-03
  1.1013970e-03
  1.7506327e-04
  1.7189374e-03
  6.1011483e-04
 -2.7161881e-03
 -5.4033217e-04
 -7.7066378e-04
 -1.1063914e-04
 -1.1546541e-03
 -9.9841440e-05
  7.4164425e-03
  1.2371429e-03
  1.2970670e-05
 -4.4191442e-03
 -1.1606723e-03
  9.4558741e-04
 -2.8469514e-03
  3.2159680e-04
  1.5979056e-03
 -1.6609675e-03
 -2.2705668e-05
  9.9905778e-04
 -7.3667038e-03
 -1.1222150e-04
 -9.4110036e-01
 -7.6548988e-03
  1.0852772e-01
  3.3297022e-03
  7.8435121e-03
  9.9431758e-04
  3.0943770e-03
 -1.1685115e-03
  6.5255576e-01
 -2.8605451e-04
 -7.3857695e-02
 -1.0702978e-01
 -5.3272499e-03
 -9.2120528e-02
  2.6177904e-03
  3.5092671e-04
 -1.3562250e+00
 -6.4627649e-03
  8.9867577e-02
 -1.8105173e-04
  8.9165471e-02
 -4.1819410e-03
 -7.5116777e-04
  1.8564206e-01
 -2.1374503e-03
 -1.0087260e-03
  7.3127740e-04
 -1.5982526e-04
 -2.2223985e-03
 -3.6359918e-03
  2.9073281e-03
  1.8613627e-03
 -1.2500037e-04
  3.8483195e-04
 -2.4348307e-04
  2.5416270e-03
 -3.4194773e-03
 -2.8208538e-03
 -2.4689338e-03
 -3.5444302e-03
  1.7033797e-03
 -3.1294655e-03
 -5.8859037e-05
  1.0062875e-03
 -1.4047659e-03
 -2.1538670e-04
  3.8497313e-03
  8.6786255e-04
 -1.1032125e-03
  4.2266387e-04
  6.7779346e-04
 -5.0315238e-03
 -6.5377902e-04
 -1.0234349e-04
  2.3085352e-03
 -1.5288622e-04
  1.2290196e-03
 -1.4955812e-03
  4.9324217e-04
  1.8321340e-03
  5.3078602e-03
 -2.4098363e-03
  8.9079222e-05
  1.6772582e-03
 -7.5461168e-04
  2.8674041e-03
  4.5378762e-04
  1.1088848e-03
 -5.7174405e-04
  2.7457628e-04
 -2.3667333e-03
  8.3762090e-05
 -6.3558496e-03
 -5.5019750e-04
  3.4857958e-04
 -3.2662402e-04
  1.2250498e-03
  3.5848420e-03
 -1.2889717e-03
  1.7868278e-03
 -3.9958057e-04
  3.6126622e-03
  4.9904292e-04
  1.0198118e-03
  4.4256193e-03
 -1.0659421e-03
 -2.1997264e-03
 -5.4315716e-04
  2.9009784e-04
 -1.8071180e-03
 -3.1686551e-03
  1.6846993e-03
 -2.5184135e-04
  8.3454343e-04
 -8.5552287e-04
 -5.5102055e-04
  4.1680652e-04
  9.8115357e-04
 -4.8522127e-04
 -5.4539007e-04
 -8.8089425e-04
 -6.4313493e-04
  2.7349050e-04
  2.0010520e-03
  1.2783905e-03
  3.7575897e-04
  3.0187445e-04
  4.2490289e-04
  3.5048355e-03
 -9.0130238e-04
  1.2153141e-04
 -1.3733277e-03
 -1.3514741e-04
 -2.0529324e-04
  1.0736748e-03
  1.0389852e-03
 -1.1509748e-03
  5.8077881e-04
  4.5025689e-03
 -2.6214173e+00
  9.1788101e-01
  2.6181288e+00
  8.0759108e-01
 -3.9886993e-01
 -2.0018299e-01
  1.4216586e-02
 -5.5419612e-01
  9.1639584e-01
 -4.3218219e-01
  1.8456551e-01
 -2.7817631e-01
 -9.0924293e-01
  4.1755548e-01
 -4.1838434e-01
  7.3135382e-01
  3.0075386e-01
 -8.8420540e-01
  1.4229145e+00
 -1.0452139e+00
  6.5313137e-01
 -2.2320706e-01
  1.3722192e-01
  1.2128679e+00
 -5.0775611e-01
  2.9180609e-03
 -2.3867142e-04
  2.3777569e-04
 -8.4511109e-04
  3.8030091e-01
  1.5160474e+00
 -1.3533422e+00
  1.4875900e+00
  1.7617975e+00
 -6.5057307e-01
  1.8966941e-02
 -7.4167065e-02
  9.4318748e-02
 -7.1379131e-01
  1.2812310e+00
 -7.2514147e-02
 -7.2103389e-02
 -5.6040613e-04
 -1.0228857e+00
  9.0198386e-01
  1.2489592e-03
 -3.8529262e-02
 -7.0675141e-01
 -9.6766615e-01
 -5.9377295e-01
  6.5448441e-02
  9.8244339e-01
  1.3358335e+00
 -1.2299649e-01
 -7.2893703e-01
 -2.4398847e-02
  2.7196965e-04
  1.4599961e-01
  2.0069417e-03
  4.4098904e-04
  1.9387553e+00
 -2.2834207e-01
 -5.6269191e-02
 -1.2046921e-03
  4.0600497e-01
  4.2922888e-03
  1.7457452e-02
  4.4062268e-03
 -6.1017577e-02
  5.9439701e-01
  3.1410366e-01
  2.8693057e-03
 -1.1693610e+00
  4.9304262e-02
  3.2685903e-01
  3.0864252e-02
  4.2071611e-01
 -3.8690811e-01
 -4.3320739e-01
 -4.3147340e-01
  2.1798596e-04
  8.1245929e-02
 -4.8772761e-01
 -5.9573304e-02
  3.5276559e-01
 -1.8126268e-03
 -2.9318081e-03
  1.9626200e-02
 -1.0911963e-03
  2.2757614e-03
 -3.8129818e-03
  5.0206846e-01
 -6.2932879e-05
 -1.0302643e-02
  1.2847228e-01
 -1.2155274e-03
  9.9235750e-04
 -6.4913621e-03
 -1.8626156e-03
 -5.4822862e-01
 -8.7320739e-01
  2.0183250e-03
 -1.0353677e-03
  3.9973785e-03
 -4.1520176e-04
 -4.4276430e-03
  1.7220724e-03
 -5.8377307e-04
 -8.8780442e-05
  1.8322321e-03
 -1.9895660e-05
  2.6679006e-03
 -2.2456171e-03
  2.0180538e-03
  6.4192241e-04
 -2.1038856e-04
 -1.1998683e-03
  1.1646204e-03
 -5.4168090e-04
  9.4958115e-04
 -2.6833588e-01
  1.0594085e+00
  1.0000532e+00
 -2.9566858e+00
 -2.4887928e-01
  2.1631515e-01
 -1.7833257e+00
 -2.6379341e-01
  5.1334620e-02
  1.5575067e+00
  1.8383504e-01
 -6.9193763e-01
 -4.6701652e-01
  2.2612453e-01
  9.4248998e-01
  5.8241677e-01
  3.2401189e-02
 -2.9452214e-01
  2.1380986e-01
  1.1359813e-02
  6.9846320e-01
 -6.1012852e-01
 -6.5198094e-03
  1.0532399e-01
  1.6431671e+00
 -3.2998561e-03
  2.2090458e-04
 -4.5464076e-03
 -3.8944101e-03
  1.5303923e-01
  9.9789143e-01
 -1.9075917e-03
  3.3187933e-04
  4.9450393e-03
 -1.8385361e-04
  5.4159656e-04
 -2.1655315e-03
 -3.7563054e-04
 -3.6226571e-04
  2.5794489e-04
  3.8410618e-03
  9.6978259e-04
 -6.9621559e-03
 -2.2330823e-04
  5.8571748e-03
 -1.5152010e-04
 -1.4777550e-03
 -4.6692831e-03
 -3.0937381e-03
  3.1524685e-03
 -3.9250893e-04
  2.0279060e-03
 -1.2919190e-03
 -3.0166139e-03
 -7.1397435e-04
 -1.0319003e-03
 -5.3521135e-04
  8.9462480e-04
  5.6345230e-03
  1.4308600e-03
  4.0403596e-04
  9.7586591e-05
  2.2683900e-03
  6.6909444e-04
  2.9290353e-03
 -4.0691084e-04
  2.6090064e-03
  8.6874474e-04
 -6.7913299e-04
  2.2695709e-03
 -1.2544345e-03
 -3.2343823e-04
 -9.3546911e-04
  7.3040007e-03
 -1.0834800e-03
  1.1330398e-03
 -3.4850781e-04
 -5.1575946e-04
  1.1237516e-04
  5.6712155e-04
 -1.0583784e-03
 -9.1990049e-04
 -2.4218175e-03
  4.8493527e-04
 -7.8123907e-04
 -6.3661137e-05
 -2.4875363e-03
 -7.1573822e-04
  1.6920361e-03
  4.3505393e-03
  5.5584693e-01
 -1.8962188e+00
 -1.3062919e+00
  2.6431315e+00
 -9.1427255e-01
  3.4236913e-03
 -1.0091827e+00
 -6.0326439e-01
 -1.0441412e-01
  4.5863107e-01
 -1.6012239e-01
 -8.0856867e-02
 -2.2691239e-01
 -2.7505094e-01
  6.1385798e-01
 -4.4237118e-02
 -1.1031843e-01
 -2.6217222e-01
 -8.4437348e-02
  1.0204403e+00
  2.3304030e-01
 -3.7529865e-01
 -1.1319765e-02
 -8.1982024e-02
  6.5492075e-03
 -5.3579798e-03
  2.6202378e-01
  5.8868487e-04
  1.3685265e-03
  1.3598198e-01
  1.2276246e-03
 -5.8044639e-04
 -1.1907454e-04
 -2.1522898e-04
 -1.8104552e-03
 -6.1063556e-04
 -8.2440663e-04
 -1.9585737e-03
 -1.9547029e-03
 -6.0436083e-05
  1.1959816e-04
 -5.9200870e-04
  2.5076808e-03
  7.6607696e-04
 -1.7396710e-03
  2.0915447e-03
  1.5480089e-03
  2.7417247e-03
 -1.2816730e-03
 -1.7616418e-03
 -2.4543022e-04
  4.3416489e-03
 -8.8249461e-04
  3.0280225e-04
 -5.1632104e-04
  3.9506666e-04
 -1.4832024e-04
  7.9097965e-04
 -4.9564387e-03
 -2.0136666e-03
  1.3404207e-03
  1.9619027e-03
 -1.8115678e-03
  7.8119838e-04
 -3.9408210e-04
 -1.2264436e-03
 -5.2536968e-03
 -1.6931412e-04
  2.0697963e-04
  1.1148164e-03
  3.9876732e-03
 -1.0614804e-03
 -1.2581916e-04
 -5.3603813e-04
  2.8066323e-04
 -1.3879404e-03
 -3.2589884e-04
 -1.5564702e-04
  5.2995922e-04
  6.9428241e-04
 -5.4337401e-03
  2.4767451e-03
  2.0571740e-03
  2.7233227e-03
  3.8089405e-04
 -9.6135581e-04
 -1.3093735e-04
  1.5987476e-04
  7.9856790e-04
  1.3931603e-03
  1.4903283e-01
 -9.4680393e-01
 -7.3257610e-02
  5.5105735e-02
  1.0511305e-02
 -2.1722467e-01
  3.4799572e-02
  1.9970642e-01
  4.2401685e-04
  2.0244062e-01
 -3.8890216e-01
  1.0731372e-03
  1.4113264e-01
 -2.3875196e-02
 -1.5551712e-01
 -2.8799093e-01
  5.8070710e-03
  4.0127164e-01
 -3.3064269e-05
 -1.8166177e+00
 -1.2245210e-01
  3.3184048e-04
  7.8237541e-02
  5.1160491e-01
 -5.0728773e-03
  2.9683947e-03
 -2.8463276e-03
  8.5040025e-04
  2.6821529e-03
 -9.0023614e-03
 -4.0439573e-01
 -3.2470636e-03
  1.4577708e-03
  9.3994540e-04
 -2.7453527e-04
 -2.6922370e-04
  4.1964510e-04
  5.5002007e-03
 -1.9349003e-03
  3.2102061e-04
  3.5236205e-04
  2.1094034e-04
 -4.7617740e-04
  9.9634635e-04
 -9.9575240e-04
 -5.0484694e-05
  1.5204279e-03
  4.2055242e-04
 -3.6184961e-04
  3.4887798e-04
  3.5426635e-04
  6.8023354e-03
 -1.9183591e-03
 -1.8511149e-03
  1.2374854e-03
  1.7164911e-04
  3.2873484e-04
 -1.6244552e-03
  8.9604204e-05
  1.0456095e-03
 -1.6821301e-01
  9.2120856e-02
  9.1756536e-03
 -1.5100533e+00
 -5.6984943e-01
 -3.7547197e-02
 -7.1779227e-01
  4.0800357e-01
  6.5113972e-03
 -9.9151105e-01
 -4.2353626e-04
  3.2599938e-01
  6.4758885e-01
  5.6851995e-01
 -3.8802668e-01
  1.1621729e-03
  1.6723489e+00
  1.9470595e-02
  1.4626130e-02
 -1.6380441e+00
 -1.3387722e-01
 -4.0530571e-01
  1.9879049e-01
  2.9637811e-03
 -4.4490504e-01
  1.4927680e-02
 -3.0551988e-03
 -7.5291130e-03
  7.7918172e-04
 -1.6372234e-05
 -9.8764348e-01
 -2.9500120e+00
 -3.3217353e-01
  7.1560049e-01
 -1.3208869e+00
  1.1206691e-03
  2.3815491e+00
  1.2442281e+00
 -3.6382610e-01
 -5.9935439e-01
  2.7637270e-01
 -1.8269609e+00
 -3.4286526e-01
  1.6258605e-03
  6.1242747e-01
  8.2508266e-01
  3.3833444e-01
 -2.5087836e-01
 -4.6432170e-01
  1.8969339e+00
  1.1234783e-01
 -8.1431019e-01
  1.5157437e-01
 -2.2953987e-02
 -9.6533462e-02
 -2.8694957e-04
 -1.2572511e-03
  2.0746505e-01
 -5.9526321e-04
  1.8596870e-04
 -6.3862431e-01
 -1.5373234e+00
 -2.4778037e+00
 -1.0627966e+00
 -2.2917485e+00
  3.5272383e-03
  1.7870784e-02
 -8.0782586e-01
  2.2172623e-03
 -8.0470264e-01
 -1.4759466e-01
  1.7401686e+00
  4.7755232e-03
  3.4357444e-03
  1.9661883e-02
  2.6694497e-03
  1.4795661e-01
 -1.3421810e+00
  4.9688178e-01
 -7.8633532e-02
  2.4355885e-03
 -3.4200191e-02
 -2.4637730e-01
 -1.2307602e-03
 -9.1693455e-01
 -2.7695387e-03
  3.7734327e-01
 -1.1095700e-02
 -1.3889358e-03
  6.9382226e-01
  7.9085022e-01
  1.2775300e+00
 -1.1124810e+00
  7.6467760e-02
  3.1384325e-01
  1.4911139e-01
 -6.2659669e-01
  1.0848999e+00
 -6.3411129e-01
  6.8901002e-01
  8.9640021e-01
 -4.3335545e-01
  1.1210718e+00
 -3.7922153e-01
 -5.8354378e-01
  1.1237601e+00
  3.2412440e-02
  9.6381062e-01
 -2.0420408e-02
  3.6588320e-01
  7.4076033e-01
 -1.3028355e+00
  1.1611298e+00
  1.5317252e+00
  1.0921493e+00
 -3.8750857e-01
  4.5173979e-01
  7.1702272e-02
  3.3769524e-01
 -1.1778952e+00
  1.2299925e+00
  3.4715707e-04
  1.4519036e+00
 -4.9510486e-02
 -1.2797495e+00
  3.5305905e+00
 -3.3466262e-01
  1.4152787e+00
  1.0238096e+00
  6.1722629e-02
 -6.6679379e-04
 -8.5516393e-01
  3.9288742e-04
 -2.6482565e-03
 -1.2305878e-04
  2.6979091e+00
 -1.3656970e+00
 -1.7996631e+00
  5.0072551e-01
  1.2011130e+00
 -5.8384287e-01
  1.5817891e-03
 -1.0410759e+00
 -6.9883384e-04
 -4.4765786e-04
  1.1350282e-01
 -1.7242773e-01
  9.4983667e-01
 -1.1668545e+00
  3.1766200e+00
 -2.2868821e-02
  1.0883545e+00
 -1.1267946e-01
  6.2536782e-01
 -2.5947005e-01
 -3.0371889e-01
  1.0565819e-01
  2.5168443e-01
 -7.6827550e-01
  2.2643186e-01
  3.3581954e-01
 -9.4744988e-02
  3.0662298e-01
 -6.1711404e-02
 -1.1990532e-01
 -2.4476613e-01
  1.8865281e-01
 -1.1859738e+00
 -1.2633552e-01
 -7.9837495e-01
 -1.6103399e-01
  2.7919358e-01
  7.6304919e-01
 -3.5147280e-01
  1.6933100e-01
  5.9028423e-01
 -3.7288837e-02
  5.6461086e-03
 -3.3237077e-02
 -8.0759078e-01
  1.2108605e+00
 -2.0193725e+00
 -7.3036693e-02
 -1.3634670e-01
 -1.8157628e+00
  5.2402532e-01
 -4.2136145e-01
  3.3728134e-02
  1.3001931e+00
 -1.7664236e+00
 -1.2301937e+00
 -4.6316147e-01
  1.6167216e+00
  1.4293368e+00
 -5.6498960e-02
 -6.9741207e-01
 -1.5559399e-01
 -2.6848557e+00
 -7.7221519e-01
  1.4091371e+00
  4.8493135e-01
 -1.1323981e+00
  3.4360722e-01
 -9.6410966e-01
  5.4211831e-01
  7.5368440e-01
  2.8081623e-01
  1.0554221e+00
 -9.5381510e-01
 -7.4534959e-01
  2.8843540e-01
  1.4419259e+00
 -6.6328503e-02
 -1.0387330e+00
 -6.0591929e-02
  1.1386273e+00
 -4.5940526e-02
  6.1526000e-01
  1.0328453e-01
  4.9582297e-01
 -2.7464393e-01
  4.2124179e-01
 -2.4299491e-03
  4.4841003e-05
 -2.5827663e+00
  1.3865274e-01
  2.1997418e-01
  1.5473191e-04
  9.0254152e-01
  2.7563522e-02
 -1.6064344e-01
  4.8690128e-01
  2.2306876e+00
  1.0950046e+00
 -2.0083510e-03
  5.3079374e-02
 -2.4435534e+00
 -5.6498278e-02
  6.0415798e-01
 -7.2752481e-04
 -1.0085846e+00
 -4.2059675e-01
 -4.1820072e-02
 -6.1970665e-03
 -1.3832304e+00
  6.7387766e-01
  2.6371893e-01
  4.2864731e-01
  1.1880112e+00
  8.9869857e-01
  6.7993760e-01
  3.2537814e-02
 -6.5180010e-01
 -1.2362368e+00
  4.2211011e-01
 -7.9066908e-01
 -3.9750493e-01
 -1.8590137e+00
  5.4588366e-01
  1.1125301e-03
 -3.4963388e+00
 -3.2193784e-04
  6.2544888e-01
 -5.8491689e-01
  1.1200667e-01
  1.0280782e-01
  6.0492373e-01
  4.9320188e-01
  2.9726762e-01
  7.4782890e-01
 -5.0956911e-01
 -6.1390321e-03
  2.0377666e-01
  4.5988292e-01
  6.9047558e-01
  8.3299202e-01
 -5.2420455e-01
 -2.4606749e-02
  2.7144805e-01
 -1.2678951e+00
  3.0577585e-01
 -3.0881250e-01
 -6.6533220e-01
  4.5755401e-04
  1.1128222e+00
 -9.0586340e-01
 -2.6855740e-01
  6.3800914e-03
  1.5996181e+00
  4.1158208e-01
  6.1180532e-01
 -4.8624551e-01
  5.5166554e-01
  4.7477746e-01
  2.8680640e-03
 -2.4072477e-03
  2.2052088e+00
 -5.4876643e-01
  1.3676426e-01
  4.8712385e-01
 -1.0104179e+00
 -1.0699087e+00
  4.6636498e-01
  1.5376132e+00
  1.5933026e+00
 -8.8223629e-02
 -9.9565613e-01
 -9.3989491e-02
  1.1683133e+00
  2.5515268e+00
  7.3358178e-01
 -7.3910564e-01
  1.3815457e-01
  1.5057675e+00
  5.0605762e-01
  9.0888977e-01
 -1.4543779e+00
 -7.7798176e-01
 -3.8681399e-02
 -2.4115208e-03
 -6.2762189e-01
 -6.5576464e-01
 -4.7956216e-01
 -1.7093652e+00
 -5.4028338e-01
 -1.4875295e+00
  2.6665944e-01
 -1.8494266e-01
 -8.1725740e-01
 -1.7737901e+00
 -4.2893127e-01
 -1.3836938e-03
 -7.9556209e-01
 -4.8094362e-02
  1.8994583e-01
  5.4898858e-03
  9.8316744e-03
 -1.2975396e-01
 -3.6218947e-01
  7.5484920e-01
  4.9904045e-01
 -1.7251828e-01
 -4.6297845e-01
 -8.9418353e-04
  1.0131733e+00
 -1.1972564e-02
  1.0364402e-01
  1.0704644e+00
 -1.8107502e-02
  7.7059579e-01
 -9.7814810e-01
  4.7356564e-01
  1.6221390e+00
 -4.1943157e-01
 -1.2510599e+00
 -1.9332303e-01
  2.3331086e-01
  1.8976836e-02
 -9.4591480e-01
 -1.8730348e+00
  3.5481700e-01
 -1.8127792e+00
  2.4199462e-01
 -1.3693846e+00
  7.1106978e-02
 -4.9535703e-02
  1.0316915e-01
 -1.4719650e+00
  1.0298464e+00
  1.5587301e-03
 -6.7898907e-02
  1.9397320e-03
 -8.8453078e-01
 -5.6850022e-01
  3.0643731e-01
  2.2666721e-01
  1.3918008e+00
  2.5055561e+00
 -5.0208527e-01
 -1.1420460e+00
  2.8367573e-01
 -2.1276383e-02
 -2.7934369e-01
 -5.0758183e-01
  1.1726683e-01
 -3.5588908e-01
  3.1292504e-01
  1.6265166e+00
 -9.4092548e-01
  1.3681350e+00
  1.9801153e-01
  1.1312186e+00
  3.2179913e-01
 -1.1154406e+00
 -3.5225222e-01
 -2.4014881e-01
 -8.4628206e-04
  2.8880203e-01
 -9.4401455e-01
 -1.5456529e+00
 -5.6880301e-01
  2.5057966e-01
 -3.9466748e-01
 -1.6141178e-01
 -2.1268415e+00
  1.3205214e-02
 -1.6362561e-02
  1.8690099e+00
  9.2892027e-01
  1.3294380e+00
  5.6008291e-01
  8.5097802e-01
  2.5698188e-01
  9.7973096e-01
  1.1168925e+00
 -3.4676485e+00
 -9.8932689e-01
 -3.0117549e-03
  8.9919627e-01
 -5.1701975e-01
 -7.1865904e-01
  1.5373846e+00
  2.4560466e-01
  1.0520631e+00
 -2.1685164e-01
  1.5784155e+00
 -3.7648180e-01
  4.5020960e-02
 -3.4487969e-03
 -7.3602307e-01
 -1.6434920e-01
 -8.9218616e-01
 -4.7856674e-02
 -9.0973234e-01
 -7.7072033e-03
  2.5956051e+00
  9.0688163e-01
 -6.6494519e-01
 -3.3863694e-03
  8.2057792e-01
 -2.9721823e-01
 -5.2396059e-01
 -4.4687763e-02
 -2.5744250e+00
  2.1891827e-03
  1.4057884e-01
  4.0941596e-01
  2.0413997e-02
  9.8353279e-01
 -1.9357193e+00
 -6.7846872e-02
  5.4672360e-01
  1.2994920e+00
  7.2349459e-02
  1.7316255e-01
 -1.8976177e+00
 -1.2295585e+00
 -3.2296082e-01
  6.7268252e-02
 -6.5637720e-01
 -7.0973235e-01
 -2.7182677e+00
 -1.5519443e-03
  1.0983133e+00
 -1.1238681e-01
 -5.9506589e-01
 -3.1842759e-01
  7.8695733e-03
  7.2941446e-01
 -4.1382208e-01
 -5.6562889e-01
 -1.1450365e+00
 -3.0845720e-01
  1.1486000e+00
  1.3589988e-02
 -7.8970313e-01
  2.2283375e+00
  5.3245050e-01
 -1.8374145e-01
  1.4191750e+00
  1.5134442e-01
 -1.9337825e+00
  9.6463017e-02
  3.1757765e+00
 -5.9511077e-01
  1.6123008e+00
  3.0766621e-01
  5.1451862e-01
  8.0091029e-01
  1.2689195e+00
  3.2585514e-01
 -2.2718196e+00
 -3.0700433e-01
 -1.5686910e+00
  3.1171206e-01
 -2.6614435e+00
  2.5197527e-01
  1.5166687e+00
  2.0075302e-01
  4.4198964e-02
 -1.3465177e-01
  2.1088140e+00
  6.3600793e-02
  1.4914511e+00
  6.0451156e-01
 -8.3406558e-03
 -3.9305565e-01
 -4.7638956e-01
 -9.4244945e-01
 -9.4973952e-01
  3.3473513e+00
 -3.5367456e-01
 -2.7901539e-01
  5.8343053e-01
 -3.0082610e-01
 -1.5739655e-01
  1.6098881e+00
  5.0006211e-02
 -1.1899663e+00
 -2.5038138e-02
  2.6821208e-01
  2.3149612e+00
  2.2744019e+00
 -4.8847753e-01
 -1.9125763e+00
  5.5981360e-02
  1.8084241e+00
 -3.8506165e-01
 -8.3441639e-01
 -1.0268763e-01
  8.8651264e-01
 -3.5331470e-01
  3.9145067e-01
  4.4600534e-01
 -1.4279163e-01
  2.0530972e-01
  9.1420209e-01
 -4.0643946e-03
  1.6668512e-01
  1.9775724e-01
  1.6278073e-01
 -2.8728703e-01
  1.7932653e-02
  1.7932653e-02
  1.7932653e-02
  1.7932653e-02
  1.7932653e-02
  2.9224221e-02
  2.9224221e-02
  2.9224221e-02
  2.9224221e-02
  2.9224221e-02
  1.1970963e-02
  1.1970963e-02
  1.1970963e-02
  1.1970963e-02
  1.1970963e-02
  6.4633326e-03
  6.4633326e-03
  6.4633326e-03
  6.4633326e-03
  6.4633326e-03
  4.4841925e-03
  4.4841925e-03
  4.4841925e-03
  4.4841925e-03
  4.4841925e-03
  4.2974390e-03
  4.2974390e-03
  4.2974390e-03
  4.2974390e-03
  4.2974390e-03
