nep4_charge1 2 H O 
cutoff 4 4 80 80
n_max 4 4
basis_size 8 8
l_max 4 2 0
ANN 30 0
  3.0647182e-01
  2.7275857e-01
 -1.0249844e+00
  1.4484913e+00
 -5.1265472e-01
 -1.0752416e+00
  2.8328529e-01
 -1.0368426e-01
  7.7909464e-01
 -3.3606467e-01
 -3.1086010e-01
 -8.2099056e-01
 -6.8034136e-01
  2.1078885e-01
 -9.2525780e-02
 -6.6594028e-01
 -5.4462796e-01
  1.7323545e+00
  7.0733184e-01
  1.1003900e+00
 -6.5111905e-01
 -8.0443569e-02
  6.7633945e-01
 -2.5738490e-01
 -1.3088064e-01
 -6.4172828e-01
  6.6164744e-01
 -1.7334092e-01
  1.0450436e-02
  1.4362005e+00
  7.1650797e-01
 -6.0172945e-01
  1.1028964e-01
 -8.5653669e-01
  6.8356305e-01
 -1.9182964e-01
  3.6666149e-01
  4.7487226e-01
  6.4078856e-01
  5.2156818e-01
  1.5685780e-01
  1.9208729e-01
 -4.4583088e-01
  1.1546239e+00
  1.2719409e+00
 -1.5030177e+00
 -6.0019072e-02
  1.2400459e+00
  6.4801395e-01
 -5.0618720e-01
  1.4034817e-01
 -1.3081524e-01
  5.4427570e-01
 -1.9687912e+00
  9.9329941e-02
  6.9086576e-01
  1.8941616e-01
  9.1685414e-02
 -5.6358557e-02
  2.5631517e-01
  6.8633938e-01
 -2.0873399e-01
  2.6647639e-01
 -4.3975672e-01
  2.0584090e+00
 -1.8693940e-01
  1.4756807e+00
  1.5583526e+00
 -2.4164338e-01
  6.0614514e-01
 -6.9834268e-01
  8.3971673e-01
 -4.0768313e-01
  3.0014580e-01
  4.9173361e-01
  4.6571191e-02
 -1.0582004e+00
  1.2027066e+00
 -2.2195594e-01
  1.9455667e-01
  5.3280771e-01
 -1.0609618e-01
 -8.2268560e-01
  3.6968303e-01
  1.0547535e+00
 -3.7212706e-01
  1.1292962e+00
  9.1917676e-01
 -5.8634770e-01
  2.9059154e-01
 -7.5829662e-02
 -4.8181105e-01
 -2.1984939e-01
 -3.7173626e-01
 -5.3192776e-01
 -7.5458848e-01
  4.0484837e-01
  4.3391892e-01
  5.6055194e-01
  4.6951175e-01
 -1.2147976e+00
 -3.0761560e-02
  3.3543310e-01
  1.4388382e+00
  6.9632494e-01
  1.2919514e+00
  7.0252292e-02
  6.3863850e-01
 -2.9296079e-01
 -4.8640195e-01
  1.1496354e+00
  1.2410388e+00
  2.7532831e-01
  3.8283092e-01
 -4.0472087e-01
 -1.8227630e+00
  3.5040244e-01
 -4.4500515e-01
  1.4762712e-01
 -1.1457914e+00
 -6.3767672e-01
 -1.0689691e+00
  7.7298135e-01
  1.1368514e+00
  1.4145030e+00
  1.2175977e+00
  9.0427411e-01
  2.5959828e-01
  5.0466233e-01
 -5.7934457e-01
  5.7073557e-01
  1.6420969e-01
 -8.1494927e-01
  2.8467306e-01
 -7.9811549e-01
 -3.9326109e-02
  6.5892285e-01
  8.2269007e-01
 -1.3695096e+00
 -1.6097996e-01
 -3.4876015e-02
 -3.3772150e-01
  5.3168827e-01
 -6.5703923e-01
 -8.2836843e-01
 -4.0758622e-01
 -2.7736041e-01
  4.3766332e-01
 -1.0110826e+00
 -1.2592179e+00
  2.7834901e-01
  7.0609242e-01
  7.8293717e-01
  1.3201745e+00
 -6.4481771e-01
  3.8748235e-01
  5.4128617e-01
 -3.5992882e-01
 -7.6473522e-01
  4.8763835e-01
 -1.2269859e+00
 -3.7862176e-01
  5.4628319e-01
  4.9345478e-01
  4.4955847e-01
  1.9309704e-01
  7.5747758e-02
 -6.3105947e-01
 -2.5749922e-01
 -3.4608844e-01
 -4.7005561e-01
  1.2139518e+00
  1.4443396e+00
  1.2254823e+00
 -5.3462595e-01
  1.2951545e-01
 -2.7317308e-02
 -9.0445423e-01
  1.1802903e+00
 -4.3125537e-01
 -1.4570113e+00
 -2.1011057e-01
  1.9148685e-01
 -2.3560469e-01
 -4.7535402e-01
  6.6846651e-01
  6.7243564e-01
  6.1031264e-01
 -1.4834424e+00
  1.1141010e-01
 -9.9209017e-01
 -6.0174763e-01
  3.7455598e-01
  1.2978110e+00
  4.3593332e-01
  9.1301578e-01
 -8.8098192e-01
  3.3645707e-01
  4.6528888e-01
 -1.0328349e-01
  6.2160224e-01
  1.0200707e-01
  5.7736593e-01
 -1.0004253e+00
 -1.4154679e-01
  4.3697026e-01
 -7.0847905e-01
  4.0252963e-01
  6.0748196e-01
 -3.6329985e-01
  6.0050613e-01
 -2.3027895e-01
 -2.3132053e-01
  5.9807901e-03
  6.7400873e-01
 -4.8913634e-01
  7.7471846e-01
 -3.1549200e-01
 -5.8085757e-01
  3.4052113e-01
  6.2463897e-01
 -1.8791755e-01
 -8.4545642e-01
  8.8616490e-01
 -1.1881774e-01
 -6.9607562e-01
 -3.5134324e-01
  5.3489673e-01
  9.4050974e-01
  2.3472767e-01
 -4.4181094e-01
 -8.6087453e-01
 -1.3426304e-01
 -8.4286129e-01
 -5.2095282e-01
  6.7107612e-03
 -9.5467471e-02
 -1.0506911e+00
 -9.3598235e-01
  5.2512985e-01
  4.2895272e-01
  7.4307859e-01
 -1.6436031e-01
 -9.9032408e-01
 -2.8781348e-01
  1.4416558e-01
 -1.2554650e+00
  1.8397379e+00
 -2.1402349e-01
  8.1301993e-01
  7.0600742e-01
  3.5337907e-01
 -1.4139119e-01
 -9.5385873e-01
 -2.9049127e+00
  9.6441847e-01
 -7.9307131e-02
 -9.3022478e-01
 -1.0064466e+00
 -1.0259955e+00
 -5.6505495e-01
 -1.9763840e+00
 -9.7423786e-01
  7.3468941e-01
 -4.1411642e-02
  8.0992097e-01
 -3.0839708e-01
  1.2781327e+00
 -9.4213575e-01
 -3.2739499e-01
  1.0608523e+00
 -1.3596059e-01
  1.2412455e-01
 -6.0575306e-01
  6.5965909e-01
  5.2712264e-04
 -9.9698621e-01
 -4.0546456e-01
  6.1525637e-01
 -1.3486376e-01
 -2.2812167e-01
  9.5881186e-02
 -2.2112976e-01
 -2.1296611e-01
  1.2001610e+00
 -6.9216776e-01
 -1.1677966e+00
  4.5929769e-01
 -5.9957159e-01
  9.9994320e-01
 -2.8579879e-01
  2.1344939e-01
  1.9045664e-02
  4.9974924e-01
 -1.6184434e+00
 -2.1108112e-01
  1.3204612e-01
  1.4250090e+00
  2.2614934e-01
 -8.0292243e-01
  4.4153374e-01
  4.3102182e-02
 -3.3713865e-01
 -2.0724873e-01
 -4.8256874e-01
 -9.6506435e-01
  4.0459856e-01
 -1.4705317e-01
 -5.3389168e-01
 -4.8096497e-02
  1.2665000e+00
 -1.6924752e-02
 -4.3328181e-02
 -7.6109713e-01
  7.6662654e-01
 -1.1765180e+00
 -9.0083444e-01
 -1.9186623e-01
  3.8113415e-01
 -1.7746385e+00
 -5.0052643e-01
 -7.5925469e-01
 -1.1979288e+00
 -8.1730172e-02
  9.0829211e-01
  5.2519679e-01
 -1.2091850e+00
  4.5237067e-01
 -5.1615673e-01
  7.6445371e-01
  2.1083696e-01
  7.4085450e-01
  8.2235080e-01
 -3.9530054e-01
  7.1640736e-01
  8.3483674e-02
  2.2983117e-02
 -9.1816342e-01
  7.3902535e-01
  2.0636405e-01
  4.9681133e-01
  4.7825508e-02
  3.3235699e-01
  8.5140806e-01
 -9.5451176e-01
 -3.8729653e-01
 -1.0814340e+00
  1.0288903e+00
  4.6274284e-01
 -1.1525661e-01
  5.8800697e-01
  9.2677154e-02
  8.8622317e-02
 -5.8061886e-01
  1.0283960e+00
  2.6593560e-01
 -5.8114344e-01
 -2.4801944e-01
 -6.8828577e-01
 -6.1420757e-01
 -3.4056133e-01
  3.9258111e-01
 -1.2988300e+00
  7.5252324e-01
 -8.7803924e-01
  1.3906251e+00
 -2.7259612e-01
 -1.3937551e+00
  7.6449353e-01
  3.8444892e-01
  1.4071485e+00
  8.0842875e-02
 -5.2657837e-01
 -5.7083333e-01
 -9.1210675e-01
 -4.3432394e-01
  5.9184587e-01
  4.7277358e-01
 -8.0578935e-01
  4.4295114e-02
  4.5239162e-01
  2.6535550e-02
  1.4102850e+00
 -1.1677703e+00
 -5.9138216e-02
  3.0407774e-01
  3.5726479e-01
  6.2952912e-01
 -8.2030624e-01
  6.0566753e-01
 -2.1917123e-02
  1.1669207e+00
  7.4194199e-01
  5.3292584e-01
  2.0990360e-01
  3.0905452e-01
  5.5985850e-01
  9.1483098e-01
  8.5693777e-01
 -7.5089806e-01
 -7.6622820e-01
  1.4114829e+00
 -7.8903131e-02
 -3.5587290e-01
 -3.0420354e-01
 -2.4147260e-01
 -5.1253372e-01
  4.0181872e-01
 -8.2396227e-01
  1.4241064e+00
 -1.3372544e+00
 -1.0254102e+00
  2.5965604e-01
  9.3297504e-02
 -7.0274603e-01
  1.9514434e-02
  2.5698709e-01
 -1.8137684e+00
 -1.1078138e+00
 -2.1746114e-01
  3.7300029e-01
  1.3460354e+00
 -8.0894673e-01
  1.0212919e+00
  9.4319947e-02
 -4.7129485e-01
 -1.1200173e+00
  6.3593388e-01
 -3.5758215e-01
  1.7070372e-01
 -6.0110515e-01
 -4.8279169e-01
  3.7304994e-02
  9.2201847e-01
 -4.1528743e-02
  5.3426200e-01
  5.0823438e-01
  8.6240047e-01
  4.2136815e-01
 -1.4241831e+00
  7.3422050e-01
  3.4259751e-01
 -7.5758353e-02
  3.7024781e-01
 -5.8376217e-01
  2.0711727e-01
  1.0489011e+00
 -5.0480056e-01
  6.4493823e-01
  2.8013623e-01
 -5.6095719e-01
 -2.2988196e-01
 -1.0313373e+00
 -4.2895234e-01
  7.9930633e-02
 -5.0501925e-01
 -1.9987862e+00
 -4.5349377e-01
 -9.5711577e-01
  3.3772868e-01
  3.1068012e-01
 -1.9322774e-01
 -2.3843013e-03
  7.4129462e-01
  1.9107687e+00
  1.2215598e+00
  7.3791140e-01
 -3.1781256e-01
 -1.0355798e+00
 -3.2473512e-02
 -5.0917017e-01
  7.9799265e-01
  7.0987618e-01
 -1.1166912e+00
  3.0094886e-01
 -3.7486395e-01
  7.6578689e-01
 -2.2064973e-01
  2.5005832e-01
  5.7929879e-01
  6.0215318e-01
  1.8555234e-01
  4.1453639e-01
  8.6666900e-01
 -2.3763992e-01
  5.1378042e-01
  6.4643681e-01
  3.2485065e-01
  6.8812960e-01
  6.3751167e-01
 -6.5124971e-01
  6.9870579e-01
 -1.1285025e+00
  3.7308764e-01
  1.0264004e-01
  2.6363814e-01
  6.9948453e-01
 -9.8155922e-01
 -2.1593064e-02
  7.5258970e-01
 -1.0716094e+00
 -8.7838399e-01
 -3.7075031e-01
  5.7348061e-01
  1.8419644e+00
  2.5121820e-01
  1.0281865e-01
 -7.3568738e-01
 -2.8666717e-01
  6.9115609e-01
  5.1245028e-01
  4.5379004e-01
 -1.0845308e+00
 -6.6666961e-01
 -5.1581651e-02
 -6.2760395e-01
 -9.3282618e-02
  1.6420453e+00
 -9.1242540e-01
  1.4492604e+00
  1.1251550e+00
  1.1492363e+00
 -1.7346030e+00
  9.4709551e-01
 -4.2896348e-01
 -3.0283120e-01
  1.4341950e-01
 -2.7493285e-02
 -1.0705276e+00
  1.5137985e+00
 -6.0647584e-02
  4.6783042e-01
 -1.9502997e-01
  9.7888428e-01
  1.7425357e+00
  1.5819404e-01
 -5.6861812e-01
 -1.4916833e-01
  1.0097636e+00
 -5.7166904e-01
  5.3355479e-01
  6.4643294e-02
 -3.6718953e-01
  2.1494481e-01
  4.0149537e-01
 -1.4034545e+00
 -8.9295387e-01
 -4.8546165e-01
  1.0531667e+00
 -5.5923444e-01
 -2.3910980e-01
 -3.1639221e-01
 -2.5129056e-01
  5.2784580e-01
 -1.1090083e-01
 -4.7376648e-01
 -8.9470589e-01
 -1.3963890e+00
  1.4792016e-01
  4.5440912e-02
  8.2343709e-01
 -3.0012330e-01
  2.1293181e-01
  1.2960576e+00
 -6.9554919e-01
 -5.5869812e-01
 -4.9237335e-01
 -1.3930240e+00
  2.1861811e-01
 -9.5227122e-01
 -5.9569162e-01
 -1.4012048e+00
 -4.2900007e-02
  5.4732794e-01
 -7.4642771e-01
  5.1605284e-01
 -3.7386829e-01
 -1.2051544e+00
 -1.0060307e+00
  4.8509997e-01
  2.9235995e-01
 -2.9359913e-01
 -2.8939018e-02
 -3.7210357e-01
  3.5568362e-01
  3.1478524e-01
 -7.0220053e-01
  1.6595015e-01
 -9.8120165e-01
  6.1770153e-01
 -1.2751933e+00
  5.3007327e-02
 -1.0360148e+00
 -3.8216451e-01
  1.1575316e+00
  7.6794527e-02
 -1.0484122e+00
 -4.5042265e-02
  6.2440050e-01
 -1.3432678e+00
 -3.9141592e-01
  5.0408894e-01
  1.2215579e+00
  9.1790211e-01
 -3.9998028e-01
  9.1293806e-01
  3.2516706e-01
 -4.1893554e-01
 -1.0664964e-01
  7.1736902e-01
 -5.3097349e-01
  2.5190744e-01
 -7.8664176e-02
  6.0228395e-01
  5.4873890e-01
  8.1716865e-01
 -5.8286172e-01
 -7.2079562e-02
  8.1164271e-01
 -4.8646981e-01
 -7.9510391e-01
  9.5080823e-01
 -4.8324773e-01
 -1.1625758e+00
  3.6892107e-01
 -9.9976176e-01
 -1.1068944e+00
  1.6346358e+00
  2.6650771e-01
  2.8143227e-01
  8.2112901e-02
  5.2462715e-01
  9.8367035e-01
  5.3692472e-01
 -9.2509854e-01
  2.8829816e-01
 -1.3372362e+00
  1.4422290e+00
  3.3337170e-01
  4.6432638e-01
  4.0404046e-01
 -5.4678231e-01
 -1.2590144e+00
  8.9649504e-01
  4.2950156e-01
 -3.8875708e-01
  5.6952542e-01
 -1.3608098e+00
  3.2263306e-01
 -1.9898322e-01
 -5.8129269e-01
  6.0160500e-01
  1.3628588e+00
 -3.6356166e-01
 -3.1426260e-01
 -6.3198996e-01
  1.9654828e-01
  6.1988169e-01
  1.2203119e+00
 -1.9535726e-01
  3.6611179e-01
  5.1109868e-01
  1.1332422e-01
 -7.0814478e-01
  3.3397313e-02
  6.5885234e-01
 -1.4500881e+00
 -1.2219867e+00
 -1.7131774e-02
  5.4116791e-01
  1.2471731e+00
  7.3277366e-01
  1.2738012e+00
  1.0930961e+00
 -9.8038781e-01
  3.4420994e-01
 -4.8518339e-01
 -8.1079674e-01
  1.6167119e+00
  3.0212840e-01
  1.9085044e+00
  1.6256524e+00
  1.2860767e+00
 -6.3940436e-02
 -6.8665576e-01
  2.7472487e-01
  4.1518635e-01
  6.5922379e-01
  1.2596622e+00
  4.6282387e-01
  6.0492897e-01
 -7.9581507e-02
  4.5738968e-01
  9.6515584e-01
 -1.2849047e+00
 -3.1723019e-01
 -1.0215532e+00
 -3.8274869e-01
 -1.8938643e-01
  3.7183622e-01
  4.5524630e-01
  5.0988054e-01
 -2.1942504e-02
  5.5980954e-02
  7.1022654e-01
  1.4526725e-01
 -9.9555594e-01
 -6.8986058e-01
 -1.3515325e+00
  2.5627542e-01
  4.4917595e-01
  2.8673685e-01
 -1.3483366e-01
 -4.1578922e-01
 -3.6339188e-01
 -1.3530459e+00
 -1.8007804e+00
 -1.0027608e+00
  4.2680252e-01
  1.0231140e-01
 -3.0293819e-01
 -3.8601965e-01
  1.3776751e-01
 -1.3131701e+00
  7.3670280e-01
  1.0923696e+00
  3.9633787e-01
 -3.6457670e-01
  2.2932193e-01
 -4.8462594e-01
  1.5750559e-01
  3.2665461e-01
 -7.1347332e-01
 -8.8389128e-01
 -2.8356934e-01
 -7.9024440e-01
 -2.0114644e-01
 -7.7074838e-01
  1.1250831e+00
 -9.3193585e-01
 -1.1459031e+00
  1.0510738e+00
 -4.7621593e-01
 -4.3784344e-01
 -6.2241352e-01
 -1.5320143e-01
  4.0273991e-01
  3.6781651e-01
 -2.2335726e-01
 -1.1602484e+00
  2.5398201e-01
  6.0106492e-01
 -8.7403154e-01
  6.5615141e-01
 -9.7754908e-01
 -8.0324697e-01
  1.2273571e+00
 -7.3125720e-01
  8.6915784e-02
 -6.0053623e-01
  9.9534059e-01
  1.5252973e+00
 -1.2567233e+00
  1.4411067e+00
 -5.7390177e-01
  1.5686406e-01
  5.1399392e-01
  1.9422638e-01
 -9.9054170e-01
 -9.6407640e-01
 -4.2500541e-01
 -1.7100470e-01
  3.4806576e-01
 -5.5898428e-01
  6.0445023e-01
 -1.2745546e-01
 -4.3734005e-01
 -1.7533351e-02
  2.0641997e-04
  1.1656346e+00
  9.5799428e-01
 -1.0792294e+00
  5.5857068e-01
 -1.1199484e+00
 -8.4693700e-01
  1.1761719e-01
  2.1998179e-01
 -1.0042427e+00
  8.9117926e-01
 -2.3321840e-01
  2.4292478e-02
 -9.6656764e-01
 -1.3163815e+00
 -1.2628913e-01
 -1.1626303e-01
 -6.5992689e-01
 -6.1881643e-02
 -1.3941202e-01
 -2.0900096e-01
 -5.1171309e-01
  7.6722896e-01
 -6.2255853e-01
  1.2978208e+00
 -1.5854795e+00
  4.7145146e-01
 -5.7495809e-01
 -7.2333521e-01
  8.0283886e-01
 -6.0992658e-01
 -1.2283485e-02
 -1.4031801e-01
  2.8258547e-01
 -9.4798744e-01
  1.4053215e+00
 -2.8448138e-01
  4.5949671e-01
 -1.0095793e+00
  6.4755321e-01
  2.1861868e-01
 -4.5821488e-01
  2.0663235e-01
  6.5661037e-01
 -4.9989319e-01
 -8.2502025e-01
  6.3187850e-01
 -1.3233558e+00
 -9.8829353e-01
 -3.9205658e-01
  3.9818594e-01
 -3.2966667e-01
 -1.1231817e+00
 -3.8451406e-01
 -7.6471883e-01
  2.5368893e-01
  1.7158127e-01
 -1.3001952e+00
  4.0251118e-01
  1.2549045e+00
  7.2158676e-01
  5.4529005e-01
 -2.9729778e-01
 -8.5858691e-01
  1.8541333e-01
  7.9089069e-01
 -5.2378994e-01
 -7.0788842e-01
  1.7541946e-01
 -7.8863822e-02
 -1.1943846e+00
 -1.1285946e+00
 -1.3362561e-01
 -1.3729413e-01
  5.8118677e-01
  4.6068594e-01
  1.7834908e-01
 -8.9238834e-01
  2.2526565e-01
  6.8888384e-01
  6.2086588e-01
 -1.8875091e-01
 -4.3909812e-01
  2.4498221e-02
  2.8883028e-01
  4.5890224e-01
  7.0400233e-04
  1.1369625e-01
  1.0404927e+00
 -7.3044091e-01
 -1.2343247e+00
  4.9145719e-01
 -9.1681129e-01
  1.7243257e-02
  1.0816996e+00
  9.8449177e-01
  8.0610430e-01
  1.3222668e+00
  2.2796212e-01
  1.2209436e+00
 -4.7668672e-01
 -3.4496024e-02
 -5.6222934e-01
 -8.3652250e-02
 -7.8740066e-01
 -1.1588119e+00
  2.0581923e-01
  1.7356180e-01
 -5.5349100e-01
  8.3350444e-01
 -6.4842841e-03
 -8.7928557e-01
  5.6808025e-01
  7.1245581e-01
 -8.4949607e-01
  8.5255033e-01
  1.9867416e-01
  3.8312358e-01
 -4.7168633e-01
  1.0423048e+00
  8.6804765e-01
 -1.1796917e+00
  1.2218308e-01
 -8.1513351e-01
 -1.1380867e-01
 -5.3581423e-01
  9.8287612e-01
  3.5214934e-01
 -8.5643208e-01
  2.5984168e-01
  4.5831674e-01
 -1.2157873e+00
 -1.8008095e-01
  1.2417290e+00
  4.4076672e-01
 -9.3051028e-01
 -1.8806031e-01
 -2.6516604e-01
 -4.9121284e-01
  2.1538672e-01
  4.1203901e-01
 -1.3198568e-02
 -4.5712268e-01
 -1.7051084e-01
  1.5214440e-01
 -1.1523255e+00
  8.0957526e-01
 -9.6053219e-01
 -9.5304191e-01
  5.8133560e-01
  1.1956300e+00
  4.6563247e-01
  1.8905652e-01
 -1.8151250e+00
 -4.8420066e-01
  1.7641872e-01
  2.2999223e-01
 -5.0893688e-01
  7.3091343e-02
 -3.1319818e-01
 -2.0678227e-01
 -2.3422626e-01
 -7.9702657e-01
  5.4644746e-01
  4.0744495e-01
  1.6516026e+00
  7.4953955e-01
 -2.6975653e-01
  6.1939716e-01
 -7.7932012e-01
 -4.2637208e-01
 -9.7640389e-01
  4.6573207e-01
 -1.5308657e+00
 -5.3063732e-01
  4.1691044e-01
  2.2383878e+00
 -1.0324168e-01
  4.5955965e-01
 -1.1346391e+00
  1.2691356e+00
 -2.3708141e-01
 -6.9490634e-02
 -6.8462425e-01
 -2.4735808e-01
  3.6977893e-01
 -4.7429830e-02
  9.5126852e-02
 -1.9456433e-01
 -1.0149492e-04
 -3.3320510e-01
  5.0414366e-01
 -3.3733405e-02
 -1.3010922e-01
  3.4692442e-01
  1.6438420e-01
 -1.1879778e-01
  1.6685290e-04
  1.4168893e-01
  4.0709642e-01
 -3.1998256e-01
 -2.8880411e-01
  5.7418460e-01
 -2.1961103e-01
 -1.5016897e-01
 -2.3928104e-01
  2.5398877e-01
 -6.1847878e-01
 -2.3633997e-01
 -1.9878687e-01
 -4.9693462e-01
 -9.6342370e-02
 -4.5053132e-02
 -1.8359217e-03
 -8.8141966e-01
 -1.4711976e-01
  7.1238673e-01
  3.1747395e-01
 -1.4462948e+00
 -4.1075550e-02
  9.4220930e-01
 -1.0599902e+00
  2.1815552e-01
 -1.6856662e+00
 -8.4314805e-01
  2.1021311e-01
  1.5285240e+00
 -1.3723060e-02
 -6.3996112e-01
  2.9090425e-01
 -5.3092867e-01
  1.3330903e+00
  1.7438434e+00
 -4.1570973e-01
  1.7356864e+00
 -4.5980722e-02
  6.0880476e-01
  1.9369115e-01
 -6.5540433e-01
 -2.1335019e-01
  6.6035151e-01
  3.0122346e-01
 -1.7847086e-01
 -3.6464685e-01
  2.5168714e-01
 -9.9912190e-01
 -1.3582326e+00
  9.1790862e-02
  1.8034750e+00
 -8.3663064e-01
 -2.7607459e-01
 -5.7835567e-01
  1.8594325e-02
 -7.5310212e-01
  7.1206224e-01
  5.5596173e-01
  6.4493042e-01
 -1.7626768e-01
 -3.7574720e-01
  8.6748403e-01
 -3.4141192e-01
  2.8912646e-01
 -8.8089746e-01
 -3.7383363e-01
 -7.9298884e-01
  1.0542338e+00
  2.1120302e-01
  1.2264152e+00
 -8.2266331e-01
  5.6669044e-01
  1.0279882e-01
  7.3265457e-01
 -6.5204525e-01
  3.4481317e-01
  9.9162710e-01
 -2.0566960e-01
  1.2310907e+00
  1.0346621e+00
 -1.3212682e+00
 -1.0030677e+00
  8.6766952e-01
  7.5393832e-01
 -1.8164006e-01
 -1.6354594e+00
  1.4563942e-01
  7.9743719e-01
  2.9039329e-02
 -1.2877253e-01
  1.3620625e-01
 -1.2205389e+00
  2.6924282e-01
  6.3629258e-01
 -1.2479746e+00
 -4.6081403e-01
  8.7738195e-03
  1.3941725e+00
  7.4837404e-01
  1.3737229e+00
  3.2850212e-01
  1.1268225e-02
 -1.1244476e+00
  1.1105504e+00
  2.7073845e-01
 -4.2851886e-01
  3.2004780e-01
 -5.3531748e-01
  9.5706493e-01
  6.0641494e-02
 -3.7541267e-01
  1.0142584e+00
  2.6269832e-01
  5.3388858e-01
 -4.9137387e-01
 -4.2074955e-01
 -8.0275011e-01
 -4.7449124e-01
 -2.9164395e-01
  8.7057388e-01
  3.9399090e-01
 -1.2085799e+00
  1.9986819e-01
 -7.6053545e-02
  1.2552203e-01
  1.5960942e-01
 -7.5536621e-01
  8.9254051e-01
  7.5448805e-01
  5.1955485e-01
 -7.0652789e-01
 -5.1308954e-01
 -1.0671005e+00
  6.4188147e-01
  5.4991357e-02
  6.0622025e-01
  6.2214625e-01
 -2.8835422e-01
  4.9369475e-01
 -5.5851716e-01
  6.5442520e-01
  1.1730219e-01
  4.2316923e-01
 -5.7454866e-01
 -9.4576526e-01
 -7.8024924e-01
 -3.8316450e-01
  1.2350043e+00
  5.4794854e-01
  6.0807723e-01
 -5.3021556e-01
 -9.5361018e-01
 -6.9470841e-01
 -6.5803450e-01
  1.6034992e-01
 -1.3802835e-01
  2.5905551e-02
 -8.0701351e-01
  1.4771492e+00
 -2.2964366e-01
  8.9100838e-01
 -1.5133312e+00
  7.1893400e-01
  9.3549240e-01
 -3.1942239e-01
  9.1447294e-02
 -1.1008519e+00
 -8.8517714e-01
 -1.0562646e-02
  6.7269987e-01
  6.5748292e-01
 -8.7813365e-01
  6.2635505e-01
  3.8751671e-01
  2.3247896e-01
 -1.3973467e+00
  1.0073311e+00
  5.9780258e-01
  2.1246871e-01
 -6.5645689e-01
 -3.7812203e-01
 -9.9602729e-02
  8.9457768e-01
  6.3634056e-01
  1.7335796e-01
 -5.8794934e-01
  8.5238463e-01
  1.0795835e+00
  6.0840744e-01
  3.6952734e-01
  2.1394831e-01
 -1.2861124e+00
  1.2675562e+00
 -3.5138887e-01
 -6.4327031e-01
 -9.6358061e-01
  7.9121447e-01
  8.4793633e-01
  2.0327128e-01
  1.8622056e-01
 -3.7085989e-01
 -1.5261732e+00
 -1.1561197e+00
  5.3585029e-01
 -1.0341394e+00
 -1.0807900e+00
  7.6141649e-01
  6.7639756e-01
  8.8623703e-01
 -1.2053307e+00
  1.1347398e-01
  2.6296067e-01
 -1.7861456e-01
 -1.2105067e+00
  8.6974990e-01
  1.0699409e+00
  1.0792226e+00
  9.8000497e-02
  8.0760318e-01
 -1.0765390e+00
  6.3728344e-01
 -8.3451587e-01
  9.1308349e-01
  9.7534925e-01
 -6.7739373e-01
  5.3720057e-01
  4.4860876e-01
 -1.0852902e+00
 -1.0273577e+00
 -2.4811718e-01
  2.1905355e-02
  6.8059450e-01
 -3.4706607e-01
  4.6920541e-01
 -8.0566770e-01
 -3.3967736e-01
  2.0593812e-01
  5.6978446e-01
 -7.5430024e-01
  3.2256785e-01
  1.0771502e+00
  5.3569394e-01
  2.8257313e-01
  5.4176497e-01
 -1.0088733e+00
 -7.5404847e-01
  7.5434780e-01
 -3.9060342e-01
 -3.6929885e-01
  5.4374510e-01
  8.6562985e-01
  3.6514187e-01
 -1.1471202e-01
  8.4094584e-01
 -3.7629110e-01
  8.0319476e-01
 -5.2527841e-03
 -6.3782871e-01
 -7.0959657e-01
 -7.6139081e-01
  8.2700485e-03
 -1.2573639e+00
  9.9555093e-01
  1.0963625e+00
  1.0963928e+00
  9.6883410e-01
 -1.4158870e+00
 -1.8573907e-01
  8.6216700e-01
  1.0635936e+00
  4.0746957e-01
 -5.7214224e-01
  2.7560160e-02
 -1.8204591e-01
  1.2690960e+00
  1.0993037e+00
  5.4774714e-01
  7.9141527e-01
  6.2978011e-01
  3.5712030e-04
 -1.0645400e+00
 -1.9387373e-01
 -3.4793055e-01
 -9.8123974e-01
  7.1647769e-01
 -8.7981425e-02
  3.7567613e-01
 -5.9755409e-01
  2.5324023e-01
 -1.0274789e+00
  1.0103128e+00
 -9.4942546e-01
 -1.5832797e+00
 -8.0788094e-01
  6.0454618e-02
  9.6162248e-01
 -5.5721146e-01
  1.8723637e-01
  8.0434638e-01
  1.5749185e+00
  6.5574563e-01
 -3.3010334e-01
  8.9018965e-01
  6.3821614e-01
  7.4335337e-01
 -1.1782211e+00
 -5.6398153e-01
  2.3891881e-02
  2.0822527e-01
  6.0055017e-01
 -2.8177387e-01
  4.0147045e-01
  3.7129688e-01
  1.3949614e+00
 -5.8264601e-01
 -2.8633320e-01
 -9.3785316e-01
 -2.7703783e-01
  3.9867958e-01
  3.7361181e-01
  4.8542328e-02
  6.1426185e-02
 -3.1509256e-01
 -2.1132472e-01
 -3.7579072e-01
  2.5127840e-01
 -2.7672306e-01
 -6.3105237e-01
 -6.8719506e-01
  4.8985802e-02
  1.2447964e-01
  1.2322922e+00
  8.5931259e-01
  6.4408487e-01
  2.5632277e-01
 -1.1010469e+00
  4.9408033e-01
  3.4000090e-01
 -6.6635466e-01
 -8.7663792e-03
  7.7586114e-01
 -7.0925301e-01
  1.0075449e-01
  2.4756889e-01
  1.4391725e+00
 -1.4484099e-01
 -3.9086321e-01
 -5.7171631e-01
 -9.3120468e-01
  1.8785769e-01
 -3.6193404e-02
  9.8811495e-01
  3.6137387e-01
 -6.4210278e-01
 -7.6389003e-01
  6.6635549e-01
  8.8619685e-01
 -4.5029780e-01
 -6.1692510e-02
  2.8471467e-01
  1.0884955e+00
 -1.0760168e-01
 -3.4947419e-01
  1.4950703e-01
 -2.3176950e-01
 -1.1082712e+00
 -2.2007506e-01
 -1.5538975e+00
 -3.3129135e-01
  3.7151477e-01
  4.2751357e-01
  2.1631314e-01
  3.1059505e-02
 -6.9066852e-01
  7.1732879e-01
 -4.4376311e-01
 -8.8494845e-02
  4.0890843e-01
  8.1561577e-01
  8.9304888e-01
  8.3220017e-01
  9.2132741e-01
  2.7104345e-01
 -1.8000609e-01
  5.0722599e-01
 -3.6326146e-01
 -8.7348759e-01
  1.1677152e+00
  1.2466925e+00
 -3.7442204e-01
  3.5255441e-01
  1.0252281e+00
  2.8233755e-01
  1.2929425e+00
  2.2307841e-01
 -3.5771096e-01
 -3.5862032e-01
  2.1106710e-01
 -4.8023441e-01
 -8.1721818e-01
  1.4909154e+00
  1.3659055e-02
 -7.7947825e-01
 -8.9816672e-01
  3.1251714e-01
  2.6284632e-01
 -5.9656364e-01
 -8.4599727e-01
 -2.3171127e-01
 -2.1704283e-01
  9.3817294e-01
  7.0915705e-01
 -2.1068650e-01
 -5.2592939e-01
 -8.3932227e-01
  7.0259756e-01
 -6.5911400e-01
  1.3954374e+00
 -7.8877592e-01
  1.2635728e+00
 -4.3375680e-01
 -1.3117100e+00
  3.4284347e-01
 -3.6897019e-01
 -5.2215618e-01
  6.3953537e-01
 -1.5482123e-01
  1.1163045e+00
  9.2518049e-01
 -1.6920936e-01
 -1.3630813e+00
  8.6824238e-01
  4.8100951e-01
 -6.0628551e-01
 -4.9650913e-01
  9.5740283e-01
  5.5185441e-02
 -8.7661773e-01
 -5.7421660e-01
 -7.2608434e-02
 -3.5539797e-01
  5.7370734e-01
  1.1307439e+00
  5.6771779e-01
 -2.5041789e-01
  5.9973782e-01
  9.2470199e-01
  8.4340787e-01
 -1.1805408e-02
  5.8103585e-01
 -2.6686999e-01
  4.2845777e-01
  5.9102529e-01
  4.3634596e-01
  1.6258715e+00
 -6.8852001e-01
 -4.6978509e-01
  6.0415585e-02
 -2.2192757e-01
  2.7935025e-01
  7.5631773e-01
  5.2341211e-01
  1.0306345e+00
  6.8170622e-02
  6.6923100e-01
 -5.3959358e-01
  6.0210876e-02
 -1.4964663e+00
 -4.4236720e-01
  5.2179712e-01
 -5.5740082e-01
  7.9868972e-01
  1.2237448e+00
 -7.3811054e-01
 -7.8866982e-01
 -6.5513659e-01
  7.8987664e-01
  3.3179122e-01
  4.0169266e-01
 -6.9156915e-02
 -3.3170715e-01
 -4.6852747e-01
  3.7917948e-01
 -2.7239743e-01
 -4.3312171e-01
 -4.2263639e-01
 -3.7788108e-01
 -7.3626280e-01
 -1.1469854e+00
  2.1739863e-02
 -2.2316460e-01
 -1.2694660e+00
 -9.0481609e-01
  5.0982958e-01
 -8.3642286e-01
 -2.2312675e-01
  1.0485824e+00
  1.2165389e+00
  6.0946468e-02
  3.0521864e-01
 -1.1889496e+00
 -8.9659214e-01
  5.7849389e-02
 -9.0488452e-01
  1.1811768e+00
 -3.4824643e-01
  4.4339699e-01
 -2.7067250e-01
  5.4493297e-02
  2.0064604e-01
 -1.7329217e-01
  2.7683553e-01
 -1.2502240e-01
  2.8868708e-01
  1.2325289e+00
 -1.9843772e-01
  1.7031600e-01
  5.1871043e-01
  2.2553477e-01
  6.3908494e-01
  8.0021977e-02
 -5.3348112e-01
 -1.9417858e+00
 -2.2362387e-01
  3.4373406e-01
 -4.9140230e-01
 -4.4426280e-01
  3.9453515e-01
  3.7035307e-01
 -6.6455674e-01
 -1.7277639e+00
 -5.3218240e-01
  9.4747031e-01
 -9.3891516e-02
 -5.1354730e-01
 -2.6528525e-01
 -4.0475588e-02
  2.8760251e-01
  4.5959252e-01
  1.7631127e+00
  2.8676569e-01
  4.9330625e-01
  7.2333336e-01
 -9.3995941e-01
  1.4418695e+00
 -1.8792614e+00
  5.4603332e-01
 -7.3220253e-01
 -9.6640390e-01
 -9.9025100e-01
  1.3386780e+00
  1.2374848e+00
 -5.0839216e-01
 -1.0960623e+00
  8.1878471e-01
  7.2791284e-01
 -2.5637212e-01
 -2.9671165e-01
  1.1913497e+00
 -2.8107028e-02
  4.9088025e-01
  2.1764627e-01
 -9.3050039e-01
 -3.0764726e-01
  5.9639332e-03
  1.4932643e+00
  4.5636216e-01
 -1.2067847e+00
  1.5613581e+00
  1.3192170e+00
 -5.5028236e-01
 -1.1292169e+00
  1.7024478e-01
 -1.0758333e+00
  8.4165996e-01
 -1.0028192e+00
  1.8371248e-01
  4.8083037e-01
  7.0846564e-01
  4.3191683e-02
  1.8619879e+00
  9.7225767e-01
  9.1132867e-01
  3.9395401e-01
  2.4834102e-01
 -8.5105193e-01
 -8.9039284e-01
  2.1473670e-01
  4.9349043e-01
 -4.4981456e-01
 -3.8560539e-01
  1.5174326e+00
  7.8537771e-03
  1.4418010e-01
  1.2258837e+00
  6.6940022e-01
 -1.0235933e+00
  3.0248636e-01
  5.4329199e-01
  1.0685569e+00
 -5.4788482e-01
  1.4801432e-01
 -1.0860209e+00
 -3.5256472e-01
  4.5791289e-01
  4.3547615e-01
 -4.3360901e-01
  7.3819661e-01
 -9.1618693e-01
 -6.2608898e-01
  5.1422065e-01
  4.3168214e-01
 -7.2681153e-01
 -6.4031941e-01
  8.2498509e-01
  2.1493213e-01
  1.2285045e+00
 -1.6384678e+00
 -9.2519999e-01
 -2.6818776e-01
  6.1829615e-01
  1.8499234e-01
  1.4261339e+00
 -1.3231222e-01
 -4.7178027e-01
 -2.9797173e-01
 -3.6007565e-01
  4.8420873e-01
 -1.6564734e-01
 -7.6022536e-01
 -4.5787179e-01
 -4.9421614e-01
 -7.0047694e-01
 -8.0335379e-01
 -1.1099950e+00
  3.5051593e-01
 -9.1738069e-01
  6.1044323e-01
 -1.2451062e+00
 -9.5359489e-02
 -3.3786973e-01
 -8.4337598e-01
  6.9886513e-02
  1.2747923e-01
  5.4050368e-01
 -3.7093168e-01
 -5.6062537e-01
 -3.0835974e-01
 -1.2287448e-01
 -4.9492267e-01
 -3.0410737e-01
 -3.1048429e-01
 -3.9463434e-01
 -4.2199591e-01
  3.2929790e-01
  3.9939022e-01
 -3.2840312e-01
  5.7350165e-01
  8.7131828e-01
  9.5920098e-01
  7.7402937e-01
  4.3846214e-01
 -8.9278328e-01
 -6.5770280e-01
  1.5195033e-01
 -9.0748662e-01
 -1.1788853e-01
 -1.0023477e+00
 -7.8206962e-01
 -1.3603950e+00
  6.4586604e-01
 -1.5468091e+00
 -1.6250572e-01
 -4.8955068e-01
  5.0356662e-01
 -2.7413633e-01
 -6.7002058e-01
 -5.9204078e-01
 -5.2023441e-01
  3.0689597e-01
 -1.2566112e+00
 -9.5933521e-01
  6.1586088e-01
  5.9790611e-01
  5.7821548e-01
  6.7593932e-01
  8.4634310e-01
 -7.6246285e-01
  5.9430921e-01
  6.1752981e-01
 -2.1584862e-01
 -2.8886697e-01
  9.6622759e-01
  3.8278982e-01
 -1.9095182e-02
  3.3306488e-01
  1.4517032e+00
 -3.8558823e-01
  1.1949698e-01
 -5.7221520e-01
  1.0718820e+00
 -2.8964081e-01
  2.8243116e-01
  1.9095038e-01
  1.2941098e-01
 -3.6668932e-01
  1.0957484e+00
 -4.1224748e-01
 -2.7828103e-01
  2.2042313e-01
  1.9724788e-01
 -1.1713315e+00
  3.8010541e-02
 -4.0382272e-01
  7.7113438e-01
  1.8531905e-02
 -2.2133999e-01
 -6.8345070e-01
  7.2908616e-01
 -5.3152108e-01
  2.7571568e-01
  2.9766300e-01
  3.6464122e-01
 -5.6107068e-01
 -6.4499998e-01
 -2.1605784e-01
  1.2752843e+00
  1.6027419e-01
  1.2134335e+00
  1.5728159e+00
  2.8795140e-02
  1.1844190e+00
 -2.6722917e-01
 -7.5516902e-02
 -4.4822488e-02
  6.7941153e-01
 -9.0383977e-01
  7.5106531e-01
  1.4201707e-01
 -3.1200165e-01
 -1.0375043e+00
 -3.2715732e-01
  6.7639691e-01
 -2.7236986e-01
  7.4564159e-01
 -1.4851791e+00
 -8.6323071e-01
  1.5302154e-01
  6.1476439e-01
 -6.5524322e-01
  3.0534064e-02
  5.3961074e-01
  9.0024716e-01
 -1.9834152e-01
 -5.1399931e-02
  2.2701120e-01
  2.0360246e+00
 -5.2731019e-01
 -2.8675240e-01
 -1.0678799e-01
  1.4588621e-01
 -6.3216811e-01
  2.5015943e-02
  2.2551781e-01
 -4.9393874e-01
 -5.8781403e-01
 -3.1368315e-02
 -5.5032057e-01
  2.5331491e-01
 -7.4685425e-01
 -3.9984944e-01
  4.2820874e-01
 -5.3750390e-01
 -9.1067672e-01
  1.1649101e+00
 -1.0446496e+00
 -1.0957097e+00
 -1.2572378e+00
  5.5796504e-01
  4.1649392e-01
  1.5478823e-01
  8.1516737e-01
  4.5601082e-01
  3.8487390e-01
  8.2650286e-01
  3.3992985e-01
 -1.2103921e+00
 -6.9006920e-01
  8.3360893e-01
  5.0087380e-01
 -8.1327982e-02
 -7.9121150e-02
 -2.8372297e-01
  2.3574736e-02
  8.4509236e-01
  4.1231340e-01
 -2.1223681e+00
 -9.4709074e-01
 -2.3229851e-01
 -1.5730858e-01
 -1.4192193e+00
  6.9319785e-01
  5.8524728e-01
  5.5891663e-01
  9.1523933e-01
 -7.4059469e-01
  7.8883010e-01
 -1.6175893e-01
  3.6993662e-01
 -2.6462901e-01
  1.1783649e+00
  2.0353346e-01
  1.5374746e+00
 -2.1814630e+00
 -1.4117347e+00
 -8.6295098e-01
 -5.9478599e-01
 -9.6789527e-01
 -4.3925487e-02
  6.2347227e-01
 -6.2853450e-01
  3.9138258e-01
 -2.0581695e-01
 -8.2270390e-01
 -7.5944018e-01
 -3.8898706e-01
 -3.3432224e-01
 -1.4652147e+00
 -1.3602266e+00
  2.5107211e-01
 -1.2091076e+00
 -1.2419907e+00
  9.5290250e-01
 -5.7184541e-01
 -5.8111589e-02
 -2.6220831e-03
  1.5425028e+00
  2.5263318e-01
 -7.8086907e-01
  9.3573458e-02
 -4.2738461e-01
  4.9495843e-01
  2.1802348e-01
 -1.1110634e+00
 -2.3980415e-01
 -2.2183278e-01
  3.8428336e-01
  3.0197319e-01
  7.3905927e-01
 -6.8948275e-01
  7.8232944e-01
 -1.2980971e-01
 -2.5348917e-01
 -1.0304585e+00
 -6.0625070e-01
 -1.2235051e-01
  2.0633517e-01
 -2.0491920e-01
 -6.6125005e-02
 -5.1238847e-01
 -1.2374399e+00
 -2.1673684e-01
  1.3689968e-01
 -1.3716975e+00
  3.1352189e-01
  5.6568164e-01
 -4.4957310e-02
  5.1339662e-01
 -1.3829906e+00
 -6.6010755e-01
 -6.3622051e-01
  3.5046798e-01
  4.0977097e-01
  5.8048433e-01
  1.1010807e+00
 -2.7332422e-01
 -7.9073846e-01
 -9.2381561e-01
 -4.9784088e-01
 -8.1959951e-01
  2.4644527e-01
 -3.4012434e-01
  1.5102568e-02
 -4.0774998e-01
 -5.2915031e-01
 -4.7694483e-01
 -5.8804893e-01
 -1.3726374e+00
 -1.8340571e-02
  8.5169137e-02
  5.3493184e-01
  1.3108402e+00
 -1.0532696e-01
 -4.1074055e-01
  8.7855792e-01
  1.0234783e-01
  6.8874234e-01
  2.2698814e-01
 -1.2074316e+00
  1.4498665e+00
  1.6641925e-01
  6.2364030e-01
 -5.1793110e-01
 -6.7328757e-01
 -9.9633694e-02
 -6.7964172e-01
 -4.7954917e-01
 -1.5457788e+00
 -1.2181463e+00
  7.1688876e-02
  1.2838086e-01
  9.4847655e-01
  1.2369264e-02
  3.1435499e-01
 -1.6513863e+00
  6.3012481e-01
  6.7331499e-01
 -4.1037244e-01
  6.4273393e-01
  1.1016059e+00
 -1.2543455e+00
  4.0014991e-01
 -3.6088812e-01
 -2.6002055e-01
  1.6439320e-01
  5.5933130e-01
 -8.0241203e-02
 -1.1076109e+00
 -8.9174187e-01
  9.9570245e-01
  1.4060672e-01
 -1.4934216e-01
 -7.1868765e-01
  1.6782891e+00
  5.4952884e-01
  1.5162557e-01
  1.5425359e+00
 -8.9909472e-03
  1.3555326e-01
  6.9557106e-01
 -3.0847076e-01
  7.3013914e-01
  1.2515790e+00
 -7.9198301e-01
  4.2628455e-01
  7.2895639e-02
 -7.7359921e-01
  6.0557663e-01
  5.6330866e-01
 -1.8888104e-01
 -9.5703375e-01
 -1.1771150e-01
 -6.7969126e-01
  1.4238647e+00
 -2.4059963e-01
 -7.9602665e-01
  1.2736552e+00
  6.2658615e-02
  4.8423201e-01
 -1.3007365e+00
 -6.2644494e-01
 -1.1511841e+00
 -1.1480846e+00
  1.2970700e+00
 -1.8528869e-03
  8.4870122e-02
 -5.1194537e-01
 -7.8025627e-01
  3.0406952e-01
 -1.8522419e+00
  1.4908704e+00
  9.0644598e-01
 -2.3790510e-01
  6.8623352e-01
  8.9711607e-02
  2.2558498e-01
  1.0261789e-01
  2.6398563e-01
  1.4602299e-01
  5.8975297e-01
 -1.2643653e-01
 -4.3232250e-03
  1.2399408e-01
  9.3379235e-03
  1.4342068e-01
  6.7178477e-03
 -9.7862102e-02
 -2.3745899e-01
  3.1080708e-01
 -2.0286998e-01
  2.0571756e-01
 -3.4814194e-01
  3.3339345e-01
 -2.3222554e-01
 -4.2978119e-02
  1.8779582e-03
  8.0828804e-01
 -1.5316284e-01
  4.0601715e-01
 -1.1680344e-01
  3.6288910e-02
 -1.9034661e-01
 -3.3829454e-01
 -2.6775915e-02
  2.0415797e+00
 -1.4955449e+00
  4.9442321e-01
  9.2019224e-01
 -1.4801821e+00
  1.3914865e+00
  2.2966181e-01
  3.1646302e-01
  2.9785389e-01
  4.9640018e-01
 -3.5006332e-01
 -2.5337493e-01
  5.6690758e-01
 -3.0957115e-01
 -7.5913715e-01
  1.7131140e+00
  7.1912742e-01
 -6.0859025e-01
  1.6754061e+00
 -6.1369747e-01
  5.2776402e-01
  3.6783558e-01
 -1.0183746e+00
  3.1968588e-01
 -1.6022724e-01
 -9.2068583e-01
  4.5810634e-01
  5.6818402e-01
 -1.9704272e-01
 -1.4237957e-02
  2.3501091e-01
  2.8721543e-03
  4.7652349e-01
 -7.2052258e-01
  3.3422387e-01
  7.0811635e-01
 -1.0909308e-01
  9.7996509e-01
 -4.2107177e-01
 -4.1798186e-01
 -1.1423923e+00
  4.9645320e-01
  1.9755608e+00
 -1.0753145e+00
  8.4539437e-01
 -5.6444830e-01
  7.2378922e-01
  9.3007928e-01
 -4.0120488e-01
  3.6497679e-01
  2.1860653e-01
  1.6699159e+00
 -2.9906914e-01
  7.7697909e-01
 -4.1057828e-01
  4.3888333e-01
  2.8280732e-01
 -5.5899441e-01
  7.3749661e-01
 -1.4521620e-01
  3.2706290e-01
 -9.9340880e-01
 -9.3582451e-01
 -2.4011703e-01
 -4.9727234e-01
  4.1648850e-01
 -2.4799272e-01
 -9.5753181e-01
 -2.8547680e-01
  1.0320766e+00
 -1.1562774e+00
  7.2912380e-02
  7.3132925e-02
 -1.1640325e+00
 -4.4301605e-01
  1.1088706e+00
  5.0284442e-02
 -4.8097551e-01
  1.4336147e+00
  5.2860718e-02
  1.4350619e+00
 -1.2357588e-01
  4.0709856e-01
  1.0112149e+00
  1.7657003e-01
 -1.1387993e+00
  9.8086286e-01
  2.8181618e-01
 -7.2365224e-01
 -1.5297717e+00
 -6.3771927e-01
  7.8818297e-01
  1.0793949e+00
  8.6419493e-01
  3.3600429e-01
  8.2670271e-01
 -2.0109923e-01
  6.2606686e-01
  2.2303727e-01
 -5.4780673e-02
 -9.9340081e-01
 -4.8492426e-01
 -9.1989130e-01
  2.2162049e-01
 -5.6573045e-01
  6.2889594e-01
  6.6017699e-01
  7.6812275e-02
 -5.5734974e-01
 -2.3367794e-01
  6.0442168e-01
  5.1547664e-01
 -1.2518011e+00
 -7.9986399e-01
  1.2536265e+00
  2.8831348e-01
  2.6535767e-01
  1.0521555e+00
 -2.9592884e-01
 -7.1589094e-01
 -1.2044922e-02
  5.4548359e-01
  2.0431958e-01
  6.9689846e-01
 -4.1419062e-01
  7.3740971e-01
  8.3823502e-01
  1.8152010e-01
  3.2237765e-01
 -2.4396020e-01
  7.1559298e-01
  3.8347936e-01
 -5.6495297e-01
  2.3618026e-01
 -1.0893812e+00
  1.2206626e+00
 -1.9454132e+00
  9.7186345e-01
  7.9941517e-01
 -1.7545990e+00
  1.9669414e-01
  1.1682622e+00
 -1.9201709e-01
 -9.2036468e-01
  2.0089872e-01
 -1.5255696e-01
 -3.7537819e-01
 -8.0691129e-01
  6.1757237e-01
 -1.1791832e+00
  9.0139218e-02
  1.5860763e-01
 -1.2282523e+00
  1.1045477e+00
 -3.0751574e-01
  1.2648890e+00
 -3.5854590e-01
  6.8433845e-01
 -8.9657283e-01
 -4.4870350e-01
  1.2554675e+00
 -6.0517335e-01
 -7.9834920e-01
 -6.3670534e-01
 -9.5260426e-02
 -5.0004315e-01
 -7.1097478e-02
 -2.2087623e-01
  8.8527578e-01
  8.9025497e-01
 -3.0938536e-01
 -7.5356776e-01
  2.9804733e-01
  1.2388592e-01
 -5.8325285e-01
 -3.2316074e-01
  1.3242124e-02
 -3.7698859e-01
  1.1965248e-01
 -6.7457068e-01
 -1.1967642e+00
 -1.3641732e+00
 -5.6765798e-02
 -5.6906998e-01
  3.2084674e-01
  3.3195910e-01
 -1.7530937e-01
 -2.4710562e-02
  7.0604277e-01
  3.5387266e-01
 -7.3954396e-02
  5.2823782e-01
  1.0228018e+00
 -6.8105155e-01
  3.2488218e-01
  1.3742088e+00
  1.3755876e-01
 -4.7189504e-01
  3.2267490e-01
 -1.2753768e-01
  3.0168805e-01
 -1.0974696e+00
 -8.7403637e-01
  1.3454056e-02
 -1.5794405e-01
 -1.0874346e+00
 -1.0115839e+00
 -9.4510876e-02
 -2.2437245e-01
 -3.1740984e-01
  5.8868319e-01
 -3.1226543e-01
  6.6392100e-01
  4.1931489e-01
 -1.1440939e+00
 -6.2752616e-01
  1.1737788e+00
  5.1470935e-01
 -1.7003028e-01
 -8.9231825e-01
 -2.7239522e-01
  5.1685423e-01
  5.4408574e-01
 -2.6263112e-01
 -9.4009298e-01
  6.4592892e-01
  1.1240595e-01
  6.7517024e-01
 -6.0017538e-01
 -5.3268296e-01
  9.5010763e-01
  7.4234116e-01
  1.3670751e-01
 -1.5911962e-01
  6.1166149e-01
 -1.5730731e+00
 -4.3183824e-01
  7.3106301e-01
 -5.4812276e-01
 -5.3687412e-01
  8.5182256e-01
  7.2557926e-02
 -2.6622504e-01
  1.3665079e+00
  6.0094082e-01
  1.4103738e+00
  1.4054787e-01
 -6.2063932e-01
 -5.5124480e-01
 -5.8582789e-01
 -5.5679339e-01
 -4.3330005e-01
  3.7312704e-01
 -2.4173102e-01
 -5.0464863e-01
 -5.6217921e-01
 -5.9007192e-01
  1.0019697e+00
  5.8605626e-02
  7.9518896e-01
 -6.9984281e-01
  8.4587872e-01
  4.5786309e-01
 -2.8003916e-01
  6.4063621e-01
 -5.6683302e-01
  6.0712528e-01
 -9.0480250e-01
  7.0929545e-01
 -8.0866224e-01
  1.6883687e+00
  4.0676174e-01
  9.1440731e-01
  5.2167088e-01
  6.9847322e-01
  4.4375843e-01
 -8.2612023e-02
  2.9429102e-01
  8.8961720e-01
  1.1693681e+00
 -1.1015573e+00
 -1.4914748e-01
 -3.6827719e-01
 -5.8659279e-01
  1.7792879e-01
  7.2693056e-01
  7.8633338e-01
  1.9659904e-01
 -9.6704799e-01
 -1.1404917e+00
  2.7473173e-01
  6.0811933e-02
 -1.1299241e+00
 -1.0117109e+00
 -2.9110023e-01
 -2.7570155e-01
  3.5711727e-01
  1.1760617e+00
  1.1002861e+00
 -9.3024808e-01
 -1.3252780e-01
 -7.5002301e-01
  1.0922407e+00
 -7.6613158e-02
 -2.1573432e-01
 -1.7284340e+00
 -6.3103956e-01
  3.8761199e-01
  1.2538935e+00
 -9.9496621e-01
  1.9355536e-01
 -5.1337028e-01
 -4.6446282e-01
 -1.0444537e+00
 -4.0767556e-01
 -4.5821571e-01
  1.7082436e+00
 -4.9073589e-01
  3.7298119e-01
  4.7436574e-01
 -3.3271752e-02
 -1.0126226e+00
  4.7985190e-01
  3.7774000e-01
 -6.6604030e-01
  8.8399512e-01
  2.6024398e-01
  5.2482522e-01
 -1.2789749e+00
  2.1595126e-02
  5.8327675e-01
  9.5326364e-01
 -5.6248987e-01
 -2.4255146e-01
  8.2480550e-01
  1.4175741e-01
  9.9444872e-01
 -4.5008135e-01
 -7.1528047e-01
  3.1000966e-01
 -4.1275316e-01
 -1.3904692e-02
 -2.2693114e-01
  2.5665839e+00
 -1.4833221e-01
  1.4192393e+00
 -9.9925715e-01
  8.1644434e-01
  3.8668287e-01
  5.7935704e-02
  1.0527937e-01
 -1.2788544e+00
 -1.1133891e+00
 -7.7810532e-01
  4.7916403e-01
 -1.9693904e+00
  8.2345194e-01
  1.2082818e+00
  3.9693487e-01
  3.6461809e-01
  1.0024257e+00
 -2.4593298e-01
  1.7932653e-02
  1.7932653e-02
  1.7932653e-02
  1.7932653e-02
  1.7932653e-02
  2.9224221e-02
  2.9224221e-02
  2.9224221e-02
  2.9224221e-02
  2.9224221e-02
  1.1970963e-02
  1.1970963e-02
  1.1970963e-02
  1.1970963e-02
  1.1970963e-02
  6.4633326e-03
  6.4633326e-03
  6.4633326e-03
  6.4633326e-03
  6.4633326e-03
  4.4841925e-03
  4.4841925e-03
  4.4841925e-03
  4.4841925e-03
  4.4841925e-03
  4.2974390e-03
  4.2974390e-03
  4.2974390e-03
  4.2974390e-03
  4.2974390e-03
