nep4_charge1 2 H O 
cutoff 4 4 80 80
n_max 4 4
basis_size 8 8
l_max 4 2 0
ANN 30 0
  7.9867333e-01
  1.6503191e-01
 -3.9016124e-02
 -7.9454951e-02
  1.6299486e-01
 -7.1483254e-03
 -1.0909424e-02
  4.4832198e-04
  7.3907460e-04
  7.6575764e-03
 -1.1118204e-02
  2.0228436e-03
 -1.1843204e-01
 -7.6981825e-03
  3.9313445e-03
 -1.8453157e-03
 -1.9225141e-03
  1.5121375e-03
 -1.9735137e-03
 -4.0095989e-03
 -4.9166512e-03
  3.7163665e-04
 -4.8621986e-03
  6.5516746e-03
  5.6350171e-03
 -7.7203091e-04
 -2.4067704e-03
  2.7534787e-03
 -6.4968894e-04
 -1.1669946e-03
  1.0555069e-03
  8.7710097e-05
  1.7889689e-04
 -7.1849732e-04
 -2.0639624e-03
 -2.2984438e-03
 -6.9703958e-03
  6.4524694e-04
 -6.6848210e-04
 -9.4302520e-03
  2.4131406e-03
 -1.6269118e-02
 -2.1104531e-03
  1.8615249e-03
 -2.5527757e-03
  1.8928640e-05
  4.9355822e-06
 -2.5449474e-03
  1.9435441e-03
 -5.8634474e-04
  2.1547734e-04
  7.8874489e-04
  2.7144928e-03
  6.5772620e-04
 -1.5457151e-03
 -1.4667494e-03
 -3.0809080e-03
  1.0588645e-03
 -4.2048728e-04
 -1.5528374e-02
  1.4875895e+00
  8.9397246e-01
 -2.4859545e-01
 -7.1113282e-01
 -1.5878004e+00
  2.3271821e-03
 -1.5419213e+00
 -6.5698642e-01
 -1.1881273e-02
 -3.5636112e-01
 -1.1558062e+00
 -7.6230448e-01
 -1.6064422e+00
 -1.7111080e+00
 -1.2438649e+00
 -5.8635354e-01
 -1.0562775e+00
 -2.1402530e-01
 -5.1691145e-02
 -2.8299028e-01
 -1.4440981e+00
 -1.7566627e-01
 -6.3553758e-02
  1.7534322e-01
 -3.0050462e-01
  2.7191185e-04
  7.7438392e-02
  1.1024611e+00
 -3.3298394e-01
  3.3948635e-04
  5.1462156e-01
  1.3173556e+00
  3.6638886e-02
 -1.1387163e+00
 -4.3003272e-02
  5.1282616e-03
 -1.7922886e-01
  6.2987553e-03
 -3.6935976e-01
 -1.7295595e-01
 -2.9617993e-02
 -4.2167664e-02
  1.3224851e+00
 -5.9578675e-03
  4.4916356e-03
 -6.5178972e-01
 -2.3199294e-03
 -1.4441960e-01
 -4.1978309e-01
  3.2187102e-03
 -2.7081771e-02
  3.4097182e-03
 -4.1221657e-01
  5.0293319e-03
 -4.7957199e-03
 -2.3611893e-03
  4.1386466e-03
  2.6548621e-01
 -1.5188949e-01
 -2.1588667e-03
 -4.4502223e-01
 -5.8767188e-01
 -1.4656287e+00
 -1.5132655e-01
 -2.6149693e+00
 -1.9031557e-01
  2.7025792e-01
  2.8136149e-02
  4.2380166e-01
  2.2325242e+00
  1.2257605e+00
  2.2502176e-01
  1.0746144e+00
  3.0013123e-01
 -3.0720546e-03
 -9.6585341e-02
 -1.9540495e-05
  1.0950440e+00
 -2.3545336e-02
 -1.6359556e-02
 -3.4687620e-02
  1.5932778e-01
  7.4350971e-01
 -1.0869112e-01
 -7.3545001e-05
  3.5152948e-03
  3.8237929e-02
 -1.7545877e-02
  4.6770405e-03
  8.4841009e-03
 -1.7624556e+00
 -4.8262852e-01
  2.3616073e-01
  7.6453827e-02
 -1.2913172e+00
  7.9359049e-01
 -1.1472913e-03
 -8.4327781e-01
 -1.7636812e+00
 -5.5740741e-03
  1.1503607e-04
 -3.3436373e-03
 -8.9681244e-01
 -2.3542683e-01
 -1.9690611e-03
  2.1598276e-01
 -2.8372435e-03
 -9.6500039e-02
  2.6104099e-01
  9.6206879e-03
 -2.8855470e-03
 -1.2937372e-03
  2.1650239e-03
  2.3422497e-03
 -5.2704610e-04
 -6.0882829e-03
  3.7452311e-04
 -2.8285462e-02
  1.8664685e-03
  5.8100703e-03
  4.1359123e-03
  1.1298284e-03
  6.2758126e-04
  1.2391311e-03
 -2.4872329e-03
 -1.0751807e-03
 -2.8909618e-04
  2.6972065e-04
 -2.2465761e-03
  6.4979848e-03
 -3.4684341e-03
  3.5649976e-03
  2.4424561e-03
  4.1497280e-03
 -3.8300641e-03
 -2.2732439e-03
 -4.8434809e-03
  4.9494661e-04
  2.7358195e-02
 -1.1228796e-03
  1.8349063e-03
  8.3501574e-05
 -3.5308327e-03
  7.9993214e-03
 -2.4392391e-03
 -5.0858909e-04
 -2.3789350e-03
 -3.5722982e-04
 -1.5599577e-03
 -2.8653035e-03
  7.4956422e-03
 -4.0968254e-01
 -3.4119915e-02
  9.0524249e-02
 -2.2275858e-03
 -7.6341443e-03
 -1.0610217e-02
 -3.7873855e-03
 -3.3243904e-01
  9.7722220e-01
 -1.8644679e-03
 -5.2786212e-02
  1.6510939e-03
 -1.1109128e-04
 -9.5704594e-04
  1.7770043e-03
 -4.0005716e-03
  5.0843288e-03
  8.1601401e-04
 -4.6545048e-03
 -5.0233044e-03
 -2.6296563e-03
 -5.3931712e-03
 -5.1400876e-03
 -3.8470714e-03
 -5.9748162e-04
 -1.4420218e-03
  7.5663085e-04
  1.0269928e-04
 -1.2822680e-02
 -7.7373534e-01
 -1.1523850e+00
 -2.5212711e-02
 -6.9653600e-02
  1.6865627e+00
 -1.5154743e+00
  4.3340802e-01
 -1.7442518e-03
  4.1182107e-01
  3.9319329e+00
  4.8104587e-01
  1.2703625e-02
 -8.6487865e-01
  4.9637887e-03
  3.9202085e+00
  5.5326104e-01
  9.8330304e-02
  4.2563216e-03
 -3.0327357e-02
  2.5902352e+00
  7.8493959e-01
  1.3566439e-01
  8.1590527e-01
 -3.3358533e-02
  1.4220654e+00
  3.2615490e-04
 -1.0540014e-04
 -1.3022668e-03
 -8.6309749e-04
 -4.2267266e-01
  9.0949297e-01
  1.3888233e+00
  7.8940570e-02
 -1.0688914e+00
 -3.1234259e-02
 -2.9159386e-03
  5.3168780e-01
  6.1242372e-02
 -6.1045561e-02
  2.1683993e+00
  8.4201890e-01
  2.0644159e+00
 -8.4221669e-02
 -1.3879672e+00
  2.1039808e+00
  1.1783465e+00
  5.1653564e-01
  1.2602350e+00
 -7.7622014e-01
  2.6672049e+00
 -3.2916501e-01
  3.4706178e-01
  1.4647172e-02
  6.4532018e-01
  1.0231750e+00
  3.4287511e-04
 -4.9789283e-02
 -2.4151938e-01
  1.0146610e-01
 -1.5000727e-02
  1.5676937e+00
  6.4101958e-01
 -6.3206047e-01
  8.2281590e-01
 -1.6907016e+00
 -1.0771915e-01
  5.6004082e-03
 -4.7434669e-02
  3.3844218e-02
  7.9628016e-04
  1.8299317e-03
  1.6114666e-01
  7.8762800e-02
  1.3284856e-01
  1.9332186e-03
  4.9265288e-03
 -1.7734790e-02
 -1.6610391e-02
  2.4914388e-03
  1.7673481e-03
 -1.5072547e-03
  6.8526842e-02
  3.1969744e-01
  1.5465447e-01
 -2.3707342e-03
  3.0107817e-03
  3.1939998e-02
  1.6831902e-03
 -4.4340105e-03
  4.2768042e-03
 -2.8870872e-04
 -5.8585624e-03
 -1.8756120e-03
 -1.6021557e-02
  6.3616909e-02
 -5.0442480e-03
  2.8432030e-03
  1.2706340e-03
  2.6651006e-03
  4.2690560e-03
  8.9492137e-04
  1.7974549e-03
 -8.0811959e-03
 -2.4206757e-03
 -9.7452378e-04
 -1.3396963e-04
 -1.9406731e-03
  6.3651758e-03
 -3.5250387e-03
 -2.3352185e-04
 -2.8870346e-03
  7.6586328e-04
 -2.4409329e-03
  2.7278153e-04
 -1.0889056e-03
 -3.9000239e-03
  8.1554567e-04
 -1.5598525e-03
  7.9976255e-04
 -2.8863416e-05
 -1.2372749e-01
  4.1338564e-03
 -3.6920908e-01
  1.8405726e-03
 -3.4785357e-01
  1.7297791e-02
 -1.0424912e-03
 -1.2769751e-05
 -9.2703849e-05
  5.3531316e-04
 -3.7819201e-03
 -5.6060497e-04
 -1.2704520e-01
  1.2767439e+00
 -6.0225045e-03
  2.7985831e-03
  3.9952751e-03
 -2.8702174e-04
  6.3324054e-03
  3.4119047e-03
  2.3210759e-03
  5.2422332e-04
 -2.3263590e-03
 -3.6271599e-03
  7.8088895e-04
  4.4723717e-03
 -5.7443656e-04
  5.9612974e-04
  1.2503802e-03
 -2.7267926e-03
 -9.1515094e-01
  4.4686830e-01
 -1.0247302e+00
  5.2969557e-01
 -1.9297271e+00
  2.1735398e-02
 -1.2564668e-02
 -1.9953519e-03
 -5.3717406e-03
 -7.9378766e-01
  4.2650406e-03
 -6.0775451e-04
  7.8367633e-01
 -3.8260000e-04
 -3.9934114e-02
 -1.6405694e-02
  1.7168468e-03
  1.1549860e-03
 -3.4302383e-04
 -1.7330466e-01
 -5.4655182e-03
 -3.7435552e-03
 -2.5903271e-03
 -1.6846667e-03
 -1.1505963e-02
  1.5504651e-03
 -3.2643429e-03
  1.0382211e-02
 -1.0044927e-02
 -2.3201034e-04
  9.0784483e-02
 -2.4933217e-04
 -3.9032349e-01
 -6.9737172e-01
 -1.3251443e-03
  2.7469639e-03
  1.7992061e-03
  2.8887310e-03
 -2.0339924e-03
  1.1104923e-03
 -1.1532148e-03
 -3.0180805e-03
  4.1570462e-04
 -1.2187178e-02
 -1.2060012e-03
  3.3697365e-03
  5.2624065e-03
  1.0153193e-03
 -5.6592841e-03
  2.1673485e-03
  1.1657859e-03
  5.1755301e-04
  7.3086057e-04
 -4.6052353e-04
  2.3775932e-03
 -1.6918757e-03
 -3.2079042e-04
 -8.6166058e-03
  3.6646254e-04
  1.8293850e-02
 -4.2873672e-01
  3.0618301e-01
  4.1795459e-01
  8.1426822e-02
  8.1506789e-01
  2.2519429e+00
 -6.2805688e-01
 -5.2387965e-01
 -5.9931499e-01
  1.0375873e+00
  3.0751500e-01
 -4.4109219e-01
  2.4091735e-01
 -4.7707093e-01
  1.2406034e+00
 -5.1291817e-01
  2.5609151e-02
 -6.3028544e-01
 -3.7663016e-01
  8.0185598e-01
 -1.4006583e-01
  7.4429172e-03
 -8.1698042e-01
 -5.6698161e-01
 -5.0546908e-01
  2.0335049e-03
 -1.5595077e-01
  4.9813133e-01
 -1.5574466e-01
 -5.1821098e-03
  9.2015457e-01
  3.7207727e-03
  5.7810149e-04
  1.8175177e-01
 -2.9147136e-01
  3.7254958e-04
 -9.9319061e-03
  8.9916401e-04
 -2.3903803e-03
 -1.2492335e-02
  2.2704029e-03
 -2.1586232e-03
  7.8836008e-04
  1.3839589e-03
 -2.3411585e-03
 -1.1632668e-02
 -3.7333409e-03
  6.3397904e-04
  1.1519118e-04
  6.7000473e-01
  1.0078887e-03
 -5.9648528e-04
 -3.1576320e-03
  3.1150200e-03
 -1.6318118e-03
 -1.5132310e-04
 -1.1710475e-03
  2.7860219e-02
  2.9412329e-03
  5.6891716e-03
 -1.4124566e-03
 -6.1322427e-03
 -7.2920662e-03
  5.2447761e-03
  3.7634242e-04
  1.2218488e-03
  7.7542560e-03
  2.7819341e-03
 -2.0172533e-03
  4.9057258e-03
  3.8608613e-03
 -2.3143126e-03
 -9.2280716e-05
 -1.2741783e-03
  2.7798356e-03
 -9.3407677e-03
  4.4071809e-03
  3.9619300e-01
 -3.1860819e-04
  2.0666718e-03
  2.4759918e-03
 -3.1549655e-04
  2.9976555e-04
  4.3124431e-03
  2.3429655e-03
 -1.3990046e-03
  4.1979998e-03
 -2.1209167e-03
 -6.1036674e-03
 -4.3065217e-03
 -1.2990334e+00
  5.9097999e-01
 -8.1368762e-01
 -4.6112083e-02
  1.7184086e+00
 -1.0057554e-03
  2.1992789e-03
  4.8047704e-01
 -7.1584129e-01
 -1.0496235e-03
 -6.9899164e-04
  1.4124882e-01
  6.7427009e-01
 -4.9739070e-03
  2.7757627e-01
 -1.8018872e-01
 -9.4784150e-04
 -4.9590323e-02
 -3.9548534e-01
  8.6927001e-04
  5.6585926e-01
  6.2872219e-04
 -3.4098592e-04
 -4.1323393e-03
 -4.7474421e-04
 -2.3522305e-03
  1.0305904e-01
  1.3773236e-01
  5.2301161e-04
 -4.3142475e-03
  2.5233550e-03
  3.4039887e-04
 -1.5508992e-03
 -1.1985670e-03
 -1.2198363e-03
 -4.8014143e-04
  2.4425136e-03
 -2.7403089e-03
 -3.1190296e-03
 -9.2639436e-04
 -9.3076093e-04
 -4.9195453e-03
 -3.6267441e-04
 -2.9262324e-04
  8.0434401e-03
 -1.2755161e-03
 -1.1647424e-03
  8.3494149e-03
 -1.0760017e-03
  3.7038402e-04
  3.6743504e-03
 -1.8010628e-03
  4.1533550e-03
  3.0199633e-04
  4.5479299e-04
 -7.7938992e-03
 -2.2653656e-03
 -3.4795803e-04
  3.3778581e-03
 -2.1528883e-04
 -8.7118936e-01
 -6.6249003e-03
  2.3210652e-02
 -2.2677861e-01
 -3.3557455e-03
  2.2638636e-04
  8.7567829e-03
  2.7588415e-03
  3.5569014e-04
 -2.4184413e-04
 -7.2783581e-04
  2.6756499e-03
 -3.4575833e-03
 -2.0609885e-03
  1.9626692e-03
 -1.1372067e-03
  3.1422076e-04
  2.2808569e-03
  2.3236161e-03
 -2.0233672e-03
  7.0865627e-04
  1.6792601e-03
 -4.2066835e-03
 -9.8690332e-04
  2.2976245e-03
 -6.6125654e-03
 -2.2296368e-03
 -6.9440558e-04
  1.3543736e-03
 -1.4643571e-03
 -3.7240663e-01
 -2.1024717e-03
 -3.6782711e-03
  4.4976771e-03
 -3.9770999e-03
  1.3228382e-03
  6.0104352e-04
 -1.9814130e-03
  2.3201322e-03
 -4.2194887e-03
  3.7437752e-03
 -3.7501429e-03
 -1.5050906e-03
  2.9167659e-03
 -4.5483955e-03
  3.3109513e-04
 -1.2321296e-03
  4.6671792e-03
 -9.2570400e-03
  1.3347518e-03
 -3.0044203e-03
  3.7878586e-03
 -2.1301933e-04
  2.4124531e-03
  6.1187427e-03
  1.7166974e-03
 -4.0076515e-03
  2.9015047e-03
  4.0339679e-03
  7.5190966e-03
  9.1089821e-01
  4.5533893e-01
  3.3265018e+00
 -6.7942905e-01
  1.0670896e+00
 -3.2808512e-01
  1.3529481e-03
 -4.6110000e-03
  9.8893219e-01
  9.5911287e-03
 -2.3628563e-02
  3.1580355e-02
  4.4621870e-01
  1.6009457e-03
 -1.5337513e-03
 -2.7135487e-05
  3.1886892e-03
  4.2196015e-01
  3.8953608e-01
  2.3377257e-05
  2.0559409e-03
 -1.9366825e-03
  1.4199597e-01
 -9.9718571e-03
  9.7391447e-03
  3.1393124e-03
 -6.2600069e-05
  8.4089786e-03
 -1.3080109e-03
  5.7781846e-03
  1.3868460e-02
  1.6871482e+00
 -6.3288552e-01
  1.9793904e-01
  3.0151433e-01
 -7.8144908e-01
  4.3212050e-03
  7.5824147e-01
 -5.1756188e-02
  2.6824505e+00
  1.1235536e-01
  3.8217604e-01
 -2.9046295e-02
  4.5862764e-01
  1.2708057e+00
 -2.3811862e-02
  6.5680951e-02
  1.3308629e+00
 -1.0597572e-02
  4.0769714e-01
 -2.4292166e-03
  1.0110204e-05
  1.0936324e-01
  1.1380689e-02
  7.6429471e-02
  5.5425675e-03
  4.0136367e-01
 -1.1614156e-01
  3.9850451e-02
  1.6476612e-03
  1.8214139e+00
 -4.2601997e-01
  8.7965071e-01
  8.9781475e-01
  3.5101062e-01
 -7.3209532e-02
 -1.9788234e-02
 -1.9695334e+00
  2.0283663e-01
  5.0417735e-04
 -2.0894594e-01
 -9.4435817e-01
 -1.1233088e-01
 -1.4008415e-03
 -1.0245200e-02
 -9.2237256e-02
  4.5929705e-03
  6.8924040e-01
  8.2794792e-04
 -2.4266679e-02
 -3.4696639e-01
 -2.5460354e-04
 -5.4843746e-02
  1.2436535e-02
  3.7651591e-03
 -5.6217698e-04
 -3.8018249e-04
  3.0568684e-03
  2.2115861e-03
 -5.1865135e-03
 -1.6634650e+00
 -7.8032374e-01
  1.7818795e-03
 -1.1248587e+00
  1.9039726e-01
 -4.2061048e-04
 -9.1129902e-04
  1.9513051e-01
  1.1032634e-01
  2.8268754e-01
  2.4847207e-03
 -9.8644905e-03
  5.9304275e-02
 -4.8532789e-03
  4.9088802e-03
 -3.1933209e-03
  6.6310498e-03
  4.0348232e-01
 -9.8082598e-04
 -3.8853048e-03
 -8.5247792e-03
 -3.0500739e-04
 -1.0177655e-01
  3.1696289e-04
  9.9254558e-03
 -2.7271761e-03
  2.9219948e-03
 -5.7475530e-03
  2.1284453e-03
 -7.0088794e-03
  1.9064624e+00
  1.5436314e+00
 -1.5924515e+00
 -2.0993905e+00
  1.5881249e+00
  7.1441597e-01
  3.8702747e-01
  1.2865134e-03
 -1.6036696e+00
  9.5495373e-01
  8.3471012e-01
 -1.1831094e-01
 -3.0667324e-02
 -4.9081278e-01
  3.7028310e-01
  2.6864362e-01
  1.7550303e-02
  5.3178389e-02
 -5.4069906e-03
  4.6155700e-01
  8.7064365e-03
  7.9923368e-04
  5.4570199e-03
 -1.9291803e-01
  1.4936966e-02
 -2.8787954e-03
 -1.6582158e-03
 -3.8483564e-02
  1.1762353e-03
 -6.4982718e-04
  2.4628441e-01
 -1.6905275e-01
  4.0262997e-01
  2.8702721e-04
  1.1802674e-01
 -5.8236066e-03
  3.8734155e-03
  6.3426199e-04
  2.8416424e-03
  3.8506882e-03
  3.3008028e-03
 -5.6171931e-02
  2.9414105e-03
  3.2508909e-03
 -2.5365136e-03
 -3.2498953e-01
 -2.2920102e-03
 -6.9986379e-01
 -3.7837353e-02
 -1.6660541e-03
 -4.2165988e-03
 -4.0153535e-03
 -5.9872445e-02
 -6.8142317e-04
  1.1989105e-03
  4.9725208e-05
  5.7549295e-03
  6.1832233e-03
  7.9406233e-04
  3.4352934e-03
 -2.3631176e-03
 -4.9935439e-05
 -5.1419130e-03
 -1.7386472e-03
 -7.7499603e-03
  2.6045660e-03
 -1.1239565e-04
 -1.1811987e-03
  4.3556169e-03
  3.0828023e-03
 -1.0316522e-03
 -1.5533153e-03
  1.6025230e-03
 -5.3075724e-04
  1.2688416e-03
 -4.5326157e-03
 -1.3867888e-05
 -1.7977343e-03
 -2.6684648e-03
 -2.0019340e-04
  1.5147887e-03
  4.1371291e-03
 -6.6408394e-03
 -1.1877022e-02
 -2.1892667e-03
  1.7642627e-03
 -2.1387115e-05
 -1.8728669e-03
 -3.8232773e-03
 -1.3788883e-02
 -9.9596006e-01
 -8.3250378e-04
  1.5907186e+00
 -2.5813220e-02
  1.8057911e+00
 -1.6197016e-02
  3.5947224e-01
  1.6838080e-03
  1.1940659e-01
  4.9598664e-01
  1.2988977e-01
  8.5385755e-02
 -3.5603175e-01
 -1.5995910e-03
  1.7552910e-02
  2.8348917e-01
  1.8306109e-03
 -2.0532764e-03
  1.6852235e-02
  1.2914971e-03
  3.5973657e-02
  3.2713555e-04
  4.7502065e-01
  4.0831484e-02
  7.6922821e-04
 -1.3602374e-03
 -3.8457967e-03
 -1.4672974e-01
  7.5125531e-03
  3.4309281e-03
 -7.7717847e-01
 -1.4212427e+00
 -2.7812180e-01
 -5.3633225e-01
  1.2176223e+00
  5.0603081e-02
  1.7221185e+00
 -2.0902331e+00
  1.0146236e+00
  6.6845477e-01
  2.1249011e+00
 -8.3041161e-01
  1.0712372e+00
  1.7908546e-01
 -1.9021870e+00
  1.0316281e+00
 -6.9779670e-01
 -9.2647916e-01
 -1.4845837e+00
  2.4539946e-01
 -1.7373044e+00
  1.6945825e+00
  2.1710777e+00
 -1.3264749e+00
 -8.0299658e-01
  1.3285011e+00
  2.8512740e-01
 -1.0854720e-01
  2.1929319e-03
 -1.3867171e-02
 -3.5118321e-01
 -1.9573169e-03
 -1.6319287e+00
 -1.1106311e+00
  1.5959889e-01
  5.2184820e-01
  6.0658767e-03
 -2.5024109e-03
  1.2066487e+00
  2.3143232e+00
 -3.0827818e-02
 -1.1904599e-03
  8.9157959e-03
 -3.9753529e-01
  1.4058457e-03
 -8.8142580e-01
 -6.5053642e-01
  5.1452004e-04
 -9.2389351e-01
  3.4572124e-03
  6.0159159e-01
 -2.8047953e-03
  1.0906743e+00
  9.7987312e-01
 -1.9038155e+00
  4.2667381e-02
  1.3982035e+00
 -4.2348868e-01
 -6.2889993e-02
  8.3658105e-01
  5.5059139e-02
  8.2495160e-02
 -8.2080908e-02
 -1.1915392e-01
  3.9145485e-01
 -2.0569507e-02
 -1.6282305e-01
 -5.2772164e-01
 -3.2085106e-01
  7.3657013e-02
  5.9053731e-01
  8.0576546e-02
 -1.3647933e-01
 -9.7091444e-02
  2.9845807e-01
 -6.5429080e-01
 -1.0104435e-01
  6.8843700e-02
  3.8296659e-02
 -8.3113834e-03
 -7.7085979e-02
 -2.7821058e-01
 -1.5169473e-01
  5.2565706e-01
 -4.0192895e-02
  4.3282366e-01
  1.0762740e-01
  1.9087737e-02
  8.3392970e-03
  1.3230245e-01
 -5.2481085e-01
  1.7628620e+00
  1.6658190e+00
 -4.1374419e-02
  1.7612544e+00
 -6.0955060e-01
 -4.1493647e-02
  1.8759732e+00
 -6.0080677e-01
  1.8844870e-01
 -3.4759378e-01
  2.1685179e-02
  1.3854886e+00
  1.2375119e+00
 -1.1936530e-03
 -1.3789567e+00
 -2.0633930e-01
  1.0798033e+00
 -3.8590026e-01
  9.5620888e-01
 -4.8176956e-01
 -6.1554670e-02
 -1.9162366e-01
  1.7098057e+00
  2.0481685e-01
 -4.3696791e-02
 -3.7851490e-02
  4.6189763e-03
 -1.2500336e-03
 -8.6359624e-03
  3.4600523e-01
 -5.4683812e-02
 -2.9134771e-01
  4.7718507e-04
  3.5181185e-03
 -5.3716609e-03
 -4.9906034e-02
 -1.3330365e-05
 -1.4122677e-02
  1.0843243e-02
 -1.9092558e-02
 -4.9768423e-04
 -2.7401187e-02
 -4.3998337e-03
 -2.1125639e-02
 -3.5360486e-03
 -1.2834817e-03
 -6.8005514e-01
 -9.1799453e-04
 -3.4598038e-01
  1.0538036e-03
 -4.6766343e-04
 -1.1002577e-02
 -4.9720416e-03
  9.8716316e-04
 -1.1619792e-03
 -2.2936177e-03
  4.9795297e-05
  6.2614926e-03
 -2.1077340e-02
  2.8542578e+00
 -2.3270128e-02
 -2.0930105e-01
 -1.1026167e+00
 -1.3483782e+00
  3.1309541e-02
 -1.3940738e-03
  5.6948459e-01
  4.8180953e-01
  2.2313768e-01
  1.8274984e-01
  8.1707578e-05
  3.7173748e-03
 -4.7568278e-03
  6.4363885e-03
  3.2275721e-02
 -1.0628310e-02
  1.3643547e-02
 -1.0451237e+00
  9.9461600e-02
  4.1124169e-02
 -1.3417350e-03
  4.5308258e-02
 -1.0198829e-01
  4.5421311e-01
  4.6390435e-03
  4.4679088e-03
  9.1520222e-03
 -1.1209602e-03
 -3.5926764e-04
  1.3519063e+00
  1.9404517e+00
  1.3441818e+00
 -3.8163781e-01
  1.3282701e+00
 -6.4975238e-01
 -8.0686333e-03
 -7.8222305e-03
  2.2174411e+00
 -5.9802830e-01
 -1.4608012e+00
 -3.3884007e-02
  2.5930843e-01
 -9.8067576e-01
 -4.3773767e-02
 -4.2852548e-01
  4.8115295e-03
 -3.0350196e-01
  2.3293197e+00
 -7.3985327e-03
 -4.8291204e-03
 -3.1094816e-01
 -2.9232296e-01
 -5.5834711e-01
 -4.0016714e-01
 -1.4272816e-02
 -1.0500990e-02
  5.4284842e-03
  6.7884845e-01
 -2.6586649e-03
  1.6124824e+00
  1.0529269e-01
 -5.7397787e-02
  5.4935995e-03
 -8.7954926e-01
  1.5294475e-02
 -7.2450113e-01
 -5.0234681e-01
 -4.2049053e-01
  2.4342803e-02
  3.3089169e-03
  2.1703162e-03
  8.6771466e-02
  9.5948368e-01
 -1.2046368e-02
  1.7791075e-01
 -5.0878301e-02
 -2.2462004e-01
 -2.3716245e-02
 -8.8225398e-03
 -7.7019558e-06
 -7.9124849e-03
  1.3186591e-02
  5.7443804e-01
  8.2938552e-02
  9.3062263e-04
  7.1380222e-03
 -1.7196694e-03
 -9.9539675e-04
 -3.4714926e-03
 -4.2734165e-03
  1.6586573e-01
  3.1317037e-01
  1.2277117e-01
 -1.8328167e-02
 -3.0174705e-03
  1.1191528e-02
  2.9620901e-03
 -7.8413906e-03
 -3.1597679e-03
  9.1317156e-03
 -2.6036699e-03
  6.0327589e-03
 -4.8985919e-03
  1.1635081e-02
  4.4004121e-03
  1.6654389e-03
  5.4418608e-03
 -1.3855746e-03
 -3.2189456e-04
  7.1764342e-04
  1.7517916e-03
 -9.8739681e-04
  1.2951093e-03
 -2.7060406e-03
  2.1069426e-02
 -1.0151671e-01
 -2.4580157e-03
 -3.6853207e-03
  5.6401688e-05
  1.2448467e-01
 -6.8100399e-01
 -1.7627424e-03
  4.8568989e-03
 -1.5002896e-01
  2.4843164e-05
 -1.7650959e-03
  7.3450410e-01
  1.7372179e-03
  1.5093326e-02
  6.8462543e-02
 -3.0203548e-03
  4.4275727e-03
  5.0782395e-04
 -1.5687833e-03
 -1.9905493e-03
 -7.0576174e-03
  1.0390657e-03
  1.5776609e-04
 -2.8975485e-04
  1.9503441e-03
 -1.2473082e-04
 -8.2573487e-04
  3.6919017e-03
 -1.1568238e-03
  8.8981846e-03
  4.3639746e-03
  5.3346092e-03
 -1.3215106e-02
  9.0640243e-03
 -6.3670062e-02
  1.1213333e-03
  4.1413598e-02
 -6.8229577e-03
  1.3342962e-01
 -2.0794038e-01
 -6.9284558e-02
 -3.8693124e-01
  1.0215800e+00
  6.4095485e-01
 -2.9710460e-01
  8.4308743e-02
 -4.6585986e-01
  9.6590251e-01
 -3.8387111e-01
 -7.2862625e-01
  3.0445892e-01
  7.0062613e-01
  1.2281448e+00
 -7.5734293e-01
 -1.4740543e-01
  1.0920302e+00
  6.5654770e-02
  3.1576166e-01
 -8.2912929e-02
 -2.8801525e-02
 -1.4076103e-02
 -1.3175631e-03
  6.4121550e-03
  6.2478881e-04
  1.1511106e+00
 -7.8011423e-01
 -1.8560293e-01
 -6.6134518e-01
 -2.4027377e-01
  1.6601261e-03
 -1.0808845e+00
  3.0706486e-01
 -1.6124841e+00
 -8.6617112e-01
 -1.5341024e-03
  8.0322498e-01
 -2.2467850e-02
 -1.3500663e+00
 -3.7320542e-01
  5.3448598e-03
  4.2137849e-01
 -4.4816595e-01
 -3.3509316e+00
 -5.1996893e-01
 -2.1936023e-04
  7.3776513e-01
 -1.9580719e+00
 -1.3636545e+00
 -1.3860488e-01
  7.7500351e-02
  2.4267482e-03
  2.0889691e-03
 -7.1083599e-01
  7.2610565e-02
  3.9925545e-01
 -8.4575135e-01
 -6.5600865e-02
  3.1752703e-01
  1.7954377e-02
  5.3926092e-04
  3.2116363e-03
 -8.5192019e-01
  3.6171937e-01
  7.7354503e-03
 -7.9272278e-03
 -3.9040624e-05
 -3.4977307e-03
  1.7752564e+00
 -1.7573177e-03
  1.1560729e-03
 -2.4641664e-03
 -3.0734201e-03
  2.0979226e-03
 -1.7611969e-03
  2.0365110e-03
 -6.1473479e-03
 -1.4631257e-02
  5.0693881e-03
 -5.2447012e-03
 -9.1472548e-03
 -1.2897833e-03
 -3.8726537e-03
  5.8778035e-03
  1.2069324e-03
  2.3892460e+00
 -1.1281219e+00
  3.2074292e+00
  2.8205561e-03
  6.1378993e-02
 -9.3284740e-05
 -2.2763584e-02
  7.9471236e-03
 -1.3843606e-01
  1.5043199e-02
 -2.9011909e-03
 -6.5225484e-03
  9.7348166e-05
 -1.8811041e-02
  3.3342582e-03
  5.4906183e-03
  5.7525875e-04
  1.9324268e-03
 -2.4403124e-01
  7.2711223e-01
  1.1018805e-02
 -1.6629900e-03
 -1.1600615e-03
  6.6837897e-03
 -2.7662979e-03
 -3.2920106e-03
 -2.1045718e-03
  1.5132052e-03
 -2.3131580e-04
 -1.8080757e-03
  6.0862142e-01
 -1.4554821e+00
 -1.3861796e-01
 -1.6740713e+00
 -1.5902139e+00
 -1.0621274e-03
 -1.2771765e+00
  5.4618537e-01
 -3.5984343e-01
  9.6124925e-02
  2.1296649e-04
  8.2464439e-01
 -3.5884061e-01
 -1.3436283e+00
 -1.5243134e-01
  1.7563907e-02
  5.7575989e-01
 -1.2609224e-01
 -9.0012193e-01
 -1.0225515e+00
  1.4102858e-02
  4.2778593e-02
 -1.5283488e+00
  2.9441398e-01
  1.8363504e-01
 -9.7863786e-03
 -1.1421473e-02
  6.9535882e-03
  8.9164535e-03
  2.4663156e-03
 -1.8465368e-01
 -5.9924012e-01
 -2.1429054e-01
 -9.5829123e-01
 -8.4548461e-01
  6.0971454e-02
  1.6487245e-02
  4.3577129e-01
  1.0877875e+00
  3.7427625e-01
 -6.9051348e-03
  3.0762812e-01
  3.1215644e-01
  1.3802886e+00
 -3.1330241e-04
  3.2222128e-04
  3.4999498e-03
  5.7914513e-01
  2.0036623e+00
  1.8995215e-01
  7.3032890e-04
  4.9747387e-04
  4.2924512e-02
  1.4500089e+00
  2.3877011e-03
  8.2908068e-03
  5.1727863e-03
 -7.6268739e-03
 -4.7468198e-03
  1.5354169e-02
  1.7854458e+00
 -1.0515828e+00
 -1.8866651e+00
 -1.5316557e+00
 -5.2866638e-01
  7.2580944e-03
  2.7181292e-03
  9.7765476e-02
 -7.0182967e-01
  9.8679319e-04
  1.9919626e-01
 -3.8001853e-01
 -7.5478613e-02
 -5.1125324e-01
 -5.8767597e-05
  1.2250698e-01
 -9.9482067e-02
  8.7687011e-05
 -1.7371548e+00
 -1.5612032e-03
  1.5959736e-02
 -2.2424026e-03
  2.9091486e-01
 -3.1545788e-01
 -2.1809592e+00
  1.2170983e-03
  8.5656421e-04
  2.7048911e-03
 -9.0992113e-04
  5.1389076e-04
 -2.3139801e-03
  3.6370806e-02
  1.0564966e-01
  1.4433241e-03
  2.3399144e-03
 -1.5526216e-03
  5.8414141e-04
 -1.7541893e-03
 -2.4267267e-03
 -3.4068368e-04
 -3.7838606e-04
 -3.3859344e-04
  2.4475169e-03
 -1.2000323e-03
 -3.8318937e-03
  5.8761411e-03
 -1.8822416e-03
  7.6194988e-03
 -5.9404448e-03
  4.4074203e-03
 -1.4891304e-03
 -4.1848668e-03
  7.2850089e-04
  1.4248805e-02
 -1.5776939e-03
  1.4106191e-03
 -2.9344123e-03
 -1.6868059e-03
 -1.9540251e-03
  7.2230618e-03
 -6.6894585e-01
 -4.5450646e-01
  8.9195299e-01
  2.0756595e+00
 -6.6099751e-01
  4.4581788e-03
 -2.7322154e-02
 -1.4100758e+00
 -2.4516889e-01
 -3.8033674e-04
  1.7000137e-01
  1.9630680e+00
  1.5411742e-01
 -2.0413683e-01
 -3.6814639e-01
  6.8279046e-01
  9.8194676e-03
 -1.0793109e+00
  4.1698584e-01
  3.1171657e-02
  4.4038385e-01
  1.9426505e-01
 -5.6150056e-02
  2.4006130e-01
  3.0395946e-02
  1.5876487e-02
  1.2859534e-02
  6.1321551e-01
 -2.5759822e-01
  8.1683904e-02
 -4.6536764e-03
 -4.1441675e-03
  1.4830874e-03
 -5.8393087e-04
  2.5541147e-03
 -9.1194874e-03
 -2.9061611e-03
  1.9525275e-04
 -3.9494769e-03
  3.9214301e-03
  4.4943760e-03
 -1.1602831e-03
 -6.4630606e-03
  1.0421785e-03
 -1.5820389e-03
 -1.6347284e-03
  1.8960903e-03
 -3.5182643e-03
 -4.0472690e-03
  9.0826472e-04
 -5.4443459e-04
  1.1725590e-03
 -2.4299209e-03
 -1.0719039e-03
  7.2179572e-04
  1.7686677e-03
  2.8240955e-03
 -3.0812873e-03
 -5.6945911e-04
  1.5306909e-03
 -2.2312889e+00
 -8.3265841e-01
  2.0247957e-01
 -1.1305561e-01
 -4.2301561e-03
  4.2017596e-03
 -1.2475115e-01
 -4.9295235e-01
 -2.1302252e-01
 -1.4294696e-01
  2.9921245e-03
 -2.7151626e-02
  1.2696386e-02
 -1.6011265e-01
  4.0799747e-03
 -5.7602888e-03
 -4.6473939e-02
  2.8388211e-01
 -1.0951407e+00
  2.0368367e-02
 -3.1678602e-03
 -8.8260785e-02
  3.0919546e-03
  1.0509541e-01
  6.2417910e-03
  9.2242635e-04
 -1.4924937e-03
  1.1346855e-03
 -2.4903039e-03
  4.2043137e-03
 -1.0850651e+00
  3.2570267e+00
  4.4230902e-01
 -1.5638988e-02
  7.4128759e-01
 -2.8428635e-01
 -2.0294564e-02
  1.4899143e+00
  6.6300869e-01
  2.9143870e-01
 -1.2505171e+00
 -2.2952552e-01
  1.3477594e+00
  1.9010822e+00
  1.6365826e+00
 -1.4279474e+00
 -6.5984714e-01
  8.9685583e-01
  1.9248061e+00
  1.1028354e+00
 -7.7645850e-01
 -2.8972620e-01
  1.2255609e+00
  3.9329475e-01
  3.7633568e-01
 -2.8860405e-01
 -3.1674469e-01
  2.0692771e-02
  7.1949834e-01
 -1.2983517e-01
 -1.6960984e+00
 -4.1288599e-01
  7.8042734e-01
  7.9821330e-04
  3.3537924e-02
  1.5935794e-03
  7.6053417e-01
 -2.3547374e-02
 -7.7393335e-01
 -8.8945646e-03
  1.4789489e-03
  1.0389610e-02
  9.6701562e-01
  1.3306953e-01
  6.3357860e-01
 -3.5118622e-01
  2.3862813e-01
  1.9958777e+00
  6.5809297e-03
  1.0065499e-01
 -7.7590585e-02
  1.5451160e-01
  6.2079901e-01
  9.3911105e-01
  2.8025389e-01
  1.1937775e-03
 -2.8041189e-03
 -5.0681653e-03
 -5.0674719e-03
 -4.9800915e-03
 -5.2202696e-01
 -3.0634478e-02
  5.1880544e-01
 -5.9493300e-02
 -6.0629511e-01
  1.8587459e-03
  6.6939884e-01
  1.2734152e+00
  8.9865738e-01
  9.6297748e-03
 -1.7260702e-01
  3.6699753e-02
  1.6891402e-01
 -3.1062034e-01
  7.9265662e-02
 -1.5109006e-02
  5.4491144e-01
  2.1761658e+00
 -1.3952354e+00
 -3.1814873e-01
 -1.8171193e-01
  5.8462066e-03
  7.9252549e-02
  7.6960284e-01
 -3.8755831e-01
 -2.5115705e-03
  3.6063594e-01
 -1.8375164e-03
  1.0338764e+00
  2.8991271e-02
 -5.1533610e-02
 -2.1492455e+00
 -1.3639234e-01
  3.8476679e-01
 -3.2922101e-01
  1.5027560e-01
  7.1985334e-01
 -2.8650573e-01
 -5.6113625e-01
 -4.7751561e-01
  3.6088783e-01
 -2.0826389e-03
 -3.6276244e-02
 -8.6791784e-01
  5.8119379e-02
  1.6238255e-02
  2.1565463e-01
  4.0752736e-01
  9.8772180e-01
 -3.7514053e-03
  1.0023991e-01
 -2.8869139e-02
 -4.6071640e-01
 -2.6005030e+00
  4.6930331e-04
 -1.2791804e-03
  3.8047659e-03
 -1.4514745e-04
 -3.6405556e-02
  3.7722380e-03
  5.0598508e-01
 -4.3490365e-01
  4.0705925e-01
  2.0394560e-03
 -8.6432854e-03
 -9.0306875e-04
  6.6130742e-02
  2.1446347e+00
  1.6576128e-01
 -1.6090879e-01
  6.0027804e-02
  8.4850095e-02
 -2.5721602e-03
  7.7897487e-03
  7.4084871e-03
 -5.7089543e-03
 -2.2805278e-04
 -2.5435993e-03
 -1.1383594e-02
 -2.2424685e-03
 -2.5246325e-03
  4.4042431e-03
 -5.4969788e-03
 -2.1345623e-02
  1.2233376e-03
  8.5479778e-04
  7.1319305e-06
 -2.4633412e-04
 -1.0636599e-01
  2.1304151e-03
  1.6964433e-01
 -4.0312815e-02
 -2.1440383e-02
 -3.8437168e-03
  1.0189387e+00
 -1.5838023e-01
 -1.2753768e-02
 -1.0006762e+00
 -4.6576998e-01
  1.4035831e-02
 -4.0242940e-01
  1.6786596e-02
 -2.5945848e-03
  2.6227203e-03
 -6.3662250e-03
 -2.3813131e-01
 -8.0147089e-04
  2.3693668e-03
  4.2430416e-02
 -1.9765657e-01
  4.2765486e-04
 -7.7013177e-01
 -1.2187188e-03
  3.2352164e-01
 -1.2531798e-02
 -3.8729783e-02
 -5.9501575e-03
  2.4597818e-04
  1.8584972e-02
 -7.4885753e-03
 -3.0449432e-01
  2.7530997e+00
 -3.8899168e-01
  6.2217116e-02
  2.6015198e+00
 -2.0027377e-01
  1.9707048e-01
  1.4657311e-01
 -1.1053249e-03
 -3.1266138e-02
 -7.8200120e-01
  5.2190204e-03
  4.6066451e-01
 -2.6450145e-01
 -1.9206940e-03
 -6.7927802e-01
 -2.2459254e-03
  5.7522261e-01
  9.6665323e-01
  9.2144898e-04
 -3.4995431e-01
  1.0429933e-03
 -2.2088753e-03
  2.3257972e-01
 -5.6928271e-01
 -1.1422157e-03
  4.4657574e-03
 -1.8643073e-03
  1.8029889e+00
  6.1955163e-03
  1.3188411e-03
 -4.9843168e-01
 -9.2057472e-01
  3.6474951e-03
 -2.4243253e-03
 -2.4258923e-03
 -8.4334734e-04
  3.3100415e-03
 -1.1272718e-03
  9.5435540e-04
  3.7882563e-03
  5.2771362e-04
  3.9251093e-03
  5.4324386e-03
 -4.1060206e-03
  2.6342864e-03
  2.0055233e-03
 -7.2022356e-02
 -4.3552048e-03
  1.0766980e-03
 -8.8222127e-04
  1.4808035e-02
 -1.0184568e-02
  3.8539982e-04
 -3.0903317e-04
 -5.9452159e-03
 -2.9634961e-03
  2.3330725e-03
 -2.7742863e-04
 -3.7274484e-03
  8.1209552e-01
  6.0042697e-03
 -2.9868379e-04
  8.1444124e-04
 -6.2912838e-03
  1.0671780e-02
 -1.4299898e-03
 -5.3886967e-03
 -1.6594339e-03
  4.5838174e-03
 -4.6540942e-04
 -6.2677679e-03
  4.2163157e-03
 -3.5462044e-03
  1.5715057e-03
  8.0411432e-05
 -5.1217392e-04
  2.1790240e-03
  6.2234703e-02
 -5.7125981e-03
 -4.7929105e-03
  2.5785492e-05
  1.8677545e-03
  1.2494801e-03
  5.6711485e-04
 -3.0041285e-05
  2.3188307e-03
  1.8418637e-03
 -2.8941848e-03
 -1.3164501e-03
 -5.6921065e-01
  1.7727926e+00
  1.2032824e+00
 -1.5682209e+00
  1.3198150e+00
  1.2402274e-01
  9.2217393e-02
  2.1319063e+00
 -1.2144674e+00
  1.3221346e+00
  1.7521031e-01
  5.2500987e-01
  1.3216176e+00
  6.1050311e-02
  2.0572431e+00
 -3.2149521e-03
  8.4101808e-01
  1.0316060e+00
 -1.8560601e-02
  9.0018654e-01
  4.7438708e-03
 -7.0815724e-03
  1.8871013e+00
  1.2638463e-01
  9.7666246e-01
  2.6049194e-01
  2.6777195e-02
  1.4086525e-01
 -3.0041307e-01
  2.0003458e-02
 -7.5363702e-01
 -1.6238225e+00
  3.7642294e-01
  6.3031050e-04
 -3.3235173e-03
  1.9350520e-03
 -8.0075473e-01
 -4.3545628e-01
 -3.3253878e-01
  6.8344572e-03
  1.3524094e-03
 -1.7114589e-03
 -3.7391511e-01
  6.7763442e-01
 -5.1810753e-02
  3.5179430e-01
 -9.3075715e-02
  1.4081768e+00
  1.1173891e-03
  1.6297756e-03
  2.0950160e-03
 -9.3296124e-03
 -5.4961856e-04
 -1.0157403e-01
  8.1486078e-03
 -7.0335343e-05
  4.3979483e-03
 -1.6504878e-03
 -1.3846259e-03
  7.5275376e-03
 -5.2323526e-01
  2.5186651e+00
  2.4326345e-01
 -1.2437267e-03
 -4.8936572e-02
 -2.1508841e-01
 -2.4126587e-02
  1.0072383e+00
  2.0802858e+00
  5.3436626e-02
 -1.4938015e-01
 -4.7377953e-03
 -2.8844647e-02
  1.9429483e-01
  1.0466831e-03
  2.2778313e-03
 -1.1775368e-02
 -7.8192323e-01
 -3.6320230e-04
  1.1260159e-02
 -3.8369723e-02
 -3.9174207e-04
  5.4177390e-03
 -1.0594810e+00
 -6.1173965e-03
  1.9920426e-03
 -5.8707584e-02
 -1.8387147e-03
 -2.8597724e-03
  6.4410985e-04
 -8.4284872e-01
 -9.2292732e-01
 -9.9587828e-01
 -2.8413406e-01
  1.3139523e+00
 -9.2410833e-01
  1.4144062e-03
  1.1647556e+00
  3.9658239e-01
  1.4747182e+00
  1.6967682e+00
 -4.4423871e-02
 -1.9416744e-01
 -1.8502817e+00
 -1.7647487e+00
 -8.5526603e-01
  5.5433082e-04
 -4.7972780e-01
  7.2930969e-02
 -9.4882375e-01
 -1.0674951e+00
  2.4437943e-01
  7.3592871e-01
 -2.0390909e+00
 -9.7418912e-02
 -6.0011619e-01
  2.1410439e+00
  7.5631148e-01
 -8.9791107e-01
 -3.9968458e-01
 -2.4840689e+00
 -4.0681172e-02
  1.1309910e+00
 -1.5700244e+00
  2.0718859e-01
  2.2987546e-04
  3.9065373e-01
 -1.6328930e+00
  1.5730042e+00
  2.8782438e-02
  4.6620904e-03
  1.6898390e+00
 -1.6719424e+00
  2.5918860e+00
  3.2072626e-03
  1.2004553e+00
 -1.2104867e-01
 -1.6156099e+00
 -2.2200000e+00
 -1.0667765e+00
 -1.7645321e+00
  9.3546230e-01
 -1.5862703e-02
  5.9620879e-04
 -2.0398824e+00
  1.4319135e-01
  3.7490570e-03
 -6.7821521e-01
  1.2251228e+00
 -9.2398322e-01
 -2.7751476e-01
 -1.1629959e-01
 -5.1682733e-02
  3.5011794e-02
  6.2107086e-01
  1.1255677e-01
  5.2758667e-04
 -7.7740870e-02
  4.1553050e-01
 -1.9127525e-01
 -2.6673570e-01
 -2.9898527e-01
  2.9134771e-01
 -2.2613180e-01
  3.8474995e-01
  3.8386559e-01
 -7.5377161e-03
  2.5034094e-01
 -6.3243859e-02
 -4.5035309e-01
  7.1613300e-01
  2.6436686e-03
  1.0569206e-01
 -6.5486532e-01
  1.6527654e-01
 -4.5023248e-02
  4.2361158e-01
  2.1546498e-01
  3.0888364e-02
 -1.5854193e-02
  1.3641251e+00
 -8.4314060e+00
  7.9714382e-01
  6.1448491e-01
 -2.2055025e+00
  1.8327303e-01
 -1.0051378e+00
 -6.5944314e-01
 -7.7503383e-02
  1.5978754e-03
  7.1179330e-01
 -1.1265759e+00
  5.4447025e-01
 -1.3409699e+00
 -6.7772049e-01
  2.6135998e+00
  1.6359205e+00
  1.0133661e+00
  1.9272704e-02
  3.5357627e-01
 -8.9478546e-01
 -4.7066638e-01
 -1.2230752e+00
  3.1201193e+00
 -1.4589065e+00
  6.3357151e-01
 -7.6299441e-01
  1.9891006e+00
 -1.6573955e+00
  2.3327935e+00
 -1.7144348e-01
  2.1837988e+00
  1.9048944e-01
  4.6243495e-01
 -1.5767281e-01
 -1.2529620e+00
 -7.9541601e-02
  4.8512667e-01
 -6.9967620e-02
 -1.0118867e+00
 -7.9284239e-01
 -1.2430081e+00
  2.8799186e+00
 -2.9287592e-02
  2.4431834e+00
 -3.1034026e-01
  3.9121631e-01
 -1.5088762e+00
 -1.7864192e+00
 -5.5030562e-02
 -1.7978477e+00
  1.5899311e+00
 -1.8773286e-01
 -1.1514727e+00
 -1.0142958e+00
 -6.8138510e-01
  3.3033326e+00
  7.5228554e-01
  3.0527505e-01
  1.9000368e+00
  1.0828636e+00
 -1.2510207e-01
 -2.9227936e-01
  1.7650956e+00
 -6.5658015e-01
 -2.9446864e+00
 -3.4277979e-01
 -5.6410361e-02
  1.9237992e-01
 -2.1356624e-01
  8.2428329e-02
 -1.1626525e+00
  1.9158460e-01
  1.0859061e+00
  3.9522699e-01
 -1.2511224e+00
  9.2926604e-01
 -5.4763246e-01
  4.3713088e+00
  1.7643954e+00
  4.4082503e+00
 -1.2771293e-03
  5.3819066e-01
  8.2531083e-01
 -6.0473436e-01
  1.3231835e+00
 -9.5678627e-01
  1.6185074e-01
 -8.2556379e-01
 -1.7198582e+00
  9.4824189e-01
  1.1273313e+00
 -1.0012256e+00
  3.1283298e-03
  4.7888613e-01
 -1.2950889e+00
  5.1020395e-02
 -1.0520071e+00
 -4.7740081e-01
 -3.8868564e-01
  1.2111877e+00
 -1.6900270e+00
 -5.7822704e-01
  6.9725281e-01
  4.8312908e-01
 -3.6316749e-02
  3.9534849e-01
  2.6713965e+00
  1.0390939e+00
  2.4090018e+00
  9.9078447e-01
  3.5930543e+00
 -1.1935923e+00
  1.0719208e-01
  1.5829948e-01
 -4.7191992e-04
  9.8055315e-01
 -7.6445064e-04
  8.6701410e-03
  1.5462589e-02
  1.7231649e-01
 -3.4991816e-01
 -2.2840254e+00
  2.2502370e+00
 -1.1473076e+00
  6.0623300e-01
  1.4646400e+00
  1.5805789e+00
  1.0156082e+00
  1.9968435e-04
 -2.0938747e+00
  1.8909146e+00
 -1.2071878e-01
  5.5854410e-01
 -1.3525473e+00
 -5.7476532e-01
 -2.4199203e-02
  4.9810869e-01
 -6.8946898e-01
  1.4579513e+00
  1.5755460e-01
  4.0943035e-01
  2.5686292e-02
  1.2977942e-02
  1.0553406e-01
  2.4073975e+00
  2.6358673e-01
 -5.9174482e-02
  3.3308402e-01
 -8.0521405e-02
  5.0141466e-01
  5.3028804e-01
  2.4676549e+00
 -3.7121785e-01
 -1.7354105e+00
  7.5389558e-01
  5.7309633e-01
  3.7043939e+00
 -2.4207296e+00
 -1.2214546e+00
 -4.1877039e-02
 -1.9895454e-01
  3.3145374e-01
 -3.0295644e+00
 -1.9972368e-01
  5.5843573e-02
  4.8341799e-01
  2.0088496e+00
 -3.6551878e-01
 -9.1496253e-01
  9.6067005e-01
  3.7283936e+00
 -1.0056704e+00
  1.7414930e-01
  7.6076019e-01
  3.0615854e+00
 -1.9304094e+00
  6.0776034e-03
  7.3250425e-03
 -2.3564448e+00
 -1.2901009e+00
  4.5018617e-02
  1.3965869e+00
 -1.3026329e+00
  9.0208763e-01
 -2.5420830e+00
  1.4777465e+00
 -2.1478164e+00
  2.5316587e-01
 -3.4708762e+00
 -2.2219643e-01
  3.2101407e+00
  5.5764472e-01
  1.3453006e+00
 -5.1776253e-02
  2.1057634e+00
 -8.1396824e-01
 -1.3628904e+00
 -3.5875589e-02
  5.2413732e-01
 -1.0023723e+00
 -1.3833301e+00
 -1.0748539e+00
 -9.1679174e-01
 -7.5936997e-01
  6.5997797e-01
 -1.3013027e+00
 -7.6468307e-01
  6.9596142e-02
 -1.5101930e+00
 -6.1918145e-01
 -4.2994675e-01
  2.2721930e-01
 -6.5114319e-01
  2.6384944e-01
 -3.6333197e-01
  2.0758301e-01
  1.0871776e+00
 -2.9910788e-01
 -1.2630501e+00
 -4.6291661e-02
 -2.0393846e+00
 -1.1390002e+00
 -1.6904383e+00
  3.8696083e-01
 -1.0690826e-02
 -2.4109960e-03
  3.1372788e+00
 -1.5306231e+00
 -5.7835990e-01
  6.8834329e-01
  2.0439246e+00
 -3.2498527e-01
 -7.6193869e-01
 -6.5122437e-01
 -2.8507715e-01
  1.2270596e+00
  1.2674375e-01
 -7.6894784e-01
  7.3331082e-01
  1.1998532e+00
 -8.6360648e-02
 -8.2599550e-01
 -5.1702857e-01
  1.1861216e+00
 -1.1675190e+00
 -1.3541056e-01
 -9.8611158e-01
  6.4588207e-01
  6.0912031e-01
 -2.0483156e-01
 -7.9592919e-01
  3.1852686e-01
  3.6021698e-01
 -8.4540391e-01
 -1.2843677e+00
  8.5233891e-01
  1.5333085e+00
 -1.6853590e-01
 -2.5085063e+00
  4.1697279e-01
  2.1887490e-01
 -4.6140191e-01
  2.4449840e+00
  5.9053086e-02
 -6.1629313e-01
  1.9213301e-01
  2.1534707e-01
 -1.5536127e+00
  1.3872368e+00
  9.6540970e-01
 -2.6193762e-01
 -2.7997692e+00
 -2.9103355e-03
  5.7887644e-01
  2.6898072e+00
  6.5330619e-01
 -4.6727825e-02
 -4.8033318e-01
  1.0070582e-01
  8.2715827e-01
  1.2414702e+00
 -2.5502518e-01
 -1.2218829e+00
  3.2002187e-01
 -5.6890064e-01
 -2.0525472e-01
 -6.5877753e-01
 -1.0468215e+00
 -1.6914095e-01
 -1.6963565e+00
  9.3125010e-01
  1.3569206e-01
 -4.2846307e-01
 -1.2559985e-02
 -7.4595290e-01
  3.7673387e-01
 -2.3195896e-01
  6.8795949e-01
  7.4272829e-01
 -1.3340138e+00
  1.8471655e-01
  7.9098225e-01
  1.4554365e+00
  4.9374375e-01
 -6.2151146e-01
  5.6294847e-01
 -1.7560753e+00
  2.4573061e+00
  2.3648987e+00
  9.0374500e-01
 -1.0796311e+00
  1.2269495e+00
  8.7658787e-01
 -4.0357164e-01
  1.3462089e+00
 -4.6704945e-01
 -2.2082913e+00
 -6.4660352e-01
  1.0451598e+00
 -8.8451481e-01
 -1.5426002e+00
 -5.5483776e-01
 -6.3596070e-01
 -3.2403272e-01
 -1.5482390e-01
 -9.5636338e-01
 -8.2168001e-01
  8.1630456e-01
 -9.0200281e-01
 -8.3821356e-01
  1.4125280e+00
 -1.1664375e+00
 -2.1515202e-03
  3.5844827e-01
 -6.4633244e-01
 -5.7906204e-01
  5.6008226e-03
  6.1309367e-01
 -1.7678572e+00
 -2.6655108e-01
 -7.1656740e-01
 -1.5038182e-01
 -5.1583879e-02
  4.1941658e-02
  2.5074999e-03
 -4.7976410e-01
  1.3202693e+00
 -1.1950582e+00
 -2.7293022e-04
  2.3319335e-01
  2.6122563e+00
  1.2616391e+00
 -2.6173763e+00
  6.3894594e-01
  1.3609862e+00
  1.6127194e+00
  1.1633581e+00
  4.6480817e-01
 -2.0184627e-01
  8.1640208e-01
 -1.0892165e+00
  1.7932653e-02
  1.7932653e-02
  1.7932653e-02
  1.7932653e-02
  1.7932653e-02
  2.9224221e-02
  2.9224221e-02
  2.9224221e-02
  2.9224221e-02
  2.9224221e-02
  1.1970963e-02
  1.1970963e-02
  1.1970963e-02
  1.1970963e-02
  1.1970963e-02
  6.4633326e-03
  6.4633326e-03
  6.4633326e-03
  6.4633326e-03
  6.4633326e-03
  4.4841925e-03
  4.4841925e-03
  4.4841925e-03
  4.4841925e-03
  4.4841925e-03
  4.2974390e-03
  4.2974390e-03
  4.2974390e-03
  4.2974390e-03
  4.2974390e-03
